tree
version=v4
num_class=1
num_tree_per_iteration=1
label_index=0
max_feature_idx=12
objective=binary sigmoid:1
feature_names=market_price spread_bps vol_24h time_to_close_sec ambiguity_score freshness_score source_agreement_score official_source_present llm_confidence retrieval_count price_momentum_1h price_momentum_24h raw_probability
feature_infos=[0.00050000000000000001:0.99950000000000006] none none none [0:0.20000000000000001] [0:0.59999999999999998] none [0:1] [0.69999999999999996:1] [0:6] none none [0.01:0.97999999999999998]
tree_sizes=549 993 989 994 992 993 874 994 991 992 995 997 996 892 999 998 997 999 1001 892 994 992 1000 996 994 1005 1005 1005 1003 898 992 998 997 1003 1002 991 1004 1012 1005 879 904 991 1117 1112 999 1109 1097 1211 1210 900 1317 1313 1318 1312 1001 1116 1119 899 1112 895 1008 884 1009 1002 1007 1416 1418 904 879 1638 1019 1321 1016 1429 1321 1439 1437 1439 1441 1442 1317 991 1528 1232 786 1091 1304 1212 1095 1317 1521 1205 878 880 1639 1226 1227 1012 1231 886 996 1100 1222 995 1412 1224 1331 1100 894 787 786 1112 1115 1114 1111 1428 1646 1213 1321 1536 1232 1432 1433 1230 1318 1446 1451 1457 1768 1457 1226 1220 1222 1227 1228 1202 1201 1206 1203 1001 789 998 793 888 999 1096 1645 1641 1539 1551 1007 1115 1120 1122 796 1308 1012 1672 792 794 685 1122 1011 1013 1124 785 1460 1464 1463 1462 1113 1449 1116 1117 1451 1447 1454 790 1107 1217 1309 1306 1313 896 1319 1225 790 1128 1348 1352 1099 899 789 993 991 1214 1215 889 1110 1108

Tree=0
num_leaves=4
num_cat=0
split_feature=0 0 0
split_gain=99.4771 22.9499 3.69785
threshold=0.67500000000000016 0.42000000000000004 0.038750000000000007
decision_type=2 2 2
left_child=1 2 -1
right_child=-2 -3 -4
leaf_value=-1.4922729665532588 -1.171311257919496 -1.365833505576322 -1.4450727152835878
leaf_weight=19.161163911223419 3.2714182287454596 5.1408000737428656 5.2965818941593161
leaf_count=123 21 33 34
internal_value=-1.43295 -1.46187 -1.48205
internal_weight=32.87 29.5985 24.4577
internal_count=211 190 157
is_linear=0
shrinkage=1


Tree=1
num_leaves=8
num_cat=0
split_feature=12 12 12 12 7 12 4
split_gain=53.9534 12.4876 0.945666 0.815042 0.127099 0.0214174 7.9694e-07
threshold=0.47500000000000003 0.64000000000000012 0.31000000000000005 0.32500000000000007 1.0000000180025095e-35 0.41000000000000009 1.0000000180025095e-35
decision_type=2 2 2 2 2 2 2
left_child=2 4 6 -4 -2 -5 -1
right_child=1 -3 3 5 -6 -7 -8
leaf_value=-0.061332170151495016 0.045290308928338401 0.16690863779855977 -0.019043018668438005 -0.049642087711688959 0.058381126813067036 -0.045009786060616619 -0.061300767130871826
leaf_weight=3.7649420350790042 3.7055248171091062 3.4567582458257675 3.5183970630168906 4.2387518584728223 3.7111395597457886 6.0663384348154068 4.3599652945995331
leaf_count=25 23 20 23 28 23 40 29
internal_value=-0.00265676 0.0884218 -0.0477779 -0.0398211 0.0518407 -0.0469152 -0.0613153
internal_weight=32.8218 10.8734 21.9484 13.8235 7.41666 10.3051 8.12491
internal_count=211 66 145 91 46 68 54
is_linear=0
shrinkage=0.05


Tree=2
num_leaves=8
num_cat=0
split_feature=12 12 12 12 7 12 4
split_gain=47.7151 9.55632 0.941936 0.788289 0.104591 0.0212317 6.63458e-07
threshold=0.47500000000000003 0.64000000000000012 0.31000000000000005 0.32500000000000007 1.0000000180025095e-35 0.41000000000000009 1.0000000180025095e-35
decision_type=2 2 2 2 2 2 2
left_child=2 4 6 -4 -2 -5 -1
right_child=1 -3 3 5 -6 -7 -8
leaf_value=-0.060658089543373761 0.04186402753537017 0.14500339888077385 -0.018313036333942077 -0.048710497936051214 0.05356069191557087 -0.044027952365473522 -0.060628869119748144
leaf_weight=3.620109528303149 3.805649667978285 3.7709283232688904 3.4767945557832709 4.1071839034557325 3.8393891304731369 5.8958995640277863 4.1921192854642868
leaf_count=25 23 20 23 28 23 40 29
internal_value=-0.00260831 0.0798669 -0.0468282 -0.0388222 0.0477382 -0.0459506 -0.0606424
internal_weight=32.7081 11.416 21.2921 13.4799 7.64504 10.0031 7.81223
internal_count=211 66 145 91 46 68 54
is_linear=0
shrinkage=0.05


Tree=3
num_leaves=8
num_cat=0
split_feature=12 12 12 12 7 12 4
split_gain=42.4957 7.60549 0.939714 0.762399 0.0870857 0.0210724 5.53632e-07
threshold=0.47500000000000003 0.64000000000000012 0.31000000000000005 0.32500000000000007 1.0000000180025095e-35 0.41000000000000009 1.0000000180025095e-35
decision_type=2 2 2 2 2 2 2
left_child=2 4 6 -4 -2 -5 -1
right_child=1 -3 3 5 -6 -7 -8
leaf_value=-0.060030864497650174 0.038801207949555487 0.12857731169206019 -0.017604669368973438 -0.047801854469958494 0.049330661757831101 -0.043065614331427138 -0.060003634323939528
leaf_weight=3.4786196053028133 3.8982522785663587 4.0325953960418701 3.4368955343961707 3.9792570471763593 3.9569873213768005 5.7304994910955429 4.0281620621681213
leaf_count=25 23 20 23 28 23 40 29
internal_value=-0.00255306 0.0727599 -0.0459022 -0.037843 0.0441053 -0.0450066 -0.0600163
internal_weight=32.5413 11.8878 20.6534 13.1467 7.85524 9.70976 7.50678
internal_count=211 66 145 91 46 68 54
is_linear=0
shrinkage=0.05


Tree=4
num_leaves=8
num_cat=0
split_feature=0 0 0 12 12 12 0
split_gain=61.428 14.2113 3.71033 0.0076416 0.00052836 5.20267e-05 3.58114e-11
threshold=0.42000000000000004 0.67500000000000016 0.038750000000000007 0.44000000000000006 0.31000000000000005 0.36500000000000005 0.0037500000000000003
decision_type=2 2 2 2 2 2 2
left_child=2 -2 3 4 6 -6 -1
right_child=1 -3 -4 -5 5 -7 -8
leaf_value=-0.059372611359763752 0.047699689365085299 0.16701539564479775 -0.01135422815096683 -0.062317051502963364 -0.060104657571190559 -0.059832248870753217 -0.059372370584799473
leaf_weight=2.7917567342519813 5.7778682559728605 4.3931613117456436 5.0146476179361335 3.5448143929243079 4.4690582007169724 2.8837936520576477 3.4564002454280853
leaf_count=21 33 21 34 23 32 21 26
internal_value=-0.00249402 0.0992356 -0.049185 -0.0602494 -0.0597105 -0.0599978 -0.0593725
internal_weight=32.3315 10.171 22.1605 17.1458 13.601 7.35285 6.24816
internal_count=211 54 157 123 100 53 47
is_linear=0
shrinkage=0.05


Tree=5
num_leaves=8
num_cat=0
split_feature=0 0 0 12 12 0 4
split_gain=71.5107 7.00578 2.42453 0.00553293 0.00052038 3.00633e-05 3.4499e-10
threshold=0.31750000000000006 0.67500000000000016 0.038750000000000007 0.44000000000000006 0.31000000000000005 0.0032500000000000007 1.0000000180025095e-35
decision_type=2 2 2 2 2 2 2
left_child=2 -2 3 4 6 -6 -1
right_child=1 -3 -4 -5 5 -7 -8
leaf_value=-0.05883177898266792 0.070534572612703836 0.15200083729074212 -0.019063152262966957 -0.061453884534681369 -0.059386421875783607 -0.05960092400147441 -0.058832552282634877
leaf_weight=2.5516683757305199 5.5190548896789533 5.0571608543395996 4.7807988822460166 3.3835537731647483 3.8557638674974442 2.8341640830039978 3.3173726946115494
leaf_count=20 31 23 33 23 29 21 26
internal_value=0.00369717 0.109489 -0.0502939 -0.0596593 -0.0591758 -0.0594773 -0.0588322
internal_weight=31.2995 10.5762 20.7233 15.9425 12.559 6.68993 5.86904
internal_count=206 54 152 119 96 50 46
is_linear=0
shrinkage=0.05


Tree=6
num_leaves=7
num_cat=0
split_feature=12 12 5 12 12 12
split_gain=32.8843 4.42401 1.90481 0.539744 1.76908 0.101334
threshold=0.47500000000000003 0.59500000000000008 0.55000000000000016 0.31000000000000005 0.32500000000000007 0.41000000000000009
decision_type=2 2 2 2 2 2
left_child=2 -2 3 -1 -5 -6
right_child=1 -3 -4 4 5 -7
leaf_value=-0.058534744666838223 0.040989859108138446 0.1016430369848699 -0.006069856950220027 -0.0041923014010352474 -0.059113237462045547 -0.0469046886993661
leaf_weight=5.46969403326512 6.9560893326997739 5.2948433756828308 3.725290820002555 2.6605135947465879 2.9803010076284409 3.9555149972438812
leaf_count=44 38 24 28 19 23 30
internal_value=0.00346859 0.0672041 -0.0380836 -0.0459994 -0.0388546 -0.0521507
internal_weight=31.0422 12.2509 18.7913 15.066 9.59633 6.93582
internal_count=206 62 144 116 72 53
is_linear=0
shrinkage=0.05


Tree=7
num_leaves=8
num_cat=0
split_feature=0 0 0 12 12 0 4
split_gain=59.2788 5.68341 2.43382 0.00833517 0.000583852 8.1918e-05 2.00915e-05
threshold=0.31750000000000006 0.67500000000000016 0.038750000000000007 0.44000000000000006 0.31000000000000005 0.0032500000000000007 1.0000000180025095e-35
decision_type=2 2 2 2 2 2 2
left_child=2 -2 3 4 6 -6 -1
right_child=1 -3 -4 -5 5 -7 -8
leaf_value=-0.058048086517776758 0.060858704505825291 0.1320975690487772 -0.017512273658242337 -0.061172593881581173 -0.058491401180327522 -0.058856843358954795 -0.057854422793369158
leaf_weight=2.3872425183653885 5.8504372835159284 5.3691021502017975 4.6438763588666907 3.2736603766679755 3.5904471799731255 2.6767381131649017 3.0505949184298515
leaf_count=20 31 23 33 23 29 21 26
internal_value=0.00327774 0.09495 -0.0491375 -0.0589423 -0.0583185 -0.0586475 -0.0579394
internal_weight=30.8421 11.2195 19.6226 14.9787 11.705 6.26719 5.43784
internal_count=206 54 152 119 96 50 46
is_linear=0
shrinkage=0.05


Tree=8
num_leaves=8
num_cat=0
split_feature=0 0 0 12 12 0 4
split_gain=53.0933 5.02534 2.40841 0.00704305 0.00049052 6.8706e-05 1.6891e-05
threshold=0.31750000000000006 0.67500000000000016 0.038750000000000007 0.44000000000000006 0.31000000000000005 0.0032500000000000007 1.0000000180025095e-35
decision_type=2 2 2 2 2 2 2
left_child=2 -2 3 4 6 -6 -1
right_child=1 -3 -4 -5 5 -7 -8
leaf_value=-0.057594281024419818 0.056122262821606345 0.12220052459128508 -0.016833808999349012 -0.060524259342588684 -0.058009358338072907 -0.058351093008086753 -0.05741290316464346
leaf_weight=2.2882538661360794 6.0223014503717405 5.5097660571336746 4.5908692181110373 3.1465112119913092 3.4429992586374283 2.5677005648612976 2.9235652089118958
leaf_count=20 31 23 33 23 29 21 26
internal_value=0.00309473 0.087693 -0.0483609 -0.0584337 -0.0578475 -0.0581553 -0.0574925
internal_weight=30.492 11.5321 18.9599 14.369 11.2225 6.0107 5.21182
internal_count=206 54 152 119 96 50 46
is_linear=0
shrinkage=0.05


Tree=9
num_leaves=8
num_cat=0
split_feature=0 0 0 12 12 0 4
split_gain=47.8068 4.54327 2.38459 0.00595857 0.000412677 5.77099e-05 1.4219e-05
threshold=0.31750000000000006 0.67500000000000016 0.038750000000000007 0.44000000000000006 0.31000000000000005 0.0032500000000000007 1.0000000180025095e-35
decision_type=2 2 2 2 2 2 2
left_child=2 -2 3 4 6 -6 -1
right_child=1 -3 -4 -5 5 -7 -8
leaf_value=-0.057169315374890145 0.051942052324009703 0.11411990255875069 -0.016175582252234418 -0.059919344972597544 -0.05755830542361217 -0.057878181660774332 -0.056999296841570561
leaf_weight=2.1924241185188347 6.1774118691682798 5.6022631824016571 4.5401207059621802 3.022502437233924 3.3000960424542427 2.4619227573275566 2.8006493672728539
leaf_count=20 31 23 33 23 29 21 26
internal_value=0.00293174 0.081513 -0.047602 -0.0579579 -0.0574067 -0.057695 -0.057074
internal_weight=30.0974 11.7797 18.3177 13.7776 10.7551 5.76202 4.99307
internal_count=206 54 152 119 96 50 46
is_linear=0
shrinkage=0.05


Tree=10
num_leaves=8
num_cat=0
split_feature=0 0 0 12 12 12 4
split_gain=31.1516 4.75668 1.1809 0.00745266 0.000323686 5.82949e-05 9.06975e-06
threshold=0.31750000000000006 0.55500000000000005 0.038750000000000007 0.44000000000000006 0.31000000000000005 0.36500000000000005 1.0000000180025095e-35
decision_type=2 2 2 2 2 2 2
left_child=2 -2 3 4 6 -6 -1
right_child=1 -3 -4 -5 5 -7 -8
leaf_value=-0.056746271876786117 0.024436625869932366 0.09028332260713437 -0.028822039861361795 -0.059737729618509122 -0.057341858312466333 -0.05701740901408895 -0.05661149918428942
leaf_weight=2.1986575201153808 5.7804599702358228 5.2189448326826096 4.7913484275341025 3.1043305844068518 3.5590620636940002 2.2658451646566391 2.8881426751613617
leaf_count=21 28 22 35 24 32 21 28
internal_value=-0.0111601 0.0556793 -0.0502508 -0.0575761 -0.0569612 -0.0572156 -0.0566698
internal_weight=29.8068 10.9994 18.8074 14.016 10.9117 5.82491 5.0868
internal_count=211 50 161 126 102 53 49
is_linear=0
shrinkage=0.05


Tree=11
num_leaves=8
num_cat=0
split_feature=0 0 0 12 12 12 4
split_gain=28.6372 4.26207 1.18951 0.00631172 0.000273017 4.92143e-05 7.65478e-06
threshold=0.31750000000000006 0.55500000000000005 0.038750000000000007 0.44000000000000006 0.31000000000000005 0.36500000000000005 1.0000000180025095e-35
decision_type=2 2 2 2 2 2 2
left_child=2 -2 3 4 6 -6 -1
right_child=1 -3 -4 -5 5 -7 -8
leaf_value=-0.05637415394707225 0.02297722234718105 0.08501916309510163 -0.027928146508905835 -0.059184632396089343 -0.056933139756827733 -0.056628518126279698 -0.056247608268089257
leaf_weight=2.104883007705217 5.8386750817298871 5.2637120634317398 4.6998330652713767 2.9798257797956458 3.4091723635792732 2.1697649955749512 2.7646091878414154
leaf_count=21 28 22 35 24 32 21 28
internal_value=-0.0108474 0.0523917 -0.0495776 -0.0571548 -0.0565759 -0.0568147 -0.0563023
internal_weight=29.2305 11.1024 18.1281 13.4283 10.4484 5.57894 4.86949
internal_count=211 50 161 126 102 53 49
is_linear=0
shrinkage=0.05


Tree=12
num_leaves=8
num_cat=0
split_feature=0 0 0 12 12 12 4
split_gain=26.3694 3.84862 1.19837 0.00535092 0.000230538 4.15947e-05 6.46785e-06
threshold=0.31750000000000006 0.55500000000000005 0.038750000000000007 0.44000000000000006 0.31000000000000005 0.36500000000000005 1.0000000180025095e-35
decision_type=2 2 2 2 2 2 2
left_child=2 -2 3 4 6 -6 -1
right_child=1 -3 -4 -5 5 -7 -8
leaf_value=-0.056024802728667111 0.021623287190035909 0.080378185826220916 -0.027051296449616059 -0.058667229355617238 -0.05654982828246205 -0.056263608868897488 -0.05590589401395344
leaf_weight=2.0143955275416427 5.8926124274730665 5.2885221987962723 4.6118406429886809 2.8588616997003546 3.2643291726708412 2.0769911631941795 2.6454443633556366
leaf_count=21 28 22 35 24 32 21 28
internal_value=-0.0105464 0.0494135 -0.0489179 -0.0567596 -0.0562143 -0.0564385 -0.0559573
internal_weight=28.653 11.1811 17.4719 12.86 10.0012 5.34132 4.65984
internal_count=211 50 161 126 102 53 49
is_linear=0
shrinkage=0.05


Tree=13
num_leaves=7
num_cat=0
split_feature=0 0 0 4 0 7
split_gain=24.3151 3.4977 1.20735 0.000434734 0.000985857 7.19958e-05
threshold=0.31750000000000006 0.55500000000000005 0.038750000000000007 1.0000000180025095e-35 0.0027500000000000003 1.0000000180025095e-35
decision_type=2 2 2 2 2 2
left_child=2 -2 3 5 -5 -1
right_child=1 -3 -4 4 -6 -7
leaf_value=-0.056174490566655161 0.020364691482839044 0.076243712000522906 -0.026191307157027367 -0.056122434572468793 -0.057267919864301381 -0.055776245917136369
leaf_weight=2.7243782505393082 5.9426229894161207 5.2962666302919388 4.5272926464676848 4.31605514138937 3.3256703093647957 1.945149168372154
leaf_count=28 28 22 35 45 32 21
internal_value=-0.0102561 0.0466974 -0.0482697 -0.0563887 -0.0566209 -0.0560086
internal_weight=28.0774 11.2389 16.8385 12.3113 7.64173 4.66953
internal_count=211 50 161 126 77 49
is_linear=0
shrinkage=0.05


Tree=14
num_leaves=8
num_cat=0
split_feature=0 0 0 12 12 12 4
split_gain=22.4479 3.19581 1.21639 0.00390466 0.000167001 2.99763e-05 4.9997e-06
threshold=0.31750000000000006 0.55500000000000005 0.038750000000000007 0.44000000000000006 0.31000000000000005 0.36500000000000005 1.0000000180025095e-35
decision_type=2 2 2 2 2 2 2
left_child=2 -2 3 4 6 -6 -1
right_child=1 -3 -4 -5 5 -7 -8
leaf_value=-0.055386504276540641 0.019192602945759293 0.072526364226529333 -0.025348062045111471 -0.057739003307192074 -0.055851388979981709 -0.055597430985619034 -0.055277176726220671
leaf_weight=1.8427201434969953 5.9890262782573682 5.2894598245620728 4.4461055994033805 2.630776308476924 2.9893498495221138 1.9008230119943617 2.4178978651762009
leaf_count=21 28 22 35 24 32 21 28
internal_value=-0.0099754 0.0442054 -0.0476319 -0.0560414 -0.0555533 -0.0557527 -0.0553245
internal_weight=27.5062 11.2785 16.2277 11.7816 9.15079 4.89017 4.26062
internal_count=211 50 161 126 102 53 49
is_linear=0
shrinkage=0.05


Tree=15
num_leaves=8
num_cat=0
split_feature=0 0 4 12 12 0 4
split_gain=29.2789 3.86416 1.91378 0.00310989 0.000137429 2.05228e-05 2.3458e-06
threshold=0.31750000000000006 0.038750000000000007 1.0000000180025095e-35 0.44000000000000006 0.31000000000000005 0.0032500000000000007 1.0000000180025095e-35
decision_type=2 2 2 2 2 2 2
left_child=1 3 -2 4 6 -6 -1
right_child=2 -3 -4 -5 5 -7 -8
leaf_value=-0.055074315846518174 0.04991364523702356 0.0010058198856956577 0.091518296807097388 -0.057193666940965976 -0.055354626279192957 -0.055577160112504242 -0.054993899195097111
leaf_weight=1.6721352636814135 7.158254146575926 4.16418183594942 4.5027521252632141 2.8049074485898018 2.4406551718711853 1.8002806529402731 1.9814891591668129
leaf_count=20 33 33 19 27 28 20 24
internal_value=0.00667027 -0.0398591 0.0659788 -0.0557636 -0.0552555 -0.0554491 -0.0550307
internal_weight=26.5247 14.8636 11.661 10.6995 7.89456 4.24094 3.65362
internal_count=204 152 52 119 92 48 44
is_linear=0
shrinkage=0.05


Tree=16
num_leaves=8
num_cat=0
split_feature=0 0 0 12 12 0 0
split_gain=26.602 3.76885 1.61322 0.00264589 0.000116498 1.73783e-05 1.92056e-07
threshold=0.31750000000000006 0.038750000000000007 0.67500000000000016 0.44000000000000006 0.31000000000000005 0.0032500000000000007 0.0037500000000000003
decision_type=2 2 2 2 2 2 2
left_child=1 3 -2 4 6 -6 -1
right_child=2 -3 -4 -5 5 -7 -8
leaf_value=-0.054772532000427525 0.046981256302309565 0.00095484319400591239 0.084743283046848861 -0.056800333691404005 -0.055066426829508089 -0.055275841377641924 -0.054749054045372163
leaf_weight=1.8288561925292035 6.9740546643733961 4.1670972555875769 4.7577507793903351 2.686118483543396 2.3334659859538078 1.7215785905718801 1.6632407456636427
leaf_count=23 32 33 20 27 28 20 21
internal_value=0.00640416 -0.0391298 0.0622954 -0.0554527 -0.054973 -0.0551553 -0.0547613
internal_weight=26.1322 14.4004 11.7318 10.2333 7.54714 4.05504 3.4921
internal_count=204 152 52 119 92 48 44
is_linear=0
shrinkage=0.05


Tree=17
num_leaves=8
num_cat=0
split_feature=0 0 0 12 12 0 0
split_gain=24.2449 3.67637 1.63212 0.0022527 9.88356e-05 1.47284e-05 1.62982e-07
threshold=0.31750000000000006 0.038750000000000007 0.67500000000000016 0.44000000000000006 0.31000000000000005 0.0032500000000000007 0.0037500000000000003
decision_type=2 2 2 2 2 2 2
left_child=1 3 -2 4 6 -6 -1
right_child=2 -3 -4 -5 5 -7 -8
leaf_value=-0.054518171307613918 0.043924014994221314 0.00090648219602304861 0.081990486718277744 -0.056430743602409739 -0.054795114792218338 -0.054992297276224546 -0.054496045948685734
leaf_weight=1.7475729584693929 7.0835461318492872 4.1698656976222983 4.6737260073423386 2.5714254975318909 2.2303737774491315 1.6458461359143255 1.5892829969525335
leaf_count=23 32 33 20 27 28 20 21
internal_value=0.00616082 -0.0384062 0.0590561 -0.0551601 -0.0547071 -0.0548788 -0.0545076
internal_weight=25.7116 13.9544 11.7573 9.7845 7.21308 3.87622 3.33686
internal_count=204 152 52 119 92 48 44
is_linear=0
shrinkage=0.05


Tree=18
num_leaves=8
num_cat=0
split_feature=0 0 0 12 12 0 4
split_gain=22.1306 3.58646 1.64841 0.00191918 8.39148e-05 1.24931e-05 1.46409e-06
threshold=0.31750000000000006 0.038750000000000007 0.67500000000000016 0.44000000000000006 0.31000000000000005 0.0032500000000000007 1.0000000180025095e-35
decision_type=2 2 2 2 2 2 2
left_child=1 3 -2 4 6 -6 -1
right_child=2 -3 -4 -5 5 -7 -8
leaf_value=-0.054305402894205324 0.041145256981235577 0.00086060033992974006 0.07953459674300517 -0.056083222723118269 -0.054539556393540793 -0.054725323967461208 -0.054237388934690656
leaf_weight=1.4591974094510096 7.1812112629413587 4.1724949032068244 4.5795161426067352 2.4607884138822556 2.1312868222594266 1.5730215311050413 1.7285496741533279
leaf_count=20 32 33 20 27 28 20 24
internal_value=0.00593081 -0.0376875 0.0560937 -0.0548846 -0.0544566 -0.0546184 -0.0542685
internal_weight=25.2861 13.5253 11.7607 9.35284 6.89206 3.70431 3.18775
internal_count=204 152 52 119 92 48 44
is_linear=0
shrinkage=0.05


Tree=19
num_leaves=7
num_cat=0
split_feature=0 0 4 0 0 0
split_gain=20.3231 3.54954 1.98832 0.000213025 0.000492332 1.1645e-05
threshold=0.038750000000000007 0.67500000000000016 1.0000000180025095e-35 0.0027500000000000003 0.010750000000000001 0.00075000000000000012
decision_type=2 2 2 2 2 2
left_child=3 2 -2 5 -5 -1
right_child=1 -3 -4 4 -6 -7
leaf_value=-0.054458911202755235 0.010452466895583589 0.077332123308322065 0.055054138275715848 -0.055248800799788701 -0.054128817554473102 -0.054298264437192705
leaf_weight=2.4385057911276835 7.7571138888597471 4.4770372807979575 3.6861731112003326 2.9231952056288719 1.4770433530211446 2.0991649329662323
leaf_count=33 40 20 25 36 21 29
internal_value=0.00571263 0.0395871 0.0248198 -0.054625 -0.0548729 -0.0543846
internal_weight=24.8582 15.9203 11.4433 8.93791 4.40024 4.53767
internal_count=204 85 65 119 57 62
is_linear=0
shrinkage=0.05


Tree=20
num_leaves=8
num_cat=0
split_feature=0 4 0 0 0 4 0
split_gain=23.2367 6.05438 0.3194 0.0712851 0.000494617 0.000607363 1.24465e-05
threshold=0.18250000000000002 1.0000000180025095e-35 0.060250000000000005 0.49000000000000005 0.0027500000000000003 1.0000000180025095e-35 0.00075000000000000012
decision_type=2 2 2 2 2 2 2
left_child=2 3 4 -2 6 -6 -1
right_child=1 -3 -4 -5 5 -7 -8
leaf_value=-0.054249085156799076 0.02429751635322697 0.085328003417207504 -0.031866477540614967 0.015440807694384369 -0.05430183918508022 -0.055432194690608783 -0.054078183917534099
leaf_weight=2.2693940028548258 4.5736079812049848 5.7867589816451064 1.8708532005548466 4.514478474855423 2.2125045582652092 2.5673923194408417 2.0080250725150108
leaf_count=32 23 28 15 20 31 32 29
internal_value=0.00468269 0.0453522 -0.0506745 0.019898 -0.0545594 -0.054909 -0.0541689
internal_weight=25.803 14.8748 10.9282 9.08809 9.05732 4.7799 4.27742
internal_count=210 71 139 43 124 63 61
is_linear=0
shrinkage=0.05


Tree=21
num_leaves=8
num_cat=0
split_feature=0 4 0 0 12 0 12
split_gain=21.4483 5.63013 0.328844 0.061641 0.000757869 0.000746763 4.25601e-05
threshold=0.18250000000000002 1.0000000180025095e-35 0.060250000000000005 0.49000000000000005 0.44000000000000006 0.017500000000000005 0.31000000000000005
decision_type=2 2 2 2 2 2 2
left_child=2 3 4 -2 5 6 -1
right_child=1 -3 -4 -5 -6 -7 -8
leaf_value=-0.053639998492098766 0.022874884944421685 0.082084340413238172 -0.030984999980100032 0.01465842990829512 -0.05519660163831544 -0.055079916704444523 -0.053924719820613469
leaf_weight=2.4027226641774195 4.6140688210725767 5.7164365798234931 1.8289516940712918 4.5175789445638657 1.917981371283531 1.4392999932169912 2.8926374763250351
leaf_count=38 23 28 15 20 24 19 43
internal_value=0.00451318 0.0431703 -0.050248 0.0188101 -0.0543197 -0.05407 -0.0537955
internal_weight=25.3297 14.8481 10.4816 9.13165 8.65264 6.73466 5.29536
internal_count=210 71 139 43 124 100 81
is_linear=0
shrinkage=0.05


Tree=22
num_leaves=8
num_cat=0
split_feature=0 4 0 0 0 4 0
split_gain=19.8148 5.24781 0.338147 0.0534442 0.00036526 0.000447787 9.12513e-06
threshold=0.18250000000000002 1.0000000180025095e-35 0.060250000000000005 0.49000000000000005 0.0027500000000000003 1.0000000180025095e-35 0.00075000000000000012
decision_type=2 2 2 2 2 2 2
left_child=2 3 4 -2 6 -6 -1
right_child=1 -3 -4 -5 5 -7 -8
leaf_value=-0.053813489264080208 0.021551659749977265 0.079085178097266007 -0.030115898704981044 0.013917331836370121 -0.053861203904901525 -0.054876990880542098 -0.053660229976050577
leaf_weight=2.0693857818841956 4.6514988690614683 5.6385407894849768 1.7886838912963856 4.5201631635427475 2.0176181085407734 2.3470054119825363 1.830231014639139
leaf_count=32 23 28 15 20 31 32 29
internal_value=0.00435078 0.0411258 -0.049827 0.0177892 -0.0540932 -0.0544074 -0.0537416
internal_weight=24.8631 14.8102 10.0529 9.17166 8.26424 4.36462 3.89962
internal_count=210 71 139 43 124 63 61
is_linear=0
shrinkage=0.05


Tree=23
num_leaves=8
num_cat=0
split_feature=0 4 0 0 12 0 12
split_gain=18.3198 4.90017 0.347307 0.0464521 0.00055517 0.000552074 3.10969e-05
threshold=0.18250000000000002 1.0000000180025095e-35 0.060250000000000005 0.49000000000000005 0.44000000000000006 0.017500000000000005 0.31000000000000005
decision_type=2 2 2 2 2 2 2
left_child=2 3 4 -2 5 6 -1
right_child=1 -3 -4 -5 -6 -7 -8
leaf_value=-0.053268626680051501 0.020318674277458367 0.076291750350923226 -0.029259021403496323 0.013215073721111992 -0.054664376121665442 -0.054563806721730126 -0.053523632633451383
leaf_weight=2.1877501048147696 4.6861528605222684 5.5548800081014624 1.7500107437372205 4.5222917050123215 1.7531522810459135 1.314689766615629 2.6359693184494972
leaf_count=38 23 28 15 20 24 19 43
internal_value=0.00419474 0.0392033 -0.0494108 0.0168301 -0.0538796 -0.0536555 -0.053408
internal_weight=24.4049 14.7633 9.64157 9.20844 7.89156 6.13841 4.82372
internal_count=210 71 139 43 124 100 81
is_linear=0
shrinkage=0.05


Tree=24
num_leaves=8
num_cat=0
split_feature=0 4 0 0 12 0 12
split_gain=16.949 4.58162 0.35629 0.0404677 0.000473871 0.000473902 2.65051e-05
threshold=0.18250000000000002 1.0000000180025095e-35 0.060250000000000005 0.49000000000000005 0.44000000000000006 0.017500000000000005 0.31000000000000005
decision_type=2 2 2 2 2 2 2
left_child=2 3 4 -2 5 6 -1
right_child=1 -3 -4 -5 -6 -7 -8
leaf_value=-0.053099076526082006 0.019167913948601727 0.073672837113220591 -0.02841431572685249 0.012549398551100009 -0.054419322822585485 -0.054326562102133935 -0.053340075558848579
leaf_weight=2.087529309093954 4.7182616442441923 5.4669740051031104 1.7128911837935445 4.5240188986063004 1.6749695949256418 1.2558947354555128 2.5158221274614334
leaf_count=38 23 28 15 20 24 19 43
internal_value=0.00404446 0.0373901 -0.048998 0.0159282 -0.0536777 -0.0534657 -0.0532308
internal_weight=23.9564 14.7093 9.24711 9.24228 7.53422 5.85925 4.60335
internal_count=210 71 139 43 124 100 81
is_linear=0
shrinkage=0.05


Tree=25
num_leaves=8
num_cat=0
split_feature=0 0 4 12 12 12 4
split_gain=12.1409 3.13613 1.85045 0.000717719 2.54909e-05 5.20116e-06 7.2655e-07
threshold=0.67500000000000016 0.038750000000000007 1.0000000180025095e-35 0.44000000000000006 0.31000000000000005 0.36500000000000005 1.0000000180025095e-35
decision_type=2 2 2 2 2 2 2
left_child=1 3 -3 4 6 -6 -1
right_child=-2 2 -4 -5 5 -7 -8
leaf_value=-0.052957477620196119 0.07081360779560103 -0.025091953348596197 0.018226528471450527 -0.054276871982100988 -0.053212744678214047 -0.053075747533387653 -0.052901198852275871
leaf_weight=1.2120300084352555 3.9249954670667639 6.9856656119227392 3.8098426833748817 1.5671562068164346 1.6378444060683253 1.2007269151508806 1.0885110720992088
leaf_count=23 20 36 25 23 29 22 21
internal_value=-0.00866273 -0.0264863 -0.00980443 -0.0533402 -0.0530545 -0.0531548 -0.0529308
internal_weight=21.4268 17.5018 10.7955 6.70627 5.13911 2.83857 2.30054
internal_count=199 179 61 118 95 51 44
is_linear=0
shrinkage=0.05


Tree=26
num_leaves=8
num_cat=0
split_feature=0 0 4 12 12 12 4
split_gain=11.2769 3.08278 1.67973 0.000613533 2.17472e-05 4.4399e-06 6.19983e-07
threshold=0.67500000000000016 0.038750000000000007 1.0000000180025095e-35 0.44000000000000006 0.31000000000000005 0.36500000000000005 1.0000000180025095e-35
decision_type=2 2 2 2 2 2 2
left_child=1 3 -3 4 6 -6 -1
right_child=-2 2 -4 -5 5 -7 -8
leaf_value=-0.052804940809195212 0.069463666555529588 -0.024058917324436744 0.017169258897528961 -0.054053305873901093 -0.053046345739655554 -0.052916759592010976 -0.052751711013255986
leaf_weight=1.1561648547649446 3.8042712211608878 6.9229639247059804 3.8413898274302483 1.4967348352074621 1.5627293959259989 1.1455116644501684 1.0382838137447834
leaf_count=23 20 36 25 23 29 22 21
internal_value=-0.00842169 -0.0256846 -0.00934614 -0.0531672 -0.0528967 -0.0529915 -0.0527798
internal_weight=20.968 17.1638 10.7644 6.39942 4.90269 2.70824 2.19445
internal_count=199 179 61 118 95 51 44
is_linear=0
shrinkage=0.05


Tree=27
num_leaves=8
num_cat=0
split_feature=0 0 4 12 12 12 4
split_gain=10.4819 3.02669 1.52488 0.000524667 1.85617e-05 3.79162e-06 5.29304e-07
threshold=0.67500000000000016 0.038750000000000007 1.0000000180025095e-35 0.44000000000000006 0.31000000000000005 0.36500000000000005 1.0000000180025095e-35
decision_type=2 2 2 2 2 2 2
left_child=1 3 -3 4 6 -6 -1
right_child=-2 2 -4 -5 5 -7 -8
leaf_value=-0.052660678667616458 0.068223379926344044 -0.023064912870660363 0.016182435769283226 -0.053842175593836909 -0.052889041799614435 -0.052766431059997322 -0.052610316860792761
leaf_weight=1.1027147211134498 3.6828403472900382 6.8618392050266248 3.8710728138685226 1.429179925471544 1.4908236823976042 1.092670291662216 0.99023343622684468
leaf_count=23 20 36 25 23 29 22 21
internal_value=-0.00818607 -0.024898 -0.00890945 -0.0530038 -0.0527475 -0.0528372 -0.0526369
internal_weight=20.5214 16.8385 10.7329 6.10562 4.67644 2.58349 2.09295
internal_count=199 179 61 118 95 51 44
is_linear=0
shrinkage=0.05


Tree=28
num_leaves=8
num_cat=0
split_feature=0 0 4 12 12 12 4
split_gain=9.7494 2.9682 1.38435 0.000448834 1.58498e-05 3.23923e-06 4.52102e-07
threshold=0.67500000000000016 0.038750000000000007 1.0000000180025095e-35 0.44000000000000006 0.31000000000000005 0.36500000000000005 1.0000000180025095e-35
decision_type=2 2 2 2 2 2 2
left_child=1 3 -3 4 6 -6 -1
right_child=-2 2 -4 -5 5 -7 -8
leaf_value=-0.052524199883223814 0.067081022019842992 -0.022108303355163061 0.015260241473265941 -0.053642715149761211 -0.052740287191097503 -0.052624245865235703 -0.052476536975059419
leaf_weight=1.0515914112329543 3.5613602846860877 6.8023566082119924 3.8990147113800049 1.3644051887094972 1.4220141060650351 1.0421174801886079 0.94427982717752446
leaf_count=23 20 36 25 23 29 22 21
internal_value=-0.00795554 -0.0241262 -0.00849318 -0.0528491 -0.0526064 -0.0526912 -0.0525016
internal_weight=20.0871 16.5258 10.7014 5.82441 4.46 2.46413 1.99587
internal_count=199 179 61 118 95 51 44
is_linear=0
shrinkage=0.05


Tree=29
num_leaves=7
num_cat=0
split_feature=0 0 4 4 0 0
split_gain=9.07367 2.90763 1.2568 4.87272e-05 6.46859e-05 1.82922e-08
threshold=0.67500000000000016 0.038750000000000007 1.0000000180025095e-35 1.0000000180025095e-35 0.0027500000000000003 0.0057500000000000008
decision_type=2 2 2 2 2 2
left_child=1 3 -3 5 -5 -1
right_child=-2 2 -4 4 -6 -7
leaf_value=-0.05251955967141321 0.06602648123796423 -0.021187581913693899 0.014397486596949699 -0.052626338463915602 -0.053063969311026353 -0.052510274917242486
leaf_weight=1.1380086466670101 3.4403957277536383 6.744564510881899 3.9253289103507996 1.9106140211224558 1.5130433291196821 0.99366800859570492
leaf_count=25 20 36 25 41 30 22
internal_value=-0.00772979 -0.0233691 -0.00809625 -0.0527029 -0.0528197 -0.0525152
internal_weight=19.6656 16.2252 10.6699 5.55533 3.42366 2.13168
internal_count=199 179 61 118 71 47
is_linear=0
shrinkage=0.05


Tree=30
num_leaves=8
num_cat=0
split_feature=12 12 12 12 4 12 4
split_gain=6.21514 2.10007 0.999276 1.03769 0.418905 0.00642968 0.000276653
threshold=0.47500000000000003 0.59500000000000008 0.31000000000000005 0.32500000000000007 1.0000000180025095e-35 0.42500000000000004 1.0000000180025095e-35
decision_type=2 2 2 2 2 2 2
left_child=2 -2 6 -4 -5 -6 -1
right_child=1 -3 3 4 5 -7 -8
leaf_value=-0.053902627676942587 0.011898201850874226 0.058224241108714561 0.014296893813009474 -0.010958426494218448 -0.043785705021237437 -0.039123274889426178 -0.052901531109820925
leaf_weight=1.4607695043087023 7.4666903093457204 3.638481616973877 1.835754159837961 1.8043486997485159 1.5234888009727003 1.4368212036788461 1.308117650449276
leaf_count=27 40 22 23 26 22 19 29
internal_value=0.00177293 0.0270764 -0.0282186 -0.0176424 -0.0299482 -0.0415227 -0.0534297
internal_weight=20.4745 11.1052 9.3693 6.60041 4.76466 2.96031 2.76889
internal_count=208 62 146 90 67 41 56
is_linear=0
shrinkage=0.05


Tree=31
num_leaves=8
num_cat=0
split_feature=0 0 0 12 12 12 4
split_gain=8.96145 1.62954 0.249422 0.000280959 3.12831e-05 6.8207e-06 3.26176e-07
threshold=0.31750000000000006 0.038750000000000007 0.52250000000000008 0.44000000000000006 0.31000000000000005 0.36500000000000005 1.0000000180025095e-35
decision_type=2 2 2 2 2 2 2
left_child=1 3 -2 4 6 -6 -1
right_child=2 -3 -4 -5 5 -7 -8
leaf_value=-0.052157604925274728 0.040229455863986921 -0.010382027106744223 0.025103878335101099 -0.05314606205615631 -0.052482308871249488 -0.052300648745822555 -0.052115709417451909
leaf_weight=0.83224799856543685 5.323178291320799 4.0606995671987534 5.5852349400520325 1.2294966205954549 1.3417054116725924 0.84034419432282437 1.051595538854599
leaf_count=21 23 33 30 24 30 20 27
internal_value=0.0016916 -0.0342109 0.032485 -0.0524838 -0.0522835 -0.0524123 -0.0521342
internal_weight=20.2645 9.35609 10.9084 5.29539 4.06589 2.18205 1.88384
internal_count=208 155 53 122 98 50 48
is_linear=0
shrinkage=0.05


Tree=32
num_leaves=8
num_cat=0
split_feature=0 0 0 12 12 12 4
split_gain=8.21225 1.61373 0.221631 0.000240916 2.67505e-05 5.8332e-06 2.79012e-07
threshold=0.31750000000000006 0.038750000000000007 0.55500000000000005 0.44000000000000006 0.31000000000000005 0.36500000000000005 1.0000000180025095e-35
decision_type=2 2 2 2 2 2 2
left_child=1 3 -2 4 6 -6 -1
right_child=2 -3 -4 -5 5 -7 -8
leaf_value=-0.052047959559260143 0.024985723816164873 -0.009935182196396242 0.039513028573734815 -0.052985025829848868 -0.052355479570120933 -0.052183424800471771 -0.052008270699083842
leaf_weight=0.79328440129757116 6.5253323614597303 4.0319191142916679 4.39288629591465 1.1729980893433092 1.2792832963168623 0.80111045017838467 1.0023228712379932
leaf_count=21 28 33 25 24 30 20 27
internal_value=0.00161043 -0.0335219 0.0308307 -0.0523572 -0.0521672 -0.0522892 -0.0520258
internal_weight=19.9991 9.08092 10.9182 5.049 3.876 2.08039 1.79561
internal_count=208 155 53 122 98 50 48
is_linear=0
shrinkage=0.05


Tree=33
num_leaves=8
num_cat=0
split_feature=0 0 0 12 12 12 4
split_gain=7.54421 1.59667 0.222167 0.000206623 2.28821e-05 4.9903e-06 2.3874e-07
threshold=0.31750000000000006 0.038750000000000007 0.55500000000000005 0.44000000000000006 0.31000000000000005 0.36500000000000005 1.0000000180025095e-35
decision_type=2 2 2 2 2 2 2
left_child=1 3 -2 4 6 -6 -1
right_child=2 -3 -4 -5 5 -7 -8
leaf_value=-0.051944099794908973 0.023601270227403864 -0.0095048268601983146 0.038205091080461627 -0.052832606448225398 -0.052235409921660848 -0.052072416767673074 -0.051906493678852743
leaf_weight=0.75606615096330843 6.5617329329252225 4.0044681057333946 4.3180435746908188 1.1189279668033121 1.2196184508502481 0.76362332701683033 0.95526129379868507
leaf_count=21 28 33 25 24 30 20 27
internal_value=0.00153979 -0.0328314 0.0293973 -0.0522373 -0.0520571 -0.0521727 -0.0519231
internal_weight=19.6977 8.81797 10.8798 4.8135 3.69457 1.98324 1.71133
internal_count=208 155 53 122 98 50 48
is_linear=0
shrinkage=0.05


Tree=34
num_leaves=8
num_cat=0
split_feature=0 0 0 12 12 12 4
split_gain=6.93077 1.5784 0.221065 0.000177246 1.95793e-05 4.27045e-06 2.04329e-07
threshold=0.31750000000000006 0.038750000000000007 0.55500000000000005 0.44000000000000006 0.31000000000000005 0.36500000000000005 1.0000000180025095e-35
decision_type=2 2 2 2 2 2 2
left_child=1 3 -2 4 6 -6 -1
right_child=2 -3 -4 -5 5 -7 -8
leaf_value=-0.05184569778791881 0.022306562851891407 -0.0090905654643875372 0.036935125020364348 -0.05268830650137532 -0.052121710591191577 -0.051967270561583789 -0.051810059198730135
leaf_weight=0.7205229103565236 6.5945813059806806 3.9782903492450714 4.2450727298855782 1.0671985819935796 1.1626037992537019 0.72781356424093235 0.91032126918435097
leaf_count=21 28 33 25 24 30 20 27
internal_value=0.00147177 -0.0321397 0.0280355 -0.0521238 -0.0519527 -0.0520623 -0.0518258
internal_weight=19.4064 8.56675 10.8397 4.58846 3.52126 1.89042 1.63084
internal_count=208 155 53 122 98 50 48
is_linear=0
shrinkage=0.05


Tree=35
num_leaves=8
num_cat=0
split_feature=12 5 12 4 12 12 12
split_gain=5.18101 3.03764 1.13935 1.37766 1.94404 0.270185 0.0126598
threshold=0.59500000000000008 0.55000000000000016 0.31000000000000005 1.0000000180025095e-35 0.47500000000000003 0.36500000000000005 0.54000000000000015
decision_type=2 2 2 2 2 2 2
left_child=1 2 -1 6 5 -5 -4
right_child=-2 -3 3 4 -6 -7 -8
leaf_value=-0.053728190266214552 0.057896775947539315 0.039156133901082399 -0.030846579768994211 -0.0060158783557134506 0.045427262890596898 -0.036259117867892328 -0.026466137265480572
leaf_weight=2.0824767872691217 3.3616167604923239 2.6125416047871104 2.9843864142894727 1.7682978324592116 1.9403223209083078 1.2680695205926893 3.6873864382505417
leaf_count=48 23 33 31 24 16 23 16
internal_value=0.00136582 -0.0102618 -0.0196644 -0.0135745 0.00633485 -0.0186463 -0.0284256
internal_weight=19.7051 16.3435 13.7309 11.6485 4.97669 3.03637 6.67177
internal_count=214 191 158 110 63 47 47
is_linear=0
shrinkage=0.05


Tree=36
num_leaves=8
num_cat=0
split_feature=0 4 0 12 12 4 4
split_gain=6.76994 1.8875 0.101452 0.000624991 1.5293e-05 3.36759e-06 2.21257e-06
threshold=0.038750000000000007 1.0000000180025095e-35 0.49000000000000005 0.54000000000000015 0.31000000000000005 1.0000000180025095e-35 1.0000000180025095e-35
decision_type=2 2 2 2 2 2 2
left_child=3 2 -2 4 6 -6 -1
right_child=1 -3 -4 -5 5 -7 -8
leaf_value=-0.051749377644963825 0.0091792308291816643 0.040940142778188804 -0.0011534965075299059 -0.05334284668358661 -0.051952118224747879 -0.051828516115944447 -0.051627904115243331
leaf_weight=0.65002003684640219 4.8054501488804799 5.4691451564431182 4.698138490319252 0.7960933819413184 1.0069629400968552 1.2171904407441616 0.8855715673416853
leaf_count=20 28 37 22 14 28 36 29
internal_value=0.0012994 0.0175385 0.0040712 -0.0520702 -0.0518007 -0.0518845 -0.0516793
internal_weight=19.5286 14.9727 9.50359 4.55584 3.75974 2.22415 1.53559
internal_count=214 87 50 127 113 64 49
is_linear=0
shrinkage=0.05


Tree=37
num_leaves=8
num_cat=0
split_feature=0 4 0 12 12 4 4
split_gain=6.33822 1.70132 0.0911274 0.000534523 1.30955e-05 2.88155e-06 1.89559e-06
threshold=0.038750000000000007 1.0000000180025095e-35 0.49000000000000005 0.54000000000000015 0.31000000000000005 1.0000000180025095e-35 1.0000000180025095e-35
decision_type=2 2 2 2 2 2 2
left_child=3 2 -2 4 6 -6 -1
right_child=1 -3 -4 -5 5 -7 -8
leaf_value=-0.051661180371745302 0.0086884854799392803 0.038836749423978051 -0.0010958823521911181 -0.05316997855332968 -0.051853331591453666 -0.051736207748515763 -0.051545991249358304
leaf_weight=0.61934714578092387 4.8225767090916616 5.4768831208348265 4.6978839337825775 0.75966727733612049 0.95963152870535862 1.1598410103470087 0.84368658252060413
leaf_count=20 28 37 22 14 28 36 29
internal_value=0.0012314 0.0166334 0.00386038 -0.0519653 -0.0517098 -0.0517892 -0.0515948
internal_weight=19.3395 14.9973 9.52046 4.34217 3.58251 2.11947 1.46303
internal_count=214 87 50 127 113 64 49
is_linear=0
shrinkage=0.05


Tree=38
num_leaves=8
num_cat=0
split_feature=0 12 4 12 12 4 4
split_gain=5.93773 1.58998 2.0469 0.000457303 1.12169e-05 2.46637e-06 1.62438e-06
threshold=0.038750000000000007 0.56000000000000016 1.0000000180025095e-35 0.54000000000000015 0.31000000000000005 1.0000000180025095e-35 1.0000000180025095e-35
decision_type=2 2 2 2 2 2 2
left_child=3 2 -2 4 6 -6 -1
right_child=1 -3 -4 -5 5 -7 -8
leaf_value=-0.051577566210755744 -0.011518222038756874 0.043193445655548196 0.03223214109564726 -0.053006535947040481 -0.051759717228807102 -0.051648711100631274 -0.05146831976899377
leaf_weight=0.59007219783962062 6.6296925842761976 3.9110823422670355 4.4800727292895317 0.72478971257805813 0.9144390430301429 1.1050967518240213 0.80372005328536034
leaf_count=20 36 23 28 14 28 36 29
internal_value=0.00116635 0.0157763 0.00612435 -0.0518659 -0.0516237 -0.051699 -0.0515146
internal_weight=19.159 15.0208 11.1098 4.13812 3.41333 2.01954 1.39379
internal_count=214 87 64 127 113 64 49
is_linear=0
shrinkage=0.05


Tree=39
num_leaves=7
num_cat=0
split_feature=12 5 12 4 12 12
split_gain=4.52401 2.91209 1.03063 1.109 1.67101 0.00667987
threshold=0.59500000000000008 0.55000000000000016 0.31000000000000005 1.0000000180025095e-35 0.47500000000000003 0.54000000000000015
decision_type=2 2 2 2 2 2
left_child=1 2 -1 5 -5 -4
right_child=-2 -3 3 4 -6 -7
leaf_value=-0.05384277196029056 0.055580194675156763 0.039343447346617669 -0.02887779557877054 -0.019102438888174395 0.040993539081198738 -0.025655446054101812
leaf_weight=1.8515845537185693 3.1728995740413657 2.5254366863518944 2.8635479155927879 2.9462936706840992 1.9043783806264398 3.6688666641712189
leaf_count=48 23 33 31 47 16 16
internal_value=0.00110821 -0.00985835 -0.019247 -0.0136196 0.0044913 -0.027068
internal_weight=18.933 15.7601 13.2347 11.3831 4.85067 6.53241
internal_count=214 191 158 110 63 47
is_linear=0
shrinkage=0.05


Tree=40
num_leaves=7
num_cat=0
split_feature=0 0 7 0 0 0
split_gain=6.37123 2.35411 0.445894 1.83114e-05 4.93282e-05 2.27559e-06
threshold=0.67500000000000016 0.038750000000000007 1.0000000180025095e-35 0.010750000000000001 0.0027500000000000003 0.00075000000000000012
decision_type=2 2 2 2 2 2
left_child=1 3 -3 4 5 -1
right_child=-2 2 -4 -5 -6 -7
leaf_value=-0.051683991449149681 0.061689372305362478 0.0018228640144689887 -0.017914954438329852 -0.051511145520862334 -0.052030945773474113 -0.051576412838045586
leaf_weight=1.0116359777748618 2.9451672658324233 6.3235681578516942 5.2261732071638107 0.72761872597038735 1.2750967759639023 0.9561915099620818
leaf_count=34 22 31 35 26 38 33
internal_value=-0.00573186 -0.0185259 -0.00710835 -0.0517378 -0.0517887 -0.0516317
internal_weight=18.4655 15.5203 11.5497 3.97054 3.24292 1.96783
internal_count=219 197 66 131 105 67
is_linear=0
shrinkage=0.05


Tree=41
num_leaves=8
num_cat=0
split_feature=12 12 5 12 12 12 4
split_gain=2.53109 0.946144 0.67273 0.625136 0.161832 0.603529 3.53264e-05
threshold=0.54000000000000015 0.31000000000000005 0.55000000000000016 0.56000000000000016 0.42500000000000004 0.32500000000000007 1.0000000180025095e-35
decision_type=2 2 2 2 2 2 2
left_child=1 6 4 -2 5 -3 -1
right_child=3 2 -4 -5 -6 -7 -8
leaf_value=-0.053246951907787068 0.0012863469323089796 0.013104783849589755 0.012727476831283259 0.027860864301955886 -0.032141632115277041 -0.03503761894168949 -0.053657572576706149
leaf_weight=1.0891011357307452 4.8417484834790212 1.1184179652482273 1.651417229324579 4.0760404095053673 2.7809534836560488 1.5576996412128208 1.0091130174696445
leaf_count=28 31 15 22 27 30 35 31
internal_value=-0.00555244 -0.0239418 -0.0152335 0.0134327 -0.0236951 -0.0149177 -0.0534444
internal_weight=18.1245 9.2067 7.10849 8.91779 5.45707 2.67612 2.09821
internal_count=219 161 102 58 80 50 59
is_linear=0
shrinkage=0.05


Tree=42
num_leaves=9
num_cat=0
split_feature=0 0 12 12 5 12 12 0
split_gain=5.83832 2.26659 0.515426 0.000401247 2.31507e-05 1.27825e-05 3.58485e-06 2.77252e-09
threshold=0.67500000000000016 0.038750000000000007 0.52500000000000013 0.54000000000000015 0.55000000000000016 0.31000000000000005 0.36500000000000005 0.0037500000000000003
decision_type=2 2 2 2 2 2 2 2
left_child=1 3 -3 4 5 7 -7 -1
right_child=-2 2 -4 -5 -6 6 -8 -9
leaf_value=-0.051191919903509409 0.061017957875882649 -0.019458670035796433 0.0021478831165881625 -0.052834502049093748 -0.051659057878541415 -0.051504768794809676 -0.051348577667453155 -0.05118645940252952
leaf_weight=0.45482420548797042 2.7981235086917868 4.6399606168270093 6.8130199909210205 0.5861709490418433 0.71066089533269394 0.72821466252207734 0.74136327765882015 0.47547853924334049
leaf_count=20 22 36 30 12 23 26 29 21
internal_value=-0.00533748 -0.0175932 -0.00660561 -0.0516345 -0.0514084 -0.0513342 -0.051426 -0.0511891
internal_weight=17.9478 15.1497 11.453 3.69671 3.11054 2.39988 1.46958 0.930303
internal_count=219 197 66 131 119 96 55 41
is_linear=0
shrinkage=0.05


Tree=43
num_leaves=9
num_cat=0
split_feature=0 0 12 12 9 12 12 0
split_gain=5.45771 2.20327 0.472349 0.000343621 1.98388e-05 1.09609e-05 3.0744e-06 2.37705e-09
threshold=0.67500000000000016 0.038750000000000007 0.52500000000000013 0.54000000000000015 5.5000000000000009 0.31000000000000005 0.36500000000000005 0.0037500000000000003
decision_type=2 2 2 2 2 2 2 2
left_child=1 3 -3 4 5 7 -7 -1
right_child=-2 2 -4 -5 -6 6 -8 -9
leaf_value=-0.051132437437379656 0.060419782512025504 -0.018717582297014309 0.0020395473398322275 -0.052689314366395415 -0.051575560373545465 -0.051429285004417208 -0.051281079604574724 -0.05112725628626183
leaf_weight=0.43313275650144012 2.6873397231101981 4.5839443132281286 6.8160807937383652 0.55908069387078274 0.67706832475960244 0.69369025342166402 0.7061113603413105 0.45279969461262226
leaf_count=20 22 36 30 12 23 26 29 21
internal_value=-0.00517294 -0.0169858 -0.00630688 -0.0515524 -0.0513378 -0.0512674 -0.0513545 -0.0511298
internal_weight=17.6092 14.9219 11.4 3.52188 2.9628 2.28573 1.3998 0.885932
internal_count=219 197 66 131 119 96 55 41
is_linear=0
shrinkage=0.05


Tree=44
num_leaves=8
num_cat=0
split_feature=12 12 5 12 12 4 4
split_gain=1.99425 0.864128 0.718211 0.637565 0.590932 0.103526 3.44005e-05
threshold=0.52500000000000013 0.31000000000000005 0.55000000000000016 0.34000000000000002 0.56000000000000016 1.0000000180025095e-35 1.0000000180025095e-35
decision_type=2 2 2 2 2 2 2
left_child=1 6 3 -3 -2 -5 -1
right_child=4 2 -4 5 -6 -7 -8
leaf_value=-0.052988590324093032 -1.9501918745323091e-05 0.006566073026341406 0.014605173035656879 -0.045695309555173196 0.025463163901652243 -0.027841514073986717 -0.053418174309096171
leaf_weight=0.97277961298823601 5.4440811611711961 1.2042049933224914 1.5870810467749832 1.4929166678339243 3.9082593657076359 1.7800619266927242 0.89459346979856491
leaf_count=28 34 17 22 19 27 41 31
internal_value=-0.00501133 -0.0234537 -0.0142956 -0.0245404 0.0106295 -0.0359852 -0.0531944
internal_weight=17.284 7.93164 6.06426 4.47718 9.35234 3.27298 1.86737
internal_count=219 158 99 77 61 60 59
is_linear=0
shrinkage=0.05


Tree=45
num_leaves=9
num_cat=0
split_feature=0 0 4 0 0 12 12 0
split_gain=5.19463 1.34848 0.613083 1.03181 0.00702815 0.000364949 9.08485e-06 6.52354e-06
threshold=0.31750000000000006 0.52250000000000008 1.0000000180025095e-35 0.038750000000000007 0.060250000000000005 0.54000000000000015 0.31000000000000005 0.0062500000000000012
decision_type=2 2 2 2 2 2 2 2
left_child=2 -2 4 5 7 6 -4 -1
right_child=1 -3 3 -5 -6 -7 -8 -9
leaf_value=-0.051335281517424641 0.041801816267994028 0.0050913763662788049 -0.051017609578594428 -0.0028407608118984542 -0.05681448301437414 -0.052756244714917334 -0.051290594351329891 -0.05157798199227262
leaf_weight=0.64460299164057067 4.6598047614097577 5.4009040296077728 0.46915738470852353 2.59882802516222 1.3170825242996214 0.51949277892708767 0.8698565661907196 0.48533998243510723
leaf_count=26 20 35 24 20 13 11 36 19
internal_value=-0.000825617 0.0220945 -0.0342237 -0.0231842 -0.0543325 -0.0516314 -0.0511949 -0.0514395
internal_weight=16.9651 10.0607 6.90436 4.45733 2.44703 1.85851 1.33901 1.12994
internal_count=204 55 149 91 58 71 60 45
is_linear=0
shrinkage=0.05


Tree=46
num_leaves=9
num_cat=0
split_feature=0 12 0 5 0 0 12 12
split_gain=5.00153 3.12821 2.21423 1.36226 0.594524 1.4212 1.16289e-05 3.97393e-06
threshold=0.67500000000000016 0.52500000000000013 0.47875000000000006 0.55000000000000016 0.08475000000000002 0.031250000000000007 0.31000000000000005 0.36500000000000005
decision_type=2 2 2 2 2 2 2 2
left_child=1 3 -3 4 5 6 -1 -8
right_child=-2 2 -4 -5 -6 -7 7 -9
leaf_value=-0.050966771874804084 0.060070488726004914 0.037318843232192568 -0.018308739823289139 0.0034048409065226114 -0.064318169664018293 0.044672507162953234 -0.051311090942824156 -0.051121095432613887
leaf_weight=0.65130588598549577 2.8090369775891295 3.6485279649496078 3.5096950829029083 1.5810187216848133 2.9619356989860535 0.49435504339635361 0.66058354638516881 0.47176577709615231
leaf_count=35 24 25 15 27 23 6 27 22
internal_value=-0.00081042 -0.0130441 0.0100445 -0.0372743 -0.0495481 -0.0303437 -0.0511351 -0.0512319
internal_weight=16.7882 13.9792 7.15822 6.82096 5.23995 2.27801 1.78366 1.13235
internal_count=204 180 40 140 113 90 84 49
is_linear=0
shrinkage=0.05


Tree=47
num_leaves=10
num_cat=0
split_feature=0 12 0 7 0 0 12 12 0
split_gain=4.68898 3.00835 2.12861 2.91953 0.371613 0.917972 1.14071e-05 4.36526e-06 2.94148e-08
threshold=0.67500000000000016 0.42500000000000004 0.47875000000000006 1.0000000180025095e-35 0.08475000000000002 0.038750000000000007 0.19000000000000003 0.34000000000000002 0.0067500000000000008
decision_type=2 2 2 2 2 2 2 2 2
left_child=1 4 3 -3 5 6 8 -8 -1
right_child=-2 2 -4 -5 -6 -7 7 -9 -10
leaf_value=-0.050997484551825394 0.05953209170767481 0.066046134863668116 -0.023975005439506862 -0.0086038985020457821 -0.061771625014330769 0.016623381032655284 -0.051352105202724069 -0.051151632694898502 -0.050977913014363621
leaf_weight=0.3777896873652965 2.6955910772085181 2.354701951146124 3.9442347288131714 2.9514636322855949 2.0174071863293648 0.68160582706332196 0.4785246606916187 0.62779306434094906 0.39033467695116997
leaf_count=20 24 14 17 35 18 7 19 29 21
internal_value=-0.000793162 -0.0125563 0.00384435 0.0245233 -0.0457288 -0.0330667 -0.0511356 -0.0512383 -0.0509875
internal_weight=16.5194 13.8239 9.2504 5.30617 4.57346 2.55605 1.87444 1.10632 0.768124
internal_count=204 180 66 49 114 96 89 48 41
is_linear=0
shrinkage=0.05


Tree=48
num_leaves=10
num_cat=0
split_feature=0 12 0 7 0 0 12 12 0
split_gain=4.39824 2.83896 1.91868 2.58083 0.359042 0.88497 9.78632e-06 3.74294e-06 2.52596e-08
threshold=0.67500000000000016 0.42500000000000004 0.47875000000000006 1.0000000180025095e-35 0.08475000000000002 0.038750000000000007 0.19000000000000003 0.34000000000000002 0.0067500000000000008
decision_type=2 2 2 2 2 2 2 2 2
left_child=1 4 3 -3 5 6 8 -8 -1
right_child=-2 2 -4 -5 -6 -7 7 -9 -10
leaf_value=-0.050947924753854235 0.059025561343964118 0.061735318600689509 -0.022888249031090727 -0.0082070389734782197 -0.061233969302733365 0.01558793436841218 -0.05128447554141477 -0.051094257345104921 -0.050929337781218442
leaf_weight=0.35970542766154112 2.5855717211961737 2.3921516947448236 3.9254241287708282 2.9397815503180027 1.9354400038719175 0.69030643999576558 0.45577184483408906 0.59782890602946281 0.37164302915334702
leaf_count=20 24 14 17 35 18 7 19 29 21
internal_value=-0.000775554 -0.0120881 0.00364113 0.0231723 -0.0451012 -0.0324867 -0.051079 -0.0511765 -0.0509385
internal_weight=16.2536 13.6681 9.25736 5.33193 4.4107 2.47526 1.78495 1.0536 0.731348
internal_count=204 180 66 49 114 96 89 48 41
is_linear=0
shrinkage=0.05


Tree=49
num_leaves=7
num_cat=0
split_feature=12 12 4 12 12 4
split_gain=3.94668 1.74016 0.625549 0.339389 0.608002 0.000119005
threshold=0.62500000000000011 0.41000000000000009 1.0000000180025095e-35 0.32500000000000007 0.31000000000000005 1.0000000180025095e-35
decision_type=2 2 2 2 2 2
left_child=1 3 -3 4 5 -1
right_child=-2 2 -4 -5 -6 -7
leaf_value=-0.052432177433066676 0.059426953853949818 -0.0089200667933309104 0.017706407481958619 -0.062110245140436997 -0.0073290809238347248 -0.053343294327134222
leaf_weight=0.75233480893075377 2.3275323063135156 6.1989978030323964 3.4243535771965981 1.1084528788924215 1.4965151995420456 0.68443447537720203
leaf_count=27 22 36 44 25 23 27
internal_value=-0.000757551 -0.0110086 0.000554643 -0.0385406 -0.0296339 -0.0528662
internal_weight=15.9926 13.6651 9.62335 4.04174 2.93328 1.43677
internal_count=204 182 80 102 77 54
is_linear=0
shrinkage=0.05


Tree=50
num_leaves=11
num_cat=0
split_feature=0 0 0 12 0 0 0 0 12 12
split_gain=4.38118 2.86645 4.58189 1.03795 1.50972 0.0448412 0.00309245 0.000228539 0.000161845 1.17115e-05
threshold=0.67500000000000016 0.52250000000000008 0.31750000000000006 0.32500000000000007 0.060250000000000005 0.21150000000000002 0.10175000000000002 0.012250000000000002 0.44000000000000006 0.12500000000000003
decision_type=2 2 2 2 2 2 2 2 2 2
left_child=1 2 3 4 7 6 8 9 -5 -1
right_child=-2 -3 -4 5 -6 -7 -8 -9 -10 -11
leaf_value=-0.050828513463551508 0.058446148330207594 -0.069028364276191828 0.029038997221977076 -0.051047304885122824 0.02803896370997221 -0.066417508101458286 -0.055817775232448796 -0.052445175648774926 -0.052123405458467047 -0.051215922035102383
leaf_weight=0.39663900528102958 2.3929618000984201 2.0775086581706992 5.1244391649961472 0.62357246689498491 1.1661962568759916 0.88327287137508381 0.64874934405088414 0.4388831639662385 0.79471782594919205 0.38388912566006184
leaf_count=25 24 9 22 32 11 6 7 17 24 17
internal_value=-0.00355043 -0.015383 -0.00472864 -0.0371579 -0.0126342 -0.0569877 -0.0529583 -0.0515323 -0.0516503 -0.0510191
internal_weight=14.9308 12.5379 10.4604 5.33592 2.38561 2.95031 2.06704 1.21941 1.41829 0.780528
internal_count=194 170 161 139 70 69 63 59 56 42
is_linear=0
shrinkage=0.05


Tree=51
num_leaves=11
num_cat=0
split_feature=0 0 0 12 12 0 0 0 12 0
split_gain=4.10533 2.61501 4.21518 1.01245 1.42823 0.0381308 0.00263308 0.00195726 0.00013897 3.17365e-08
threshold=0.67500000000000016 0.52250000000000008 0.31750000000000006 0.32500000000000007 0.31000000000000005 0.21150000000000002 0.10175000000000002 0.038750000000000007 0.44000000000000006 0.0062500000000000012
decision_type=2 2 2 2 2 2 2 2 2 2
left_child=1 2 3 4 7 6 8 9 -5 -1
right_child=-2 -3 -4 5 -6 -7 -8 -9 -10 -11
leaf_value=-0.050802046393976265 0.058006802135836713 -0.066356285445206178 0.027450184838477304 -0.050995266708117694 0.025461137739189607 -0.065463870134819829 -0.055502450985689226 -0.055046456941943059 -0.052016934677484986 -0.050823701148742066
leaf_weight=0.36788806319236578 2.2930593341588983 2.0537113249301902 5.1493231207132339 0.59375049360096477 1.2155392467975616 0.85212286561727513 0.62052664160728443 0.45530197769403458 0.7574672419577837 0.31327795702964067
leaf_count=24 24 9 22 32 20 6 7 6 24 20
internal_value=-0.00344483 -0.0148281 -0.00457898 -0.0364438 -0.012213 -0.0566257 -0.0528062 -0.0525084 -0.051568 -0.050812
internal_weight=14.672 12.3789 10.3252 5.17587 2.35201 2.82387 1.97174 1.13647 1.35122 0.681166
internal_count=194 170 161 139 70 69 63 50 56 44
is_linear=0
shrinkage=0.05


Tree=52
num_leaves=11
num_cat=0
split_feature=0 0 0 12 0 0 0 0 12 12
split_gain=3.84844 2.39053 3.87779 0.989435 1.37358 0.0324469 0.00224323 0.000159728 0.000119343 1.29366e-05
threshold=0.67500000000000016 0.52250000000000008 0.31750000000000006 0.32500000000000007 0.060250000000000005 0.21150000000000002 0.10175000000000002 0.012250000000000002 0.44000000000000006 0.12500000000000003
decision_type=2 2 2 2 2 2 2 2 2 2
left_child=1 2 3 4 7 6 8 9 -5 -1
right_child=-2 -3 -4 5 -6 -7 -8 -9 -10 -11
leaf_value=-0.050748473956422117 0.057592113347120256 -0.063878588426739782 0.025964296857463483 -0.05094586010164795 0.025525706699646589 -0.064573811184916716 -0.055205835933724079 -0.052205561930163714 -0.05191594317021702 -0.051170529091513775
leaf_weight=0.3594384435564264 2.1965335011482248 2.0273711532354346 5.1712227761745453 0.56532685179263376 1.1964205130934713 0.82145243883132923 0.59335432946681965 0.40032286662608385 0.72189138643443584 0.36687834840267897
leaf_count=25 24 9 22 32 11 6 7 17 24 17
internal_value=-0.00334177 -0.0142913 -0.00443165 -0.0357116 -0.0117836 -0.0562836 -0.0526623 -0.0514037 -0.0514899 -0.0509617
internal_weight=14.4202 12.2237 10.1963 5.02509 2.32306 2.70203 1.88057 1.12664 1.28722 0.726317
internal_count=194 170 161 139 70 69 63 59 56 42
is_linear=0
shrinkage=0.05


Tree=53
num_leaves=11
num_cat=0
split_feature=0 0 0 12 12 0 0 0 12 0
split_gain=3.60957 2.1887 3.57039 0.965503 1.30223 0.027628 0.00191212 0.00169081 0.0001025 2.21023e-08
threshold=0.67500000000000016 0.52250000000000008 0.31750000000000006 0.32500000000000007 0.31000000000000005 0.21150000000000002 0.10175000000000002 0.038750000000000007 0.44000000000000006 0.0062500000000000012
decision_type=2 2 2 2 2 2 2 2 2 2
left_child=1 2 3 4 7 6 8 9 -5 -1
right_child=-2 -3 -4 5 -6 -7 -8 -9 -10 -11
leaf_value=-0.050724540070267138 0.057200473884170315 -0.061568045022699983 0.024572231256675358 -0.050898946857486173 0.023238742203942495 -0.063742178597223795 -0.054926648910449127 -0.054812347324235969 -0.051820134369210492 -0.050743528605691791
leaf_weight=0.3333465186879021 2.1033507660031328 1.9990056008100499 5.1904592514038086 0.53823867812752746 1.2429567482322454 0.79132503271102894 0.56721235066652287 0.43186189234256744 0.68792185373604298 0.28364783432334661
leaf_count=24 24 9 22 32 20 6 7 6 24 20
internal_value=-0.00324289 -0.0137794 -0.00429001 -0.0350104 -0.0113835 -0.0559601 -0.0525262 -0.0524128 -0.0514158 -0.0507333
internal_weight=14.1693 12.066 10.067 4.87651 2.29181 2.5847 1.79337 1.04886 1.22616 0.616994
internal_count=194 170 161 139 70 69 63 50 56 44
is_linear=0
shrinkage=0.05


Tree=54
num_leaves=8
num_cat=0
split_feature=0 0 0 0 0 0 0
split_gain=3.38677 2.007 3.28691 0.480099 8.42242e-05 3.26525e-05 2.38284e-06
threshold=0.67500000000000016 0.52250000000000008 0.31750000000000006 0.060250000000000005 0.017500000000000005 0.0027500000000000003 0.00075000000000000012
decision_type=2 2 2 2 2 2 2
left_child=1 2 3 4 5 6 -1
right_child=-2 -3 -4 -5 -6 -7 -8
leaf_value=-0.051057834148286269 0.056830414383821949 -0.059402165636757209 0.023266018053052409 -0.019409764138013708 -0.051982806275422913 -0.051412372393764075 -0.050903904567527761
leaf_weight=0.53663948085158908 2.0134676620364198 1.9690625518560398 5.2073204219341278 2.5276215076446533 0.3926298739388584 0.80676181614398945 0.47302638087421656
leaf_count=30 24 9 22 24 17 39 29
internal_value=-0.00314604 -0.0132829 -0.00415054 -0.0342912 -0.0513188 -0.0511752 -0.0509857
internal_weight=13.9265 11.9131 9.944 4.73668 2.20906 1.81643 1.00967
internal_count=194 170 161 139 115 98 59
is_linear=0
shrinkage=0.05


Tree=55
num_leaves=9
num_cat=0
split_feature=0 4 0 0 12 12 4 0
split_gain=3.77058 1.47348 0.1981 0.000256869 0.000190424 8.20991e-06 2.1862e-06 3.19462e-09
threshold=0.060250000000000005 1.0000000180025095e-35 0.47875000000000006 0.028250000000000004 0.54000000000000015 0.31000000000000005 1.0000000180025095e-35 0.0042500000000000012
decision_type=2 2 2 2 2 2 2 2
left_child=3 2 -2 4 5 7 -7 -1
right_child=1 -3 -4 -5 -6 6 -8 -9
leaf_value=-0.050662873555907852 0.016904872964059549 0.043485492720498897 0.0011485412375029584 -0.052521743728847339 -0.052092710173896523 -0.050990924178508971 -0.050835778963360716 -0.050655110334822909
leaf_weight=0.25434978958219401 3.3479043245315534 4.3383809700608245 4.9360364377498627 0.36788492836058129 0.36535317264497269 0.4143038559705019 0.50243365205824375 0.27666013967245817
leaf_count=20 20 37 25 12 10 23 32 22
internal_value=0.00938979 0.0198792 0.00751637 -0.0513171 -0.0510727 -0.0508153 -0.0509059 -0.0506588
internal_weight=14.8033 12.6223 8.28394 2.18099 1.8131 1.44775 0.916738 0.53101
internal_count=201 82 45 119 107 97 55 42
is_linear=0
shrinkage=0.05


Tree=56
num_leaves=9
num_cat=0
split_feature=0 4 0 0 12 12 4 0
split_gain=3.50831 1.33237 0.177713 0.000220913 0.000163349 7.05265e-06 1.87755e-06 2.74513e-09
threshold=0.060250000000000005 1.0000000180025095e-35 0.47875000000000006 0.028250000000000004 0.54000000000000015 0.31000000000000005 1.0000000180025095e-35 0.0042500000000000012
decision_type=2 2 2 2 2 2 2 2
left_child=3 2 -2 4 5 7 -7 -1
right_child=1 -3 -4 -5 -6 6 -8 -9
leaf_value=-0.050630142078952112 0.015996984414679023 0.041325748549451743 0.0010909072365801174 -0.052395778525021246 -0.051986968908766744 -0.05094175731021397 -0.050794404816752549 -0.050622765844154177
leaf_weight=0.24209747556597105 3.3606763891875726 4.3368981294333926 4.9369511604309082 0.35076302383095015 0.34822372533380974 0.39446878805756569 0.4783091451972723 0.26333117019385099
leaf_count=20 20 37 25 12 10 23 32 22
internal_value=0.00896646 0.0188667 0.00712812 -0.0512518 -0.0510194 -0.0507749 -0.050861 -0.0506263
internal_weight=14.7117 12.6345 8.29763 2.07719 1.72643 1.37821 0.872778 0.505429
internal_count=201 82 45 119 107 97 55 42
is_linear=0
shrinkage=0.05


Tree=57
num_leaves=7
num_cat=0
split_feature=9 0 4 0 12 12
split_gain=3.36147 1.77404 0.761336 0.000141761 8.73072e-05 3.40838e-06
threshold=5.5000000000000009 0.060250000000000005 1.0000000180025095e-35 0.017500000000000005 0.44000000000000006 0.31000000000000005
decision_type=2 2 2 2 2 2
left_child=1 3 -3 4 5 -1
right_child=-2 2 -4 -5 -6 -7
leaf_value=-0.050551832186867811 0.065248540008717229 -0.0033624500861900389 0.025172567155655686 -0.052130824957220961 -0.051600043784521599 -0.050765430901715362
leaf_weight=0.28072008118033298 2.2183606261387476 7.4236090146005136 3.4118777215480804 0.34303338546305884 0.38921774923801422 0.55799988284707069
leaf_count=26 37 40 27 16 16 39
internal_value=0.00855974 -0.0015766 0.00562266 -0.0512322 -0.0509811 -0.0506939
internal_weight=14.6248 12.4065 10.8355 1.57097 1.22794 0.83872
internal_count=201 164 67 97 81 65
is_linear=0
shrinkage=0.05


Tree=58
num_leaves=9
num_cat=0
split_feature=0 4 0 0 12 5 12 4
split_gain=3.12902 1.1069 0.146642 0.00015939 0.000122879 1.0528e-05 3.58106e-06 7.79772e-07
threshold=0.060250000000000005 1.0000000180025095e-35 0.47875000000000006 0.028250000000000004 0.54000000000000015 0.55000000000000016 0.31000000000000005 1.0000000180025095e-35
decision_type=2 2 2 2 2 2 2 2
left_child=3 2 -2 4 5 6 -1 -8
right_child=1 -3 -4 -5 -6 -7 7 -9
leaf_value=-0.05052341975764793 0.014564604316249672 0.037742767163038114 0.0010548155489858103 -0.052156692181397762 -0.051820144085573741 -0.051001384558173893 -0.050785750690002497 -0.05067513643512353
leaf_weight=0.3485808456316597 3.3846521712839586 4.3185881040990344 4.9406990259885788 0.32902685273438681 0.32271871156990517 0.27641999348998059 0.27603079006075859 0.37683580350130796
leaf_count=34 20 37 25 12 10 15 19 29
internal_value=0.0081514 0.0172022 0.00654719 -0.0511544 -0.0509484 -0.0507282 -0.0506528 -0.0507219
internal_weight=14.5736 12.6439 8.32535 1.92961 1.60059 1.27787 1.00145 0.652867
internal_count=201 82 45 119 107 97 82 48
is_linear=0
shrinkage=0.05


Tree=59
num_leaves=7
num_cat=0
split_feature=5 0 4 0 12 12
split_gain=3.04758 1.5598 0.603143 0.000105074 6.44276e-05 2.51698e-06
threshold=0.55000000000000016 0.060250000000000005 1.0000000180025095e-35 0.017500000000000005 0.44000000000000006 0.31000000000000005
decision_type=2 2 2 2 2 2
left_child=1 3 -3 4 5 -1
right_child=-2 2 -4 -5 -6 -7
leaf_value=-0.050498781734861609 0.061961919043139184 -0.0034908112699754074 0.02183370418484424 -0.051925097859518154 -0.051444389733008279 -0.050691635547272441
leaf_weight=0.25426644179969915 2.2010093303397307 7.4277276881039125 3.44003064930439 0.31168720126152027 0.3532290356233716 0.50561470445245504
leaf_count=26 37 40 27 16 16 39
internal_value=0.00777807 -0.00192367 0.0045253 -0.0511137 -0.0508865 -0.0506271
internal_weight=14.4936 12.2926 10.8678 1.4248 1.11311 0.759881
internal_count=201 164 67 97 81 65
is_linear=0
shrinkage=0.05


Tree=60
num_leaves=8
num_cat=0
split_feature=0 4 0 0 0 4 0
split_gain=2.83859 1.6039 0.623788 1.27418e-05 1.50209e-05 5.48383e-07 9.26183e-08
threshold=0.038750000000000007 1.0000000180025095e-35 0.47875000000000006 0.0027500000000000003 0.0057500000000000008 1.0000000180025095e-35 0.00075000000000000012
decision_type=2 2 2 2 2 2 2
left_child=3 2 -2 6 -5 -6 -1
right_child=1 -3 -4 4 5 -7 -8
leaf_value=-0.050764406654942855 -0.01164583684937962 0.043742679196276002 0.016582309384491706 -0.051277893242028638 -0.050935440894781303 -0.05083981656336 -0.050799424217350203
leaf_weight=0.38906581699848253 3.5296952314674837 3.7373103052377701 4.3926956653594971 0.42862123530358054 0.31984295044094324 0.28222576249390841 0.36689392197877169
leaf_count=30 24 36 21 23 21 21 27
internal_value=0.00774988 0.0167427 0.00400571 -0.0509373 -0.0510517 -0.0508906 -0.0507814
internal_weight=13.4464 11.6597 7.92239 1.78665 1.03069 0.602069 0.75596
internal_count=203 81 45 122 65 42 57
is_linear=0
shrinkage=0.05


Tree=61
num_leaves=7
num_cat=0
split_feature=12 4 12 12 5 12
split_gain=1.02783 1.16395 1.4244 0.266514 0.513881 0.245144
threshold=0.56000000000000016 1.0000000180025095e-35 0.47500000000000003 0.52500000000000013 0.55000000000000016 0.32500000000000007
decision_type=2 2 2 2 2 2
left_child=1 3 5 4 -1 -3
right_child=-2 2 -4 -5 -6 -7
leaf_value=-0.040368328156661915 0.035659118313922565 0.017574975059958791 0.064267631749061555 -0.0022605426948258639 -0.0011336411915015519 -0.011495592697171686
leaf_weight=1.8259869599714857 2.5918024107813844 1.319760140962899 1.3132800757884977 3.1889454834163189 1.5371048310771585 1.6097227232530711
leaf_count=40 23 40 16 15 27 42
internal_value=0.00738421 0.000595483 0.0209984 -0.0126164 -0.0224361 0.00160098
internal_weight=13.3866 10.7948 4.24276 6.55204 3.36309 2.92948
internal_count=203 180 98 82 67 82
is_linear=0
shrinkage=0.05


Tree=62
num_leaves=8
num_cat=0
split_feature=0 4 12 12 5 12 12
split_gain=2.62968 1.35423 0.743222 0.000109235 1.96628e-05 2.66232e-06 6.00885e-07
threshold=0.038750000000000007 1.0000000180025095e-35 0.54000000000000015 0.54000000000000015 0.55000000000000016 0.31000000000000005 0.36500000000000005
decision_type=2 2 2 2 2 2 2
left_child=3 2 -2 4 5 -1 -7
right_child=1 -3 -4 -5 -6 6 -8
leaf_value=-0.050451558995045678 -0.013784742551539176 0.040308553423449259 0.017169137646940235 -0.051652155171073522 -0.050987968831889954 -0.050674852006503783 -0.050574424775957409
leaf_weight=0.31911502033472128 3.4144360683858377 3.7417592257261276 4.4884261935949326 0.38521098159253586 0.40037896763533354 0.33460539672523737 0.26843793783336878
leaf_count=36 24 36 21 13 22 27 24
internal_value=0.00703071 0.0155282 0.0037955 -0.0509112 -0.0506954 -0.0505683 -0.0506301
internal_weight=13.3524 11.6446 7.90286 1.70775 1.32254 0.922158 0.603043
internal_count=203 81 45 122 109 87 51
is_linear=0
shrinkage=0.05


Tree=63
num_leaves=8
num_cat=0
split_feature=0 0 0 12 5 12 12
split_gain=2.45543 0.843847 2.37915 9.37471e-05 1.68902e-05 2.28839e-06 5.16695e-07
threshold=0.038750000000000007 0.47300000000000003 0.21150000000000002 0.54000000000000015 0.55000000000000016 0.31000000000000005 0.36500000000000005
decision_type=2 2 2 2 2 2 2
left_child=3 2 -2 4 5 -1 -7
right_child=1 -3 -4 -5 -6 6 -8
leaf_value=-0.050429342060876639 0.038068673282469496 0.0285567730610739 -0.025576621054787769 -0.051569215788363536 -0.050938935024662894 -0.050641554187883402 -0.050546098293595333
leaf_weight=0.30368195753544636 2.5661381967365724 5.6673333235085011 3.4323339536786079 0.36699847318232048 0.38120961654931307 0.31849049869924784 0.25548555236309767
leaf_count=36 24 37 20 13 22 27 24
internal_value=0.00669903 0.0147219 0.00165075 -0.050866 -0.050661 -0.0505403 -0.0505991
internal_weight=13.2917 11.6658 5.99847 1.62587 1.25887 0.877658 0.573976
internal_count=203 81 44 122 109 87 51
is_linear=0
shrinkage=0.05


Tree=64
num_leaves=8
num_cat=0
split_feature=0 4 12 12 5 12 12
split_gain=2.29207 1.17689 0.685083 8.04669e-05 1.451e-05 1.96707e-06 4.44333e-07
threshold=0.038750000000000007 1.0000000180025095e-35 0.54000000000000015 0.54000000000000015 0.55000000000000016 0.31000000000000005 0.36500000000000005
decision_type=2 2 2 2 2 2 2
left_child=3 2 -2 4 5 -1 -7
right_child=1 -3 -4 -5 -6 6 -8
leaf_value=-0.050408228749388564 -0.013951105564532629 0.036796348247567577 0.01574024846683791 -0.051490552515498236 -0.050892374447315959 -0.050609917355950634 -0.050519182225911008
leaf_weight=0.28898915322497554 3.4143574647605401 3.7982729561626911 4.5076325386762619 0.34961961023509491 0.36294118501245975 0.30314213968813419 0.24315158929675817
leaf_count=36 24 36 21 13 22 27 24
internal_value=0.00636213 0.0139143 0.00294335 -0.0508232 -0.0506284 -0.0505137 -0.0505695
internal_weight=13.2681 11.7203 7.92199 1.54784 1.19822 0.835283 0.546294
internal_count=203 81 45 122 109 87 51
is_linear=0
shrinkage=0.05


Tree=65
num_leaves=12
num_cat=0
split_feature=12 4 12 0 0 0 0 0 0 0 0
split_gain=2.45848 1.78268 1.28095 0.780678 1.291 0.348047 0.260983 1.0243 0.00108676 0.00178852 5.55415e-09
threshold=0.62500000000000011 1.0000000180025095e-35 0.41000000000000009 0.52250000000000008 0.31750000000000006 0.28375000000000006 0.08475000000000002 0.038750000000000007 0.11700000000000001 0.033750000000000009 0.0027500000000000003
decision_type=2 2 2 2 2 2 2 2 2 2 2
left_child=1 3 6 4 8 -4 7 10 9 -1 -3
right_child=-2 2 5 -5 -6 -7 -8 -9 -10 -11 -12
leaf_value=-0.050719331209805686 0.051788434949032708 -0.050502580910781227 0.054329066266201868 -0.05174583122383121 -0.0017717683374327343 0.018535945772478975 -0.029255084502992801 0.061837440361196531 -0.055312886353615323 -0.055347754169192701 -0.050514455499153267
leaf_weight=0.47924161609262028 1.7739129960536963 0.22289952030405347 1.3004023274406793 2.0948372185230255 4.2771125435829163 1.4216841273009775 1.3592238798737524 0.41245737671852112 0.78870002180337906 0.36976090539246798 0.17640834208577871
leaf_count=40 19 25 34 10 18 11 9 4 10 7 19
internal_value=-0.00340212 -0.0109899 0.0127884 -0.025516 -0.0162263 0.0356351 -0.0158578 0.00657473 -0.0539765 -0.0527351 -0.0505078
internal_weight=14.6766 12.9027 4.89308 8.00965 5.91482 2.72209 2.17099 0.811765 1.6377 0.849003 0.399308
internal_count=206 187 102 85 75 45 57 48 57 47 44
is_linear=0
shrinkage=0.05


Tree=66
num_leaves=12
num_cat=0
split_feature=12 4 12 0 12 0 0 0 0 0 12
split_gain=2.24923 1.62668 1.16617 1.08781 0.748655 3.30431 0.517558 1.15162 0.000281386 0.00141392 2.42003e-06
threshold=0.62500000000000011 1.0000000180025095e-35 0.47500000000000003 0.18250000000000002 0.44000000000000006 0.31750000000000006 0.08475000000000002 0.038750000000000007 0.11700000000000001 0.033750000000000009 0.31000000000000005
decision_type=2 2 2 2 2 2 2 2 2 2 2
left_child=1 4 3 6 5 8 7 10 9 -1 -3
right_child=-2 2 -4 -5 -6 -7 -8 -9 -10 -11 -12
leaf_value=-0.050580354924171268 0.049916220557187529 -0.050373938152010835 0.044521125953914074 0.030149597363899584 -0.034641211869338794 0.065100942288982944 -0.058956877954541048 0.056232754402190915 -0.054309612304640958 -0.055076351224055221 -0.050588378842391417
leaf_weight=0.34613593202084147 1.7490705549716956 0.19156389357522152 1.7711879871785638 1.2414365187287328 5.5327496863901615 1.0517214834690092 0.85261560976505268 0.43039706349372864 0.62822464108467102 0.35341685730963945 0.42007814906537533
leaf_count=34 19 26 18 8 30 5 7 4 9 7 39
internal_value=-0.00327137 -0.0105282 0.0120878 -0.0062298 -0.0245549 -0.0011024 -0.0300667 -0.00642825 -0.0535415 -0.0528518 -0.0505212
internal_weight=14.5686 12.8195 4.90728 3.13609 7.91225 2.3795 1.89465 1.04204 1.32778 0.699553 0.611642
internal_count=206 187 102 84 85 55 76 69 50 41 65
is_linear=0
shrinkage=0.05


Tree=67
num_leaves=7
num_cat=0
split_feature=0 4 0 0 0 0
split_gain=1.31774 1.58681 0.114834 7.03129e-06 1.11753e-05 2.22491e-07
threshold=0.038750000000000007 1.0000000180025095e-35 0.49000000000000005 0.0027500000000000003 0.0057500000000000008 0.00075000000000000012
decision_type=2 2 2 2 2 2
left_child=3 2 -2 5 -5 -1
right_child=1 -3 -4 4 -6 -7
leaf_value=-0.050675523739585754 -0.016388602339952256 0.025740100520981597 -0.0047977417694712006 -0.05111650512220102 -0.050712346479644566 -0.050615176615977267
leaf_weight=0.32852290198206968 4.5562226660549623 4.4875330775976172 4.0242370441555977 0.29084077943116426 0.41522849909961224 0.28544153878465295
leaf_count=31 30 37 22 20 38 28
internal_value=-0.00316149 0.0016477 -0.0109525 -0.0507712 -0.0508788 -0.0506475
internal_weight=14.388 13.068 8.58046 1.32003 0.706069 0.613964
internal_count=206 89 52 117 58 59
is_linear=0
shrinkage=0.05


Tree=68
num_leaves=7
num_cat=0
split_feature=12 5 4 12 12 12
split_gain=2.08238 1.3913 1.04511 1.59274 1.01805 2.79025e-06
threshold=0.62500000000000011 0.55000000000000016 1.0000000180025095e-35 0.47500000000000003 0.32500000000000007 0.54000000000000015
decision_type=2 2 2 2 2 2
left_child=1 2 5 4 -4 -1
right_child=-2 -3 3 -5 -6 -7
leaf_value=-0.02958393807169174 0.04866741508151233 0.030396198696585171 0.0078303274535865049 0.042370667350462785 -0.05302946316059573 -0.029651605683348754
leaf_weight=2.4631867627613211 1.7148538939654834 1.818483640439809 1.4638421223498883 1.5680012311786411 1.2950634723529217 3.9930359348654747
leaf_count=43 19 34 39 14 39 18
internal_value=-0.00302554 -0.01006 -0.0168826 0.00213157 -0.020738 -0.0296258
internal_weight=14.3165 12.6016 10.7831 4.32691 2.75891 6.45622
internal_count=206 187 153 92 78 61
is_linear=0
shrinkage=0.05


Tree=69
num_leaves=14
num_cat=0
split_feature=12 4 12 0 0 0 12 0 0 0 0 12 0
split_gain=1.90294 1.29107 1.03185 0.740524 0.581347 0.704263 0.408675 0.237416 0.767535 0.000646345 0.00154262 1.67171e-06 1.20571e-08
threshold=0.62500000000000011 1.0000000180025095e-35 0.41000000000000009 0.52250000000000008 0.47300000000000003 0.31750000000000006 0.54000000000000015 0.08475000000000002 0.038750000000000007 0.11700000000000001 0.042750000000000003 0.34000000000000002 0.0032500000000000007
decision_type=2 2 2 2 2 2 2 2 2 2 2 2 2
left_child=1 3 7 4 5 9 -4 8 12 10 11 -1 -3
right_child=-2 2 6 -5 -6 -7 -8 -9 -10 -11 -12 -13 -14
leaf_value=-0.050537700091551147 0.046870458785494944 -0.050429626905302775 0.050770412359554498 -0.048290649347907874 0.0019252108901485262 -0.0018968358182025536 0.011817045046286678 -0.028283058707153131 0.048588069747288284 -0.05464971341355758 -0.05523874035545219 -0.050732623879230922 -0.050448620724034589
leaf_weight=0.21887973370030367 1.6921594366431243 0.1971131558530036 1.3427275288850069 2.0231307595968246 3.0254921466112137 1.2077592015266416 1.3506194427609444 1.329914443194866 0.45711147785186768 0.70306741818785667 0.31042838096618652 0.22110883891582489 0.14502566726878285
leaf_count=23 19 26 29 10 13 5 16 9 4 10 5 19 18
internal_value=-0.00289857 -0.00961854 0.010673 -0.0223109 -0.0130682 -0.0301138 0.0312367 -0.0153396 0.00619765 -0.0535604 -0.0525398 -0.0506357 -0.0504377
internal_weight=14.2245 12.5324 4.82251 7.70987 5.68674 2.66124 2.69335 2.12916 0.79925 1.45348 0.750417 0.439989 0.342139
internal_count=206 187 102 85 75 62 45 57 48 57 47 42 44
is_linear=0
shrinkage=0.05


Tree=70
num_leaves=8
num_cat=0
split_feature=0 4 0 12 5 12 0
split_gain=1.35067 0.466196 0.00156026 0.000123143 7.15911e-06 1.18074e-06 5.35454e-08
threshold=0.038750000000000007 1.0000000180025095e-35 0.47875000000000006 0.54000000000000015 0.55000000000000016 0.31000000000000005 0.0027500000000000003
decision_type=2 2 2 2 2 2 2
left_child=3 2 -2 4 5 -1 -7
right_child=1 -3 -4 -5 -6 6 -8
leaf_value=-0.050316810474365009 -0.0032490116165058078 0.017020780501011648 -0.004703757247405317 -0.051612443157042387 -0.050722321948875729 -0.050447204633174231 -0.050482219872090173
leaf_weight=0.20611937390640445 3.4201790876686555 4.0732069909572601 3.9973818771541119 0.34272902831435204 0.26800768077373505 0.27952294331043959 0.17916144616901875
leaf_count=33 23 37 22 12 20 33 20
internal_value=-0.00198849 0.00343008 -0.00403299 -0.0508019 -0.0505042 -0.0504162 -0.0504609
internal_weight=12.7663 11.4908 7.41756 1.27554 0.932811 0.664804 0.458684
internal_count=200 82 45 118 106 86 53
is_linear=0
shrinkage=0.05


Tree=71
num_leaves=11
num_cat=0
split_feature=0 0 12 12 12 0 0 0 0 0
split_gain=0.906179 1.28216 3.07132 0.596203 0.972788 0.0684963 0.00320348 0.00171484 0.000128039 1.3996e-06
threshold=0.31750000000000006 0.21150000000000002 0.47500000000000003 0.32500000000000007 0.31000000000000005 0.49000000000000005 0.08475000000000002 0.042750000000000003 0.012250000000000002 0.0020000000000000005
decision_type=2 2 2 2 2 2 2 2 2 2
left_child=1 2 3 4 7 -2 9 8 -1 -5
right_child=5 -3 -4 6 -6 -7 -8 -9 -10 -11
leaf_value=-0.050381848555603383 0.013448409012806521 -0.066848719422331324 0.092725067945823303 -0.050401713549991116 0.017770959621779492 0.0040581178456322508 -0.05587635744355899 -0.055993714308835041 -0.052264726878279724 -0.050579487612942647
leaf_weight=0.19723503850400548 3.8791003823280334 1.0782360956072805 0.6634638588875531 0.19998388038948156 1.2677216688171029 3.8889059834182262 0.72622785717248917 0.39783385023474693 0.16651729308068752 0.24803100759163499
leaf_count=28 17 8 14 26 21 32 8 6 15 25
internal_value=-0.0019036 -0.0186341 -0.00519048 -0.025469 -0.00906103 0.00874734 -0.0538251 -0.053725 -0.0512438 -0.0505001
internal_weight=12.7133 4.94525 3.86701 3.20355 2.02931 7.76801 1.17424 0.761586 0.363752 0.448015
internal_count=200 151 143 129 70 49 59 49 43 51
is_linear=0
shrinkage=0.05


Tree=72
num_leaves=8
num_cat=0
split_feature=0 4 0 12 5 12 0
split_gain=1.28503 0.445096 0.00221092 0.000148425 5.37169e-06 1.05793e-06 1.16544e-07
threshold=0.038750000000000007 1.0000000180025095e-35 0.47875000000000006 0.54000000000000015 0.55000000000000016 0.31000000000000005 0.0032500000000000007
decision_type=2 2 2 2 2 2 2
left_child=3 2 -2 4 5 -1 -7
right_child=1 -3 -4 -5 -6 6 -8
leaf_value=-0.050286276701011337 -0.0030146511545452496 0.016676773605871952 -0.0047502320207321105 -0.051679851193546823 -0.050662686927273097 -0.050409488298769178 -0.050464113103228583
leaf_weight=0.18647519312799044 3.3909133486449701 4.04567657597363 3.9988903142511845 0.35618038848042488 0.24503500200808048 0.27028737077489495 0.15287160221487284
leaf_count=33 23 37 22 12 20 35 18
internal_value=-0.00184144 0.00334492 -0.00395384 -0.0508223 -0.050465 -0.0503855 -0.0504292
internal_weight=12.6463 11.4355 7.3898 1.21085 0.854669 0.609634 0.423159
internal_count=200 82 45 118 106 86 53
is_linear=0
shrinkage=0.05


Tree=73
num_leaves=12
num_cat=0
split_feature=0 0 12 12 0 0 0 0 12 0 4
split_gain=0.824113 1.23382 2.72066 0.578992 0.921219 0.0603419 0.00276957 0.00206213 2.73834e-06 1.035e-06 3.3994e-07
threshold=0.31750000000000006 0.21150000000000002 0.47500000000000003 0.32500000000000007 0.060250000000000005 0.49000000000000005 0.08475000000000002 0.038750000000000007 0.31000000000000005 0.0020000000000000005 1.0000000180025095e-35
decision_type=2 2 2 2 2 2 2 2 2 2 2
left_child=1 2 3 4 7 -2 9 8 10 -5 -1
right_child=5 -3 -4 6 -6 -7 -8 -9 -10 -11 -12
leaf_value=-0.050392575415777976 0.012770642517775361 -0.066048544541930959 0.084580937661784372 -0.050363205385622424 0.017428669242263103 0.0039457707638924878 -0.055641810678449033 -0.055727309954905463 -0.05060423636862979 -0.050523848280886546 -0.050278247708400038
leaf_weight=0.12806042516604144 3.8700814247131348 1.045062720775604 0.6968140136450528 0.18108282238244988 1.2561383023858068 3.8781455084681511 0.70165232568979263 0.33495448529720306 0.14745831582695246 0.22466721897944808 0.13207685388624668
leaf_count=18 17 8 14 26 10 32 8 5 13 25 24
internal_value=-0.0017627 -0.017931 -0.00470803 -0.0247389 -0.00867028 0.00835361 -0.0537403 -0.0528207 -0.0504321 -0.0504522 -0.0503345
internal_weight=12.5962 4.84797 3.8029 3.10609 1.99869 7.74823 1.1074 0.74255 0.407596 0.40575 0.260137
internal_count=200 151 143 129 70 49 59 60 55 51 42
is_linear=0
shrinkage=0.05


Tree=74
num_leaves=11
num_cat=0
split_feature=0 0 12 12 12 0 0 0 0 0
split_gain=0.754812 1.16763 2.36133 0.562916 0.887645 0.0545231 0.00236237 0.00152296 0.00011305 8.90272e-07
threshold=0.31750000000000006 0.21150000000000002 0.47500000000000003 0.32500000000000007 0.31000000000000005 0.49000000000000005 0.08475000000000002 0.042750000000000003 0.013250000000000001 0.0020000000000000005
decision_type=2 2 2 2 2 2 2 2 2 2
left_child=1 2 3 4 7 -2 9 8 -1 -5
right_child=5 -3 -4 6 -6 -7 -8 -9 -10 -11
leaf_value=-0.050333998231294842 0.012139172874821198 -0.065145165650573364 0.075499594685690785 -0.0503453717617941 0.016379586406611781 0.0037490672159582422 -0.055338820169482009 -0.055856836405444379 -0.052233450919387726 -0.050498100162841397
leaf_weight=0.17867002356797512 3.8678867965936661 1.0075288787484167 0.74038564786314953 0.17231078585609771 1.2801830600947142 3.8775551915168762 0.67099413275718689 0.37961056083440781 0.13949212804436684 0.2138162893243134
leaf_count=29 17 8 14 26 21 32 8 6 14 25
internal_value=-0.00170535 -0.0173229 -0.004561 -0.0240912 -0.00834918 0.00793888 -0.0535458 -0.0537183 -0.0511668 -0.0504299
internal_weight=12.5284 4.78299 3.77546 3.03508 1.97796 7.74544 1.05712 0.697773 0.318162 0.386127
internal_count=200 151 143 129 70 49 59 49 43 51
is_linear=0
shrinkage=0.05


Tree=75
num_leaves=12
num_cat=0
split_feature=0 0 12 0 0 0 12 9 12 12 0
split_gain=2.70635 1.72342 1.57906 0.566318 0.470803 0.00218138 7.14518e-05 3.79553e-06 1.05002e-06 1.37331e-07 8.84946e-10
threshold=0.67500000000000016 0.52250000000000008 0.56000000000000016 0.060250000000000005 0.44750000000000006 0.038750000000000007 0.54000000000000015 5.5000000000000009 0.31000000000000005 0.36500000000000005 0.0067500000000000008
decision_type=2 2 2 2 2 2 2 2 2 2 2
left_child=1 2 3 5 -5 6 7 8 10 -10 -1
right_child=-2 -3 -4 4 -6 -7 -8 -9 9 -11 -12
leaf_value=-0.050249790643607517 0.055162285173115222 -0.063071394284960489 0.038832897181778799 -0.0028251120123628077 -0.029595879655463994 -0.055880066069018713 -0.05147549999887522 -0.050584810292629526 -0.050414589016730904 -0.050354581915707741 -0.050243132191772538
leaf_weight=0.10375911183655062 1.2847309336066253 2.035795345902442 1.3000460900366304 3.6563554964959621 2.9815279990434647 0.24505748599767685 0.19379879161715508 0.21600164286792278 0.21346367709338665 0.17231147456914186 0.096136077307164669
leaf_count=21 25 10 8 32 13 4 7 20 29 25 20
internal_value=-0.0135768 -0.0214517 -0.0122204 -0.0206449 -0.0148497 -0.0516542 -0.0506139 -0.0504057 -0.0503396 -0.0503878 -0.0502466
internal_weight=12.499 11.2143 9.17846 7.87841 6.63788 1.24053 0.995471 0.801672 0.58567 0.385775 0.199895
internal_count=214 189 179 171 45 126 122 115 95 54 41
is_linear=0
shrinkage=0.05


Tree=76
num_leaves=12
num_cat=0
split_feature=0 0 12 0 0 0 12 9 12 12 0
split_gain=2.5218 1.59979 1.4342 0.561923 0.427378 0.0018736 6.13433e-05 3.26312e-06 9.03114e-07 1.18168e-07 7.61272e-10
threshold=0.67500000000000016 0.52250000000000008 0.56000000000000016 0.060250000000000005 0.44750000000000006 0.038750000000000007 0.54000000000000015 5.5000000000000009 0.31000000000000005 0.36500000000000005 0.0067500000000000008
decision_type=2 2 2 2 2 2 2 2 2 2 2
left_child=1 2 3 5 -5 6 7 8 10 -10 -1
right_child=-2 -3 -4 4 -6 -7 -8 -9 9 -11 -12
leaf_value=-0.05023754832067439 0.05492607226894948 -0.06114807377367161 0.036939459697764125 -0.0026880261121556732 -0.028230936275508569 -0.055576765526831363 -0.051401497390320433 -0.050555999537032242 -0.050394234480996739 -0.050337172527092522 -0.050231217044811705
leaf_weight=0.098722164984790473 1.2271968126297004 1.9958587884902943 1.2983904704451559 3.6508289240300655 2.969703882932663 0.23434584215283394 0.18460582196712494 0.20558125432580709 0.20313287479802966 0.16396300354972482 0.091468609869480133
leaf_count=21 25 10 8 32 13 4 7 20 29 25 20
internal_value=-0.0130867 -0.0206084 -0.0117177 -0.0198148 -0.0141455 -0.0515737 -0.0505837 -0.0503857 -0.0503229 -0.0503687 -0.0502345
internal_weight=12.3238 11.0966 9.10074 7.80235 6.62053 1.18182 0.947474 0.762868 0.557287 0.367096 0.190191
internal_count=214 189 179 171 45 126 122 115 95 54 41
is_linear=0
shrinkage=0.05


Tree=77
num_leaves=12
num_cat=0
split_feature=0 0 12 0 0 0 12 5 12 12 0
split_gain=2.35096 1.48661 1.30271 0.556193 0.38807 0.00160939 5.26713e-05 2.80558e-06 7.7676e-07 1.01677e-07 6.55248e-10
threshold=0.67500000000000016 0.52250000000000008 0.56000000000000016 0.060250000000000005 0.44750000000000006 0.038750000000000007 0.54000000000000015 0.55000000000000016 0.31000000000000005 0.36500000000000005 0.0067500000000000008
decision_type=2 2 2 2 2 2 2 2 2 2 2
left_child=1 2 3 5 -5 6 7 8 10 -10 -1
right_child=-2 -3 -4 4 -6 -7 -8 -9 9 -11 -12
leaf_value=-0.05022591096276683 0.054700313617364715 -0.059320509534599733 0.035150523285243533 -0.0025574039611653489 -0.02693285342752887 -0.055289872228898009 -0.051331302490671055 -0.050528622713624211 -0.050374884326248419 -0.050320622970062803 -0.050219889068219198
leaf_weight=0.093928640708325295 1.1720419805496938 1.9555137306451786 1.2962994724512098 3.6455732136964798 2.9575088620185852 0.22404408827424049 0.17583656311035156 0.19565821951255202 0.19329831842333078 0.15601643593981862 0.087026764638721943
leaf_count=21 25 10 8 32 13 4 7 20 29 25 20
internal_value=-0.0126127 -0.0197974 -0.0112339 -0.0190135 -0.0134751 -0.0514972 -0.0505549 -0.0503668 -0.0503071 -0.0503506 -0.050223
internal_weight=12.1527 10.9807 9.02519 7.72889 6.60308 1.12581 0.901765 0.725928 0.53027 0.349315 0.180955
internal_count=214 189 179 171 45 126 122 115 95 54 41
is_linear=0
shrinkage=0.05


Tree=78
num_leaves=12
num_cat=0
split_feature=0 0 12 0 0 0 12 9 12 12 0
split_gain=2.19272 1.38259 1.18329 0.549273 0.352455 0.00138257 4.52307e-05 2.41227e-06 6.68118e-07 8.74896e-08 5.63255e-10
threshold=0.67500000000000016 0.52250000000000008 0.56000000000000016 0.060250000000000005 0.44750000000000006 0.038750000000000007 0.54000000000000015 5.5000000000000009 0.31000000000000005 0.36500000000000005 0.0067500000000000008
decision_type=2 2 2 2 2 2 2 2 2 2 2
left_child=1 2 3 5 -5 6 7 8 10 -10 -1
right_child=-2 -3 -4 4 -6 -7 -8 -9 9 -11 -12
leaf_value=-0.050214844501273261 0.054484542113887181 -0.057576293726745401 0.033457606279994868 -0.0024329561891267568 -0.025697194063211644 -0.055018428986002968 -0.051264710344270416 -0.050502604931893152 -0.05035649091881881 -0.050304891624856796 -0.050209120569941007
leaf_weight=0.089366882108149914 1.1191845722496516 1.9150533378124226 1.2938584387302396 3.6405754126608372 2.9450583457946777 0.21414219588041306 0.16747269779443741 0.18620932102203369 0.18393651815131307 0.14845266565680504 0.082799726631492376
leaf_count=21 25 10 8 32 13 4 7 20 29 25 20
internal_value=-0.0121539 -0.0190169 -0.010768 -0.0182402 -0.0128366 -0.0514243 -0.0505275 -0.0503488 -0.050292 -0.0503334 -0.0502121
internal_weight=11.9861 10.8669 8.95187 7.65801 6.58563 1.07238 0.858238 0.690765 0.504556 0.332389 0.172167
internal_count=214 189 179 171 45 126 122 115 95 54 41
is_linear=0
shrinkage=0.05


Tree=79
num_leaves=12
num_cat=0
split_feature=12 0 0 0 0 0 12 9 12 12 0
split_gain=1.01628 0.637149 0.931741 0.972461 0.767095 0.00118783 3.88459e-05 2.07425e-06 5.74695e-07 7.52857e-08 4.84393e-10
threshold=0.59500000000000008 0.51000000000000012 0.47300000000000003 0.44750000000000006 0.060250000000000005 0.038750000000000007 0.54000000000000015 5.5000000000000009 0.31000000000000005 0.36500000000000005 0.0067500000000000008
decision_type=2 2 2 2 2 2 2 2 2 2 2
left_child=1 2 3 4 5 6 7 8 10 -10 -1
right_child=-2 -3 -4 -5 -6 -7 -8 -9 9 -11 -12
leaf_value=-0.050204320756318116 0.020606730660831133 -0.0420703807921603 0.017139086030343913 -0.070274053730193506 -0.0023144080709117747 -0.054761533639446941 -0.051201529999045682 -0.050477879155165967 -0.050339003801709803 -0.050289934340310607 -0.050198878809966568
leaf_weight=0.085025773849336295 2.0176964253187188 2.1980389207601547 2.0671674907207489 0.88395932316780079 3.6358230076730251 0.20462977141141891 0.15949657745659351 0.17721236031502485 0.17502507381141186 0.14125348161906004 0.078777200076729059
leaf_count=21 27 16 9 4 32 4 7 20 29 25 20
internal_value=-0.0117095 -0.0183586 -0.0115084 -0.0221954 -0.0130699 -0.051355 -0.0505015 -0.0503317 -0.0502777 -0.0503171 -0.0502017
internal_weight=11.8241 9.80641 7.60837 5.5412 4.65724 1.02142 0.81679 0.657294 0.480082 0.316279 0.163803
internal_count=214 187 171 162 158 126 122 115 95 54 41
is_linear=0
shrinkage=0.05


Tree=80
num_leaves=11
num_cat=0
split_feature=5 12 12 0 0 12 0 0 0 0
split_gain=1.19751 0.426841 1.34742 0.583805 0.541743 1.0011 0.00120854 0.000519563 0.000716367 0.000144667
threshold=0.55000000000000016 0.32500000000000007 0.31000000000000005 0.31750000000000006 0.21150000000000002 0.47500000000000003 0.08475000000000002 0.11700000000000001 0.0057500000000000008 0.038750000000000007
decision_type=2 2 2 2 2 2 2 2 2 2
left_child=1 2 6 4 5 7 9 8 -3 -1
right_child=-2 3 -4 -5 -6 -7 -8 -9 -10 -11
leaf_value=-0.050191572172036361 0.031840016636241697 -0.050260211951698899 0.042638831581116796 -0.0087920650376375406 -0.064432193161292589 0.038011697377081072 -0.056080411498882522 -0.055339327839169575 -0.054697245702783073 -0.052442768561490882
leaf_weight=0.14043033751658973 1.8363112355582423 0.17063366947695457 1.1218177159316838 6.7562651038169861 1.0498657189309595 0.5095814373344183 0.25321541354060173 0.34093369543552399 0.19484303705394268 0.14510480687022209
leaf_count=37 34 34 17 41 9 11 4 4 8 4
internal_value=-0.00545846 -0.0118699 0.0114265 -0.0161577 -0.0381205 -0.0154034 -0.0535657 -0.0539354 -0.0526257 -0.0513356
internal_weight=12.519 10.6827 1.66057 9.02212 2.26586 1.21599 0.538751 0.70641 0.365477 0.285535
internal_count=203 169 62 107 66 57 45 46 42 41
is_linear=0
shrinkage=0.05


Tree=81
num_leaves=8
num_cat=0
split_feature=5 7 12 12 12 0 0
split_gain=1.07997 0.607448 1.29805 0.562522 0.901222 0.0549708 1.04012
threshold=0.55000000000000016 1.0000000180025095e-35 0.54000000000000015 0.44000000000000006 0.32500000000000007 0.15500000000000003 0.060250000000000005
decision_type=2 2 2 2 2 2 2
left_child=1 -1 3 4 5 6 -3
right_child=-2 2 -4 -5 -6 -7 -8
leaf_value=0.00089440808642664727 0.030058252044908453 -0.052678664331976238 -0.052977319813566404 0.032512815298464288 -0.049980293858852623 0.023182233315838272 0.060800688237439504
leaf_weight=5.1791148066986334 1.8476053401827819 0.4118781732395298 2.1729669645428658 0.8275246969424187 1.0558621559757737 0.57488002628087997 0.39613021537661552
leaf_count=40 34 44 26 13 38 5 3
internal_value=-0.0052224 -0.0113613 -0.0230308 -0.00310823 -0.0151953 0.0113638 0.00295516
internal_weight=12.466 10.6184 5.43924 3.26628 2.43875 1.38289 0.808008
internal_count=203 169 129 103 90 52 47
is_linear=0
shrinkage=0.05


Tree=82
num_leaves=13
num_cat=0
split_feature=5 12 0 0 0 0 0 12 0 0 0 0
split_gain=0.97307 0.352507 0.690797 0.635029 1.57256 0.559376 0.527436 0.94096 0.000896093 0.000335956 0.000814189 9.30808e-09
threshold=0.55000000000000016 0.32500000000000007 0.18250000000000002 0.08475000000000002 0.042750000000000003 0.31750000000000006 0.21150000000000002 0.47500000000000003 0.038750000000000007 0.11700000000000001 0.08475000000000002 0.0062500000000000012
decision_type=2 2 2 2 2 2 2 2 2 2 2 2
left_child=1 2 3 4 8 6 7 9 11 10 -3 -1
right_child=-2 5 -4 -5 -6 -7 -8 -9 -10 -11 -12 -13
leaf_value=-0.05025292708901017 0.028386709148979589 -0.050236344257652957 0.054742026412742388 -0.06006247056689841 0.10357545255438289 -0.0076788827329986563 -0.063444048281482049 0.036850498183128133 -0.055328354055125067 -0.054807791370726028 -0.055111470764533654 -0.0502743051531723
leaf_weight=0.11617313162423559 1.8582980614155538 0.18100788583978855 0.57294347137212742 0.43303676694631577 0.2946566604077816 6.7509348690509796 1.0032633356750009 0.51121171191334724 0.15102929994463921 0.31284676492214203 0.16255615651607513 0.090645980788394809
leaf_count=27 34 40 5 4 4 41 9 11 2 4 2 20
internal_value=-0.00498264 -0.0108435 0.0103243 -0.0131192 0.0180348 -0.0147784 -0.0368564 -0.0140113 -0.0524004 -0.0536224 -0.052543 -0.0502623
internal_weight=12.4386 10.5803 1.65849 1.08554 0.652505 8.92182 2.17089 1.16762 0.357848 0.656411 0.343564 0.206819
internal_count=203 169 62 57 53 107 66 57 49 46 42 47
is_linear=0
shrinkage=0.05


Tree=83
num_leaves=10
num_cat=0
split_feature=0 7 0 0 12 12 5 12 12
split_gain=1.05961 0.402133 0.64296 0.000653612 0.000279718 4.0737e-05 2.30616e-06 3.83177e-07 3.59926e-08
threshold=0.060250000000000005 1.0000000180025095e-35 0.44750000000000006 0.038750000000000007 0.88500000000000012 0.54000000000000015 0.55000000000000016 0.31000000000000005 0.36500000000000005
decision_type=2 2 2 2 2 2 2 2 2
left_child=3 -2 -3 4 5 6 7 -1 -9
right_child=1 2 -4 -5 -6 -7 -8 8 -10
leaf_value=-0.050165053055552113 0.0079842065963771462 0.0062266717500634059 -0.030261165291526185 -0.053912380756138745 -0.052875131332752338 -0.051180014260760645 -0.050463531577690235 -0.050290352250689431 -0.050251942534282126
leaf_weight=0.12113535869866676 6.4384268932044488 2.5441485568881035 2.2977329269051552 0.23625882714986801 0.15425748378038406 0.17849875800311565 0.16346988221630454 0.13947313488461077 0.10839162906631827
leaf_count=37 35 23 23 5 3 8 19 28 22
internal_value=-0.00477322 -0.000202545 -0.0110888 -0.0515815 -0.0509451 -0.0505263 -0.0503072 -0.0502379 -0.0502736
internal_weight=12.3818 11.2803 4.84188 1.10149 0.865226 0.710969 0.53247 0.369 0.247865
internal_count=203 81 46 122 117 114 106 87 50
is_linear=0
shrinkage=0.05


Tree=84
num_leaves=6
num_cat=0
split_feature=5 7 4 12 12
split_gain=0.878837 0.508915 1.16157 0.513843 0.886032
threshold=0.55000000000000016 1.0000000180025095e-35 1.0000000180025095e-35 0.32500000000000007 0.47500000000000003
decision_type=2 2 2 2 2
left_child=1 -1 -3 -4 -5
right_child=-2 2 3 4 -6
leaf_value=0.0010162074202392948 0.027025539131935825 -0.061542980479229362 0.019874724073471194 -0.050608018200536412 0.0059346430074334834
leaf_weight=5.1554651164915395 1.8700428013689823 1.3277009853627531 1.1957323050592092 1.2501388485543432 1.554217657074332
leaf_count=40 34 27 40 40 22
internal_value=-0.0045503 -0.0101829 -0.0210198 -0.00756945 -0.0192712
internal_weight=12.3533 10.4833 5.32779 4.00009 2.80436
internal_count=203 169 129 102 62
is_linear=0
shrinkage=0.05


Tree=85
num_leaves=9
num_cat=0
split_feature=0 0 4 0 0 0 5 0
split_gain=0.665177 1.08048 1.67188 0.3547 1.28123 3.03434 0.000654209 6.26304e-05
threshold=0.52250000000000008 0.31750000000000006 1.0000000180025095e-35 0.13250000000000003 0.08475000000000002 0.038750000000000007 0.55000000000000016 0.0027500000000000003
decision_type=2 2 2 2 2 2 2 2
left_child=1 2 6 4 5 7 -1 -4
right_child=-2 -3 3 -5 -6 -7 -8 -9
leaf_value=-0.052896349001550005 -0.012348917231500667 0.032451962195210481 -0.05058290062332637 0.034897722698998379 -0.058426215521956884 0.11484690698238838 -0.055315532493306091 -0.051659228465032694
leaf_weight=0.53114869934506515 2.4833545256406078 5.0423208773136139 0.2550379566382619 1.4674836769700048 0.5862581580877303 0.55881878733634949 0.58975407620891929 0.28753288532607257
leaf_count=34 31 22 42 9 6 5 18 27
internal_value=0.0106452 0.0167731 -0.00171539 0.0169195 0.00128669 0.0330712 -0.0541692 -0.0511533
internal_weight=11.8017 9.31836 4.27603 3.15513 1.68765 1.10139 1.1209 0.542571
internal_count=194 163 141 89 80 74 52 69
is_linear=0
shrinkage=0.05


Tree=86
num_leaves=11
num_cat=0
split_feature=0 0 12 4 0 0 0 5 0 0
split_gain=1.00232 3.17065 2.47461 2.07504 1.41781 0.614435 2.25147 0.399792 0.000950635 2.18656e-08
threshold=0.67500000000000016 0.52250000000000008 0.54000000000000015 1.0000000180025095e-35 0.13250000000000003 0.08475000000000002 0.060250000000000005 0.55000000000000016 0.038750000000000007 0.0042500000000000012
decision_type=2 2 2 2 2 2 2 2 2 2
left_child=1 2 3 7 5 6 8 -1 9 -5
right_child=-2 -3 -4 4 -6 -7 -8 -9 -10 -11
leaf_value=-0.066722394112555636 0.05557127147712615 -0.065120878827563733 0.043017877032343194 -0.050234270819927922 0.053050989437326293 -0.057974407930584261 0.14010951618233333 -0.023388091233248826 -0.054856207297271288 -0.050265801050682651
leaf_weight=1.0943305736873281 1.0994934029877192 1.385624811053275 4.4242644496262074 0.15198171557858609 1.4907116368412969 0.56190186366438866 0.22951200604438782 1.0362287093885243 0.21074515953660011 0.086155538214370608
leaf_count=36 23 8 30 39 9 6 1 19 3 20
internal_value=0.0101161 0.00543283 0.0159608 -0.00866247 0.0201898 -0.019306 0.0127223 -0.0456461 -0.0524103 -0.0502457
internal_weight=11.7709 10.6715 9.28583 4.86157 2.73101 1.2403 0.678394 2.13056 0.448882 0.238137
internal_count=194 171 163 133 78 69 63 55 62 59
is_linear=0
shrinkage=0.05


Tree=87
num_leaves=10
num_cat=0
split_feature=12 0 0 12 0 0 0 0 0
split_gain=0.780628 1.26373 0.954077 0.917021 0.484342 0.860043 0.000812499 7.84939e-08 1.27485e-07
threshold=0.41000000000000009 0.52250000000000008 0.18250000000000002 0.54000000000000015 0.08475000000000002 0.060250000000000005 0.038750000000000007 0.0067500000000000008 0.0020000000000000005
decision_type=2 2 2 2 2 2 2 2 2
left_child=2 3 4 -2 5 6 7 8 -1
right_child=1 -3 -4 -5 -6 -7 -8 -9 -10
leaf_value=-0.050235524358587781 0.0023300635990818027 -0.015948833683820413 0.037453061687545391 0.040696885997144695 -0.057679009804791681 0.044212982980680875 -0.054329603281257383 -0.050217721114434802 -0.050320177011007418
leaf_weight=0.10043724952265731 2.3982282527722401 2.2503575440496206 0.65043137222528447 4.4422706216573715 0.95972279459238052 0.43552487343549728 0.21699945814907551 0.099701684201136231 0.07982137706130743
leaf_count=28 38 30 6 30 11 3 4 28 16
internal_value=0.00970355 0.0165533 -0.0147869 0.0272458 -0.032744 -0.00708063 -0.0520332 -0.0502533 -0.050273
internal_weight=11.6335 9.09086 2.54264 6.8405 1.89221 0.932485 0.49696 0.27996 0.180259
internal_count=194 98 96 68 90 79 76 72 44
is_linear=0
shrinkage=0.05


Tree=88
num_leaves=9
num_cat=0
split_feature=0 0 4 0 0 0 5 0
split_gain=0.489715 0.849585 1.47413 0.233107 1.05373 2.51114 0.000491458 6.99699e-05
threshold=0.52250000000000008 0.31750000000000006 1.0000000180025095e-35 0.13250000000000003 0.08475000000000002 0.038750000000000007 0.55000000000000016 0.0027500000000000003
decision_type=2 2 2 2 2 2 2 2
left_child=1 2 6 4 5 7 -1 -4
right_child=-2 -3 3 -5 -6 -7 -8 -9
leaf_value=-0.052788387341326529 -0.010965449725070442 0.028353739402714025 -0.050614554732161914 0.028808441803417656 -0.057170575622055499 0.09898017713827939 -0.054973005236626085 -0.051777365963207957
leaf_weight=0.48286615614779094 2.3844356201589116 5.0147708803415298 0.23983847489580534 1.532228074967861 0.51943137869238842 0.59729807823896408 0.55143887735903263 0.280874332645908
leaf_count=34 31 22 42 9 6 5 18 27
internal_value=0.00923199 0.0144561 -0.00212196 0.0147912 0.0016747 0.0290144 -0.0539531 -0.0512418
internal_weight=11.6032 9.21875 4.20398 3.16967 1.63744 1.11801 1.03431 0.520713
internal_count=194 163 141 89 80 74 52 69
is_linear=0
shrinkage=0.05


Tree=89
num_leaves=11
num_cat=0
split_feature=12 0 0 7 0 0 0 0 0 0
split_gain=0.668137 1.05144 0.872113 0.846545 1.32422 0.438518 0.779476 0.000885485 5.82308e-08 9.1843e-08
threshold=0.41000000000000009 0.52250000000000008 0.18250000000000002 1.0000000180025095e-35 0.24250000000000002 0.08475000000000002 0.060250000000000005 0.038750000000000007 0.0067500000000000008 0.0020000000000000005
decision_type=2 2 2 2 2 2 2 2 2 2
left_child=2 3 5 -2 -5 6 7 8 9 -1
right_child=1 -3 -4 4 -6 -7 -8 -9 -10 -11
leaf_value=-0.050212927611705087 0.039833074265733875 -0.014598413011191889 0.035061836901997094 0.037724347446975975 -0.029966761756288204 -0.057121427529093195 0.04004720193163528 -0.054550260142005771 -0.050196253198526324 -0.050288517483582186
leaf_weight=0.090844935970382013 3.952752683311699 2.2510538753122091 0.65671290457248677 1.4601020573172721 1.4301903042942283 0.89376418478786945 0.44034917652606964 0.22306066937744617 0.090002555167302489 0.072059420868754387
leaf_count=28 23 30 6 37 8 11 3 4 28 16
internal_value=0.00878373 0.015044 -0.0142955 0.024795 0.00422906 -0.0322027 -0.00789728 -0.0522539 -0.0502285 -0.0502464
internal_weight=11.5609 9.0941 2.46679 6.84305 2.89029 1.81008 0.916317 0.475968 0.252907 0.162904
internal_count=194 98 96 68 45 90 79 76 72 44
is_linear=0
shrinkage=0.05


Tree=90
num_leaves=13
num_cat=0
split_feature=4 12 12 12 0 0 0 0 0 0 0 0
split_gain=1.45378 1.44265 1.1796 1.41863 3.34401 1.01655 0.49086 1.74858 0.000806552 0.000264206 0.000194717 3.53917e-08
threshold=1.0000000180025095e-35 0.47500000000000003 0.56000000000000016 0.44000000000000006 0.31750000000000006 0.18250000000000002 0.08475000000000002 0.060250000000000005 0.038750000000000007 0.11700000000000001 0.033750000000000009 0.0027500000000000003
decision_type=2 2 2 2 2 2 2 2 2 2 2 2
left_child=2 5 3 4 9 6 7 8 11 10 -1 -2
right_child=1 -3 -4 -5 -6 -7 -8 -9 -10 -11 -12 -13
leaf_value=-0.050251365526601859 -0.050185855269267513 0.072537033547377824 0.033347774730054139 -0.031120885025882741 0.098314453220516032 0.049294253502631974 -0.056053946047325331 0.11521410959822309 -0.054558671934098572 -0.053543676935442243 -0.05290751858656334 -0.050226117253573691
leaf_weight=0.14214370632544138 0.13562761526554845 1.8146995883435009 2.0240678042173386 3.1872355313971639 0.78947927057743073 1.0017425268888471 0.51152805238962173 0.24564065039157867 0.19971726462244987 0.40753639675676823 0.13408444868400693 0.091342243133112788
leaf_count=37 40 27 13 21 4 7 7 1 3 8 5 26
