tree
version=v4
num_class=1
num_tree_per_iteration=1
label_index=0
max_feature_idx=12
objective=binary sigmoid:1
feature_names=market_price spread_bps vol_24h time_to_close_sec ambiguity_score freshness_score source_agreement_score official_source_present llm_confidence retrieval_count price_momentum_1h price_momentum_24h raw_probability
feature_infos=[0.00050000000000000001:0.99950000000000006] none none [89941:2537967] none [0:0.59999999999999998] none none [0.75:0.94999999999999996] [0:6] none none [0.01:0.94999999999999996]
tree_sizes=351 358 360 358 357 357 361 359 361 362 360 361 360 359 360 360 358 361 360 360 361 360 361 362 361 357 359 358 360 358 360 360 357 357 359 358 358 359 359 355 359 358 359 360 360 358 359 356 358 356 358 358 358 357 359 356 357 356 357 358 358 359 358 358 358 360 358 361 358 358 357 358 355 358 357 360 357 359 356 358 357 357 358 357 358 358 360 357 358

Tree=0
num_leaves=2
num_cat=0
split_feature=8
split_gain=0.531768
threshold=0.87500000000000011
decision_type=2
left_child=-1
right_child=-2
leaf_value=-1.1824414454322441 -1.2032275529998062
leaf_weight=2.6889994740486145 3.9438658952713013
leaf_count=15 22
internal_value=-1.19705
internal_weight=6.63287
internal_count=37
is_linear=0
shrinkage=1


Tree=1
num_leaves=2
num_cat=0
split_feature=3
split_gain=1.34221
threshold=93543.500000000015
decision_type=2
left_child=-1
right_child=-2
leaf_value=0.0081191252079022766 -0.022159614487388346
leaf_weight=2.8572481870651245 3.7431942969560623
leaf_count=16 21
internal_value=-0.0112023
internal_weight=6.60044
internal_count=37
is_linear=0
shrinkage=0.05


Tree=2
num_leaves=2
num_cat=0
split_feature=8
split_gain=0.512512
threshold=0.87500000000000011
decision_type=2
left_child=-1
right_child=-2
leaf_value=0.0032322952130322512 -0.017091578433366172
leaf_weight=2.6849301755428314 3.8834090828895569
leaf_count=15 22
internal_value=-0.0109775
internal_weight=6.56834
internal_count=37
is_linear=0
shrinkage=0.05


Tree=3
num_leaves=2
num_cat=0
split_feature=3
split_gain=1.29634
threshold=93543.500000000015
decision_type=2
left_child=-1
right_child=-2
leaf_value=0.0080941246600998128 -0.021633586177447917
leaf_weight=2.8590320348739624 3.6779188960790634
leaf_count=16 21
internal_value=-0.0107587
internal_weight=6.53695
internal_count=37
is_linear=0
shrinkage=0.05


Tree=4
num_leaves=2
num_cat=0
split_feature=3
split_gain=1.25113
threshold=93543.500000000015
decision_type=2
left_child=-1
right_child=-2
leaf_value=0.0079341111098810285 -0.021284727551170429
leaf_weight=2.871381402015686 3.6343477219343185
leaf_count=16 21
internal_value=-0.0105449
internal_weight=6.50573
internal_count=37
is_linear=0
shrinkage=0.05


Tree=5
num_leaves=2
num_cat=0
split_feature=5
split_gain=3.28379
threshold=0.45000000000000007
decision_type=2
left_child=-1
right_child=-2
leaf_value=0.02155952702381159 -0.022179996036621255
leaf_weight=3.374226450920105 3.8123881071805954
leaf_count=19 22
internal_value=-0.00122383
internal_weight=7.18661
internal_count=41
is_linear=0
shrinkage=0.05


Tree=6
num_leaves=2
num_cat=0
split_feature=0
split_gain=7.46397
threshold=0.0025000000000000005
decision_type=2
left_child=-1
right_child=-2
leaf_value=-0.030477107416884437 0.035819398391653462
leaf_weight=4.4983422160148621 2.6805087327957153
leaf_count=26 15
internal_value=-0.00117998
internal_weight=7.17885
internal_count=41
is_linear=0
shrinkage=0.05


Tree=7
num_leaves=2
num_cat=0
split_feature=0
split_gain=7.1663
threshold=0.0025000000000000005
decision_type=2
left_child=-1
right_child=-2
leaf_value=-0.030001697637070907 0.034956122513778859
leaf_weight=4.4223033636808395 2.731542631983757
leaf_count=26 15
internal_value=-0.00102193
internal_weight=7.15385
internal_count=41
is_linear=0
shrinkage=0.05


Tree=8
num_leaves=2
num_cat=0
split_feature=0
split_gain=6.88083
threshold=0.0025000000000000005
decision_type=2
left_child=-1
right_child=-2
leaf_value=-0.02953853706935021 0.034114664973853362
leaf_weight=4.3473642021417618 2.7810303866863251
leaf_count=26 15
internal_value=-0.000878947
internal_weight=7.12839
internal_count=41
is_linear=0
shrinkage=0.05


Tree=9
num_leaves=2
num_cat=0
split_feature=0
split_gain=6.60714
threshold=0.0025000000000000005
decision_type=2
left_child=-1
right_child=-2
leaf_value=-0.029087110158394811 0.033294685674126336
leaf_weight=4.2735657393932343 2.8289556503295898
leaf_count=26 15
internal_value=-0.000750142
internal_weight=7.10252
internal_count=41
is_linear=0
shrinkage=0.05


Tree=10
num_leaves=2
num_cat=0
split_feature=0
split_gain=7.1981
threshold=0.0025000000000000005
decision_type=2
left_child=-1
right_child=-2
leaf_value=-0.027287054138320634 0.038556462757167606
leaf_weight=3.8592000901699066 2.8915331214666367
leaf_count=24 15
internal_value=0.00532121
internal_weight=6.75073
internal_count=39
is_linear=0
shrinkage=0.05


Tree=11
num_leaves=2
num_cat=0
split_feature=0
split_gain=6.90294
threshold=0.0025000000000000005
decision_type=2
left_child=-1
right_child=-2
leaf_value=-0.026888062215035625 0.037591691208754156
leaf_weight=3.7964314818382263 2.9444191306829453
leaf_count=24 15
internal_value=0.00529137
internal_weight=6.74085
internal_count=39
is_linear=0
shrinkage=0.05


Tree=12
num_leaves=2
num_cat=0
split_feature=0
split_gain=8.17366
threshold=0.016250000000000004
decision_type=2
left_child=-1
right_child=-2
leaf_value=-0.028292554665171311 0.042062198966905939
leaf_weight=4.1265053451061249 2.6034437865018845
leaf_count=26 13
internal_value=0.00525198
internal_weight=6.72995
internal_count=39
is_linear=0
shrinkage=0.05


Tree=13
num_leaves=2
num_cat=0
split_feature=0
split_gain=7.84722
threshold=0.016250000000000004
decision_type=2
left_child=-1
right_child=-2
leaf_value=-0.027871892681945051 0.041074678877755524
leaf_weight=4.056584507226944 2.6517046242952347
leaf_count=26 13
internal_value=0.00528405
internal_weight=6.70829
internal_count=39
is_linear=0
shrinkage=0.05


Tree=14
num_leaves=2
num_cat=0
split_feature=0
split_gain=7.53466
threshold=0.016250000000000004
decision_type=2
left_child=-1
right_child=-2
leaf_value=-0.027461266945970189 0.040114994634844664
leaf_weight=3.9878886938095093 2.6978169828653336
leaf_count=26 13
internal_value=0.00530384
internal_weight=6.68571
internal_count=39
is_linear=0
shrinkage=0.05


Tree=15
num_leaves=2
num_cat=0
split_feature=5
split_gain=3.38909
threshold=0.45000000000000007
decision_type=2
left_child=-1
right_child=-2
leaf_value=0.022909834987671237 -0.022993519907239458
leaf_weight=3.0922674685716629 2.9924890249967575
leaf_count=16 20
internal_value=0.000145881
internal_weight=6.08476
internal_count=36
is_linear=0
shrinkage=0.05


Tree=16
num_leaves=2
num_cat=0
split_feature=0
split_gain=5.25094
threshold=0.016250000000000004
decision_type=2
left_child=-1
right_child=-2
leaf_value=-0.026148799110536206 0.0312166312489233
leaf_weight=3.7208461612462997 2.352233812212944
leaf_count=25 11
internal_value=0.000132964
internal_weight=6.07308
internal_count=36
is_linear=0
shrinkage=0.05


Tree=17
num_leaves=2
num_cat=0
split_feature=0
split_gain=5.06528
threshold=0.016250000000000004
decision_type=2
left_child=-1
right_child=-2
leaf_value=-0.025777094551018804 0.030599623400416227
leaf_weight=3.6594340205192566 2.3797943890094757
leaf_count=25 11
internal_value=0.000235875
internal_weight=6.03923
internal_count=36
is_linear=0
shrinkage=0.05


Tree=18
num_leaves=2
num_cat=0
split_feature=0
split_gain=4.88664
threshold=0.016250000000000004
decision_type=2
left_child=-1
right_child=-2
leaf_value=-0.025413749083712262 0.029996417732382648
leaf_weight=3.5991811454296112 2.406139150261879
leaf_count=25 11
internal_value=0.000328951
internal_weight=6.00532
internal_count=36
is_linear=0
shrinkage=0.05


Tree=19
num_leaves=2
num_cat=0
split_feature=5
split_gain=4.32491
threshold=0.35000000000000003
decision_type=2
left_child=-1
right_child=-2
leaf_value=0.027669803714131094 -0.024437426387608888
leaf_weight=2.5772105306386948 3.3941560983657837
leaf_count=12 24
internal_value=0.000412743
internal_weight=5.97137
internal_count=36
is_linear=0
shrinkage=0.05


Tree=20
num_leaves=2
num_cat=0
split_feature=0
split_gain=4.93895
threshold=0.016250000000000004
decision_type=2
left_child=-1
right_child=-2
leaf_value=-0.026102258914592044 0.029256255431339046
leaf_weight=3.8007276654243469 2.4356604069471359
leaf_count=27 11
internal_value=-0.00108392
internal_weight=6.23639
internal_count=38
is_linear=0
shrinkage=0.05


Tree=21
num_leaves=2
num_cat=0
split_feature=0
split_gain=4.7646
threshold=0.016250000000000004
decision_type=2
left_child=-1
right_child=-2
leaf_value=-0.025733101522039604 0.02868385245760819
leaf_weight=3.7358633279800415 2.4592262506484985
leaf_count=27 11
internal_value=-0.000968417
internal_weight=6.19509
internal_count=38
is_linear=0
shrinkage=0.05


Tree=22
num_leaves=2
num_cat=0
split_feature=0
split_gain=4.59691
threshold=0.016250000000000004
decision_type=2
left_child=-1
right_child=-2
leaf_value=-0.025372101563885953 0.028124371618851327
leaf_weight=3.672321230173111 2.4816317558288574
leaf_count=27 11
internal_value=-0.000862369
internal_weight=6.15395
internal_count=38
is_linear=0
shrinkage=0.05


Tree=23
num_leaves=2
num_cat=0
split_feature=0
split_gain=4.43564
threshold=0.016250000000000004
decision_type=2
left_child=-1
right_child=-2
leaf_value=-0.025018994973380611 0.027577538132930818
leaf_weight=3.6100904941558838 2.5028975456953049
leaf_count=27 11
internal_value=-0.000765264
internal_weight=6.11299
internal_count=38
is_linear=0
shrinkage=0.05


Tree=24
num_leaves=2
num_cat=0
split_feature=0
split_gain=4.28053
threshold=0.016250000000000004
decision_type=2
left_child=-1
right_child=-2
leaf_value=-0.024673528977240605 0.02704307083040319
leaf_weight=3.5491590052843094 2.5230464488267899
leaf_count=27 11
internal_value=-0.000676617
internal_weight=6.07221
internal_count=38
is_linear=0
shrinkage=0.05


Tree=25
num_leaves=2
num_cat=0
split_feature=0
split_gain=5.61615
threshold=0.016250000000000004
decision_type=2
left_child=-1
right_child=-2
leaf_value=-0.023373052972857345 0.036332174392325882
leaf_weight=3.2526777312159538 2.7707489579916
leaf_count=25 12
internal_value=0.00811344
internal_weight=6.02343
internal_count=37
is_linear=0
shrinkage=0.05


Tree=26
num_leaves=2
num_cat=0
split_feature=0
split_gain=5.40567
threshold=0.016250000000000004
decision_type=2
left_child=-1
right_child=-2
leaf_value=-0.023061642006768926 0.035558483143926234
leaf_weight=3.200607992708683 2.7975836992263794
leaf_count=25 12
internal_value=0.00801502
internal_weight=5.99819
internal_count=37
is_linear=0
shrinkage=0.05


Tree=27
num_leaves=2
num_cat=0
split_feature=0
split_gain=5.2042
threshold=0.016250000000000004
decision_type=2
left_child=-1
right_child=-2
leaf_value=-0.02275669916697054 0.034806886332549893
leaf_weight=3.1496156826615334 2.8224193751811981
leaf_count=25 12
internal_value=0.00791245
internal_weight=5.97204
internal_count=37
is_linear=0
shrinkage=0.05


Tree=28
num_leaves=2
num_cat=0
split_feature=0
split_gain=5.01134
threshold=0.016250000000000004
decision_type=2
left_child=-1
right_child=-2
leaf_value=-0.022458039149492393 0.034076670988992655
leaf_weight=3.0996854230761528 2.8453074991703033
leaf_count=25 12
internal_value=0.00780621
internal_weight=5.94499
internal_count=37
is_linear=0
shrinkage=0.05


Tree=29
num_leaves=2
num_cat=0
split_feature=0
split_gain=6.92339
threshold=0.52175000000000005
decision_type=2
left_child=-1
right_child=-2
leaf_value=-0.025587760503872514 0.040921755261866012
leaf_weight=3.5300543606281281 2.3870493769645691
leaf_count=27 10
internal_value=0.00769673
internal_weight=5.9171
internal_count=37
is_linear=0
shrinkage=0.05


Tree=30
num_leaves=2
num_cat=0
split_feature=0
split_gain=3.49596
threshold=0.016250000000000004
decision_type=2
left_child=-1
right_child=-2
leaf_value=-0.021053985983585127 0.026962668440461635
leaf_weight=2.8430369943380356 2.3984164297580719
leaf_count=24 10
internal_value=0.00335439
internal_weight=5.24145
internal_count=34
is_linear=0
shrinkage=0.05


Tree=31
num_leaves=2
num_cat=0
split_feature=0
split_gain=3.38154
threshold=0.016250000000000004
decision_type=2
left_child=-1
right_child=-2
leaf_value=-0.020789409279023608 0.026480220618514811
leaf_weight=2.7999823018908501 2.4107859879732132
leaf_count=24 10
internal_value=0.00333787
internal_weight=5.21077
internal_count=34
is_linear=0
shrinkage=0.05


Tree=32
num_leaves=2
num_cat=0
split_feature=0
split_gain=3.27137
threshold=0.016250000000000004
decision_type=2
left_child=-1
right_child=-2
leaf_value=-0.020530033403054856 0.026008520668713356
leaf_weight=2.7578276321291924 2.4221720546483994
leaf_count=24 10
internal_value=0.00331741
internal_weight=5.18
internal_count=34
is_linear=0
shrinkage=0.05


Tree=33
num_leaves=2
num_cat=0
split_feature=0
split_gain=3.16529
threshold=0.016250000000000004
decision_type=2
left_child=-1
right_child=-2
leaf_value=-0.02027572392686151 0.02554729804923302
leaf_weight=2.7165560275316238 2.4326054900884628
leaf_count=24 10
internal_value=0.0032933
internal_weight=5.14916
internal_count=34
is_linear=0
shrinkage=0.05


Tree=34
num_leaves=2
num_cat=0
split_feature=0
split_gain=3.06314
threshold=0.016250000000000004
decision_type=2
left_child=-1
right_child=-2
leaf_value=-0.020026349002206539 0.025096287426546734
leaf_weight=2.6761502474546432 2.4421171993017197
leaf_count=24 10
internal_value=0.0032658
internal_weight=5.11827
internal_count=34
is_linear=0
shrinkage=0.05


Tree=35
num_leaves=2
num_cat=0
split_feature=0
split_gain=5.70564
threshold=0.52175000000000005
decision_type=2
left_child=-1
right_child=-2
leaf_value=-0.023210559382148326 0.03776131742818073
leaf_weight=3.1955686882138252 2.4563227444887161
leaf_count=28 10
internal_value=0.00857471
internal_weight=5.65189
internal_count=38
is_linear=0
shrinkage=0.05


Tree=36
num_leaves=2
num_cat=0
split_feature=0
split_gain=5.50901
threshold=0.52175000000000005
decision_type=2
left_child=-1
right_child=-2
leaf_value=-0.022906417387110134 0.037084079457376323
leaf_weight=3.1437995582818985 2.4671497941017151
leaf_count=28 10
internal_value=0.0085164
internal_weight=5.61095
internal_count=38
is_linear=0
shrinkage=0.05


Tree=37
num_leaves=2
num_cat=0
split_feature=5
split_gain=2.66726
threshold=0.35000000000000003
decision_type=2
left_child=-1
right_child=-2
leaf_value=0.027004518147662294 -0.015133759924793464
leaf_weight=2.7121790125966072 2.8571432456374168
leaf_count=12 26
internal_value=0.00845424
internal_weight=5.56932
internal_count=38
is_linear=0
shrinkage=0.05


Tree=38
num_leaves=2
num_cat=0
split_feature=0
split_gain=5.22703
threshold=0.52175000000000005
decision_type=2
left_child=-1
right_child=-2
leaf_value=-0.022512390444128567 0.036029479790198451
leaf_weight=3.0689781904220581 2.4796799719333649
leaf_count=28 10
internal_value=0.00832684
internal_weight=5.54866
internal_count=38
is_linear=0
shrinkage=0.05


Tree=39
num_leaves=2
num_cat=0
split_feature=0
split_gain=5.05033
threshold=0.52175000000000005
decision_type=2
left_child=-1
right_child=-2
leaf_value=-0.02222242215712919 0.035402462982980047
leaf_weight=3.02005585283041 2.4858106821775436
leaf_count=28 10
internal_value=0.0082612
internal_weight=5.50587
internal_count=38
is_linear=0
shrinkage=0.05


Tree=40
num_leaves=2
num_cat=0
split_feature=0
split_gain=5.64975
threshold=0.52175000000000005
decision_type=2
left_child=-1
right_child=-2
leaf_value=-0.025270770969240811 0.034640873351705563
leaf_weight=3.3721888512372971 2.4910952150821686
leaf_count=29 10
internal_value=0.00441178
internal_weight=5.86328
internal_count=39
is_linear=0
shrinkage=0.05


Tree=41
num_leaves=2
num_cat=0
split_feature=12
split_gain=2.26543
threshold=0.50000000000000011
decision_type=2
left_child=-1
right_child=-2
leaf_value=-0.015029975403026908 0.023098414979448086
leaf_weight=3.3241253718733788 2.48741065710783
leaf_count=26 13
internal_value=0.00442453
internal_weight=5.81154
internal_count=39
is_linear=0
shrinkage=0.05


Tree=42
num_leaves=2
num_cat=0
split_feature=0
split_gain=5.38123
threshold=0.52175000000000005
decision_type=2
left_child=-1
right_child=-2
leaf_value=-0.024793493858066128 0.033798655116869782
leaf_weight=3.3004115894436836 2.4926712810993195
leaf_count=29 10
internal_value=0.00439596
internal_weight=5.79308
internal_count=39
is_linear=0
shrinkage=0.05


Tree=43
num_leaves=2
num_cat=0
split_feature=12
split_gain=2.11024
threshold=0.50000000000000011
decision_type=2
left_child=-1
right_child=-2
leaf_value=-0.014537057006133225 0.022350432368127698
leaf_weight=3.2553748339414597 2.4853422939777374
leaf_count=26 13
internal_value=0.00440304
internal_weight=5.74072
internal_count=39
is_linear=0
shrinkage=0.05


Tree=44
num_leaves=2
num_cat=0
split_feature=12
split_gain=2.03586
threshold=0.50000000000000011
decision_type=2
left_child=-1
right_child=-2
leaf_value=-0.014296345198634215 0.021958021037335459
leaf_weight=3.2295213714241982 2.4924424886703491
leaf_count=26 13
internal_value=0.00437113
internal_weight=5.72196
internal_count=39
is_linear=0
shrinkage=0.05


Tree=45
num_leaves=2
num_cat=0
split_feature=0
split_gain=4.59616
threshold=0.52175000000000005
decision_type=2
left_child=-1
right_child=-2
leaf_value=-0.023880306784848076 0.030966003855333421
leaf_weight=3.1291014701128006 2.2392663508653641
leaf_count=28 9
internal_value=0.00289782
internal_weight=5.36837
internal_count=37
is_linear=0
shrinkage=0.05


Tree=46
num_leaves=2
num_cat=0
split_feature=5
split_gain=1.18578
threshold=0.35000000000000003
decision_type=2
left_child=-1
right_child=-2
leaf_value=0.015498769130764315 -0.012474364199064147
leaf_weight=2.9140533059835434 2.4049293249845505
leaf_count=13 24
internal_value=0.00293501
internal_weight=5.31898
internal_count=37
is_linear=0
shrinkage=0.05


Tree=47
num_leaves=2
num_cat=0
split_feature=0
split_gain=4.41141
threshold=0.52175000000000005
decision_type=2
left_child=-1
right_child=-2
leaf_value=-0.023534561608691433 0.030305725248161688
leaf_weight=3.0644361674785614 2.236681342124939
leaf_count=28 9
internal_value=0.0028657
internal_weight=5.30112
internal_count=37
is_linear=0
shrinkage=0.05


Tree=48
num_leaves=2
num_cat=0
split_feature=5
split_gain=1.10456
threshold=0.35000000000000003
decision_type=2
left_child=-1
right_child=-2
leaf_value=0.01498286866027088 -0.012083980242926555
leaf_weight=2.9068115428090096 2.3449486568570137
leaf_count=13 24
internal_value=0.00289809
internal_weight=5.25176
internal_count=37
is_linear=0
shrinkage=0.05


Tree=49
num_leaves=2
num_cat=0
split_feature=0
split_gain=4.23672
threshold=0.52175000000000005
decision_type=2
left_child=-1
right_child=-2
leaf_value=-0.023198999850301206 0.029671135230301755
leaf_weight=3.0021472200751305 2.2320861965417862
leaf_count=28 9
internal_value=0.002828
internal_weight=5.23423
internal_count=37
is_linear=0
shrinkage=0.05


Tree=50
num_leaves=2
num_cat=0
split_feature=5
split_gain=1.41043
threshold=0.35000000000000003
decision_type=2
left_child=-1
right_child=-2
leaf_value=0.016766569186130235 -0.013369039871885964
leaf_weight=3.144374281167984 2.5706169158220291
leaf_count=14 27
internal_value=0.00329831
internal_weight=5.71499
internal_count=41
is_linear=0
shrinkage=0.05


Tree=51
num_leaves=2
num_cat=0
split_feature=0
split_gain=4.72442
threshold=0.52175000000000005
decision_type=2
left_child=-1
right_child=-2
leaf_value=-0.024001107252447886 0.03101360469171929
leaf_weight=3.2205241620540619 2.4714318960905075
leaf_count=31 10
internal_value=0.00321871
internal_weight=5.69196
internal_count=41
is_linear=0
shrinkage=0.05


Tree=52
num_leaves=2
num_cat=0
split_feature=0
split_gain=4.57092
threshold=0.52175000000000005
decision_type=2
left_child=-1
right_child=-2
leaf_value=-0.023683865305899443 0.030526502850402173
leaf_weight=3.168767012655735 2.4652596414089203
leaf_count=31 10
internal_value=0.00323681
internal_weight=5.63403
internal_count=41
is_linear=0
shrinkage=0.05


Tree=53
num_leaves=2
num_cat=0
split_feature=0
split_gain=4.42349
threshold=0.52175000000000005
decision_type=2
left_child=-1
right_child=-2
leaf_value=-0.023372928691717716 0.03005210269250674
leaf_weight=3.1181759834289551 2.458074763417244
leaf_count=31 10
internal_value=0.00325118
internal_weight=5.57625
internal_count=41
is_linear=0
shrinkage=0.05


Tree=54
num_leaves=2
num_cat=0
split_feature=5
split_gain=1.21506
threshold=0.35000000000000003
decision_type=2
left_child=-1
right_child=-2
leaf_value=0.015681864562156062 -0.012492282108078435
leaf_weight=3.0987854897975922 2.4198777303099632
leaf_count=14 27
internal_value=0.00326209
internal_weight=5.51866
internal_count=41
is_linear=0
shrinkage=0.05


Tree=55
num_leaves=2
num_cat=0
split_feature=0
split_gain=3.5043
threshold=0.52175000000000005
decision_type=2
left_child=-1
right_child=-2
leaf_value=-0.021090512981165759 0.027462342034095158
leaf_weight=2.751774974167347 2.2006856054067612
leaf_count=29 9
internal_value=0.00344224
internal_weight=4.95246
internal_count=38
is_linear=0
shrinkage=0.05


Tree=56
num_leaves=2
num_cat=0
split_feature=0
split_gain=3.39989
threshold=0.52175000000000005
decision_type=2
left_child=-1
right_child=-2
leaf_value=-0.020830008206147808 0.027072205641243453
leaf_weight=2.710458442568779 2.1930255591869354
leaf_count=29 9
internal_value=0.00344547
internal_weight=4.90348
internal_count=38
is_linear=0
shrinkage=0.05


Tree=57
num_leaves=2
num_cat=0
split_feature=0
split_gain=3.2993
threshold=0.52175000000000005
decision_type=2
left_child=-1
right_child=-2
leaf_value=-0.020574433500310227 0.02669107999273268
leaf_weight=2.6700553596019745 2.1847259998321533
leaf_count=29 9
internal_value=0.00344615
internal_weight=4.85478
internal_count=38
is_linear=0
shrinkage=0.05


Tree=58
num_leaves=2
num_cat=0
split_feature=0
split_gain=3.20239
threshold=0.52175000000000005
decision_type=2
left_child=-1
right_child=-2
leaf_value=-0.020323672242429203 0.026318682922095785
leaf_weight=2.6305430307984352 2.175827220082283
leaf_count=29 9
internal_value=0.00344446
internal_weight=4.80637
internal_count=38
is_linear=0
shrinkage=0.05


Tree=59
num_leaves=2
num_cat=0
split_feature=0
split_gain=3.10899
threshold=0.52175000000000005
decision_type=2
left_child=-1
right_child=-2
leaf_value=-0.020077611483336096 0.025954740103984592
leaf_weight=2.5918995663523674 2.1663681119680405
leaf_count=29 9
internal_value=0.00344057
internal_weight=4.75827
internal_count=38
is_linear=0
shrinkage=0.05


Tree=60
num_leaves=2
num_cat=0
split_feature=0
split_gain=2.87288
threshold=0.52175000000000005
decision_type=2
left_child=-1
right_child=-2
leaf_value=-0.02072842182221982 0.023783992975410853
leaf_weight=2.6128503605723381 1.9228755980730055
leaf_count=28 8
internal_value=0.000718482
internal_weight=4.53573
internal_count=36
is_linear=0
shrinkage=0.05


Tree=61
num_leaves=2
num_cat=0
split_feature=5
split_gain=0.655947
threshold=0.35000000000000003
decision_type=2
left_child=-1
right_child=-2
leaf_value=0.010879240025869766 -0.010416391215459389
leaf_weight=2.4284370094537735 2.0617237389087677
leaf_count=11 25
internal_value=0.0007648
internal_weight=4.49016
internal_count=36
is_linear=0
shrinkage=0.05


Tree=62
num_leaves=2
num_cat=0
split_feature=0
split_gain=2.7734
threshold=0.52175000000000005
decision_type=2
left_child=-1
right_child=-2
leaf_value=-0.020440464333820164 0.023383908380510673
leaf_weight=2.5629640072584152 1.9106291383504865
leaf_count=28 8
internal_value=0.000739637
internal_weight=4.47359
internal_count=36
is_linear=0
shrinkage=0.05


Tree=63
num_leaves=2
num_cat=0
split_feature=0
split_gain=2.69732
threshold=0.52175000000000005
decision_type=2
left_child=-1
right_child=-2
leaf_value=-0.020193285552327262 0.02309049861838508
leaf_weight=2.5267409235239029 1.9019155502319334
leaf_count=28 8
internal_value=0.000782619
internal_weight=4.42866
internal_count=36
is_linear=0
shrinkage=0.05


Tree=64
num_leaves=2
num_cat=0
split_feature=0
split_gain=2.62381
threshold=0.52175000000000005
decision_type=2
left_child=-1
right_child=-2
leaf_value=-0.019950723923028175 0.022802972147428505
leaf_weight=2.491276741027832 1.8928750753402708
leaf_count=28 8
internal_value=0.000822839
internal_weight=4.38415
internal_count=36
is_linear=0
shrinkage=0.05


Tree=65
num_leaves=2
num_cat=0
split_feature=5
split_gain=0.621147
threshold=0.35000000000000003
decision_type=2
left_child=-1
right_child=-2
leaf_value=0.011526341762496497 -0.0092898648475677453
leaf_weight=2.7040361240506172 1.8813812434673307
leaf_count=13 24
internal_value=0.0025948
internal_weight=4.58542
internal_count=37
is_linear=0
shrinkage=0.05


Tree=66
num_leaves=2
num_cat=0
split_feature=0
split_gain=2.80757
threshold=0.52175000000000005
decision_type=2
left_child=-1
right_child=-2
leaf_value=-0.019788941688999626 0.024184769837193931
leaf_weight=2.4639907255768776 2.1073519140481949
leaf_count=28 9
internal_value=0.00252683
internal_weight=4.57134
internal_count=37
is_linear=0
shrinkage=0.05


Tree=67
num_leaves=2
num_cat=0
split_feature=5
split_gain=0.582322
threshold=0.35000000000000003
decision_type=2
left_child=-1
right_child=-2
leaf_value=0.011171585168851195 -0.0090284537599529847
leaf_weight=2.6833647191524506 1.8417121618986128
leaf_count=13 24
internal_value=0.00252652
internal_weight=4.52508
internal_count=37
is_linear=0
shrinkage=0.05


Tree=68
num_leaves=2
num_cat=0
split_feature=0
split_gain=2.71133
threshold=0.52175000000000005
decision_type=2
left_child=-1
right_child=-2
leaf_value=-0.019541896776412132 0.023757834241216969
leaf_weight=2.4218381866812706 2.0895479172468185
leaf_count=28 9
internal_value=0.00245974
internal_weight=4.51139
internal_count=37
is_linear=0
shrinkage=0.05


Tree=69
num_leaves=2
num_cat=0
split_feature=0
split_gain=2.63602
threshold=0.52175000000000005
decision_type=2
left_child=-1
right_child=-2
leaf_value=-0.019311637482616259 0.023450324648879809
leaf_weight=2.3886366710066795 2.0769835859537125
leaf_count=28 9
internal_value=0.00245846
internal_weight=4.46562
internal_count=37
is_linear=0
shrinkage=0.05


Tree=70
num_leaves=2
num_cat=0
split_feature=0
split_gain=2.89131
threshold=0.52175000000000005
decision_type=2
left_child=-1
right_child=-2
leaf_value=-0.019829932023306188 0.024468897429861053
leaf_weight=2.5223072879016399 2.273893266916275
leaf_count=31 10
internal_value=0.00294168
internal_weight=4.7962
internal_count=41
is_linear=0
shrinkage=0.05


Tree=71
num_leaves=2
num_cat=0
split_feature=0
split_gain=2.80815
threshold=0.52175000000000005
decision_type=2
left_child=-1
right_child=-2
leaf_value=-0.01959363500001322 0.024141217692328999
leaf_weight=2.4863017275929451 2.2577927857637405
leaf_count=31 10
internal_value=0.00292773
internal_weight=4.74409
internal_count=41
is_linear=0
shrinkage=0.05


Tree=72
num_leaves=2
num_cat=0
split_feature=0
split_gain=2.728
threshold=0.52175000000000005
decision_type=2
left_child=-1
right_child=-2
leaf_value=-0.019361687241624112 0.0238207603937877
leaf_weight=2.4510740041732788 2.2414352148771286
leaf_count=31 10
internal_value=0.00291267
internal_weight=4.69251
internal_count=41
is_linear=0
shrinkage=0.05


Tree=73
num_leaves=2
num_cat=0
split_feature=0
split_gain=2.65072
threshold=0.52175000000000005
decision_type=2
left_child=-1
right_child=-2
leaf_value=-0.019133989645767343 0.023507295423474177
leaf_weight=2.4166042543947697 2.2248503267765045
leaf_count=31 10
internal_value=0.0028966
internal_weight=4.64145
internal_count=41
is_linear=0
shrinkage=0.05


Tree=74
num_leaves=2
num_cat=0
split_feature=0
split_gain=2.5762
threshold=0.52175000000000005
decision_type=2
left_child=-1
right_child=-2
leaf_value=-0.018910446115138403 0.023200606638741812
leaf_weight=2.3828730769455433 2.2080660313367844
leaf_count=31 10
internal_value=0.0028796
internal_weight=4.59094
internal_count=41
is_linear=0
shrinkage=0.05


Tree=75
num_leaves=2
num_cat=0
split_feature=0
split_gain=1.64174
threshold=0.52175000000000005
decision_type=2
left_child=-1
right_child=-2
leaf_value=-0.016750370309754011 0.018003174620407104
leaf_weight=2.0653983615338807 1.5471092611551283
leaf_count=29 7
internal_value=-5.56502e-05
internal_weight=3.61251
internal_count=36
is_linear=0
shrinkage=0.05


Tree=76
num_leaves=2
num_cat=0
split_feature=0
split_gain=1.60305
threshold=0.52175000000000005
decision_type=2
left_child=-1
right_child=-2
leaf_value=-0.016569280509867203 0.017815656412707062
leaf_weight=2.03889037296176 1.5380785614252088
leaf_count=29 7
internal_value=-1.7394e-05
internal_weight=3.57697
internal_count=36
is_linear=0
shrinkage=0.05


Tree=77
num_leaves=2
num_cat=0
split_feature=0
split_gain=1.56552
threshold=0.52175000000000005
decision_type=2
left_child=-1
right_child=-2
leaf_value=-0.016391309730236368 0.017631244714556377
leaf_weight=2.0129219032824044 1.5289836078882215
leaf_count=29 7
internal_value=1.90979e-05
internal_weight=3.54191
internal_count=36
is_linear=0
shrinkage=0.05


Tree=78
num_leaves=2
num_cat=0
split_feature=0
split_gain=1.5291
threshold=0.52175000000000005
decision_type=2
left_child=-1
right_child=-2
leaf_value=-0.0162163906416561 0.017449871461723412
leaf_weight=1.9874793849885466 1.5198323279619215
leaf_count=29 7
internal_value=5.38996e-05
internal_weight=3.50731
internal_count=36
is_linear=0
shrinkage=0.05


Tree=79
num_leaves=2
num_cat=0
split_feature=0
split_gain=1.49377
threshold=0.52175000000000005
decision_type=2
left_child=-1
right_child=-2
leaf_value=-0.016044458340491567 0.017271470174621811
leaf_weight=1.962549436837435 1.5106322169303892
leaf_count=29 7
internal_value=8.70813e-05
internal_weight=3.47318
internal_count=36
is_linear=0
shrinkage=0.05


Tree=80
num_leaves=2
num_cat=0
split_feature=0
split_gain=2.10929
threshold=0.52175000000000005
decision_type=2
left_child=-1
right_child=-2
leaf_value=-0.018030996917779901 0.020542849521091748
leaf_weight=2.267220214009285 1.9298648983240125
leaf_count=32 9
internal_value=0.00123125
internal_weight=4.19709
internal_count=41
is_linear=0
shrinkage=0.05


Tree=81
num_leaves=2
num_cat=0
split_feature=0
split_gain=2.05419
threshold=0.52175000000000005
decision_type=2
left_child=-1
right_child=-2
leaf_value=-0.017827045595572182 0.02030029670498101
leaf_weight=2.2364818044006824 1.9153837412595747
leaf_count=32 9
internal_value=0.00124338
internal_weight=4.15187
internal_count=41
is_linear=0
shrinkage=0.05


Tree=82
num_leaves=2
num_cat=0
split_feature=0
split_gain=2.00092
threshold=0.52175000000000005
decision_type=2
left_child=-1
right_child=-2
leaf_value=-0.017626717073578792 0.020062391164473479
leaf_weight=2.2063919194042683 1.9008499681949613
leaf_count=32 9
internal_value=0.00125422
internal_weight=4.10724
internal_count=41
is_linear=0
shrinkage=0.05


Tree=83
num_leaves=2
num_cat=0
split_feature=0
split_gain=1.9494
threshold=0.52175000000000005
decision_type=2
left_child=-1
right_child=-2
leaf_value=-0.017429931131636562 0.019829010712036594
leaf_weight=2.1769339218735695 1.8862771391868589
leaf_count=32 9
internal_value=0.00126386
internal_weight=4.06321
internal_count=41
is_linear=0
shrinkage=0.05


Tree=84
num_leaves=2
num_cat=0
split_feature=0
split_gain=1.89957
threshold=0.52175000000000005
decision_type=2
left_child=-1
right_child=-2
leaf_value=-0.017236609501146961 0.019600036983155131
leaf_weight=2.1480914205312729 1.8716777414083479
leaf_count=32 9
internal_value=0.00127235
internal_weight=4.01977
internal_count=41
is_linear=0
shrinkage=0.05


Tree=85
num_leaves=2
num_cat=0
split_feature=0
split_gain=1.39025
threshold=0.52175000000000005
decision_type=2
left_child=-1
right_child=-2
leaf_value=-0.015127864128461413 0.017032053320841751
leaf_weight=1.8436763137578966 1.6164068430662153
leaf_count=30 8
internal_value=0.00108282
internal_weight=3.46008
internal_count=38
is_linear=0
shrinkage=0.05


Tree=86
num_leaves=2
num_cat=0
split_feature=5
split_gain=0.703212
threshold=0.35000000000000003
decision_type=2
left_child=-1
right_child=-2
leaf_value=0.011566845468393611 -0.011373516712121562
leaf_weight=2.0563275590538983 1.3695290051400659
leaf_count=11 27
internal_value=0.00108897
internal_weight=3.42586
internal_count=38
is_linear=0
shrinkage=0.05


Tree=87
num_leaves=2
num_cat=0
split_feature=0
split_gain=1.34203
threshold=0.52175000000000005
decision_type=2
left_child=-1
right_child=-2
leaf_value=-0.014922858062303139 0.016736143735067613
leaf_weight=1.8104494176805022 1.5961474925279615
leaf_count=30 8
internal_value=0.00104236
internal_weight=3.4066
internal_count=38
is_linear=0
shrinkage=0.05


Tree=88
num_leaves=2
num_cat=0
split_feature=5
split_gain=0.670268
threshold=0.35000000000000003
decision_type=2
left_child=-1
right_child=-2
leaf_value=0.011291469180849115 -0.011149678453425694
leaf_weight=2.035316683351994 1.3377797678112981
leaf_count=11 27
internal_value=0.00104798
internal_weight=3.3731
internal_count=38
is_linear=0
shrinkage=0.05


end of trees

feature_importances:
market_price=68
freshness_score=13
time_to_close_sec=3
raw_probability=3
llm_confidence=2

parameters:
[boosting: gbdt]
[objective: binary]
[metric: binary_logloss]
[tree_learner: serial]
[device_type: cpu]
[data_sample_strategy: bagging]
[data: ]
[valid: ]
[num_iterations: 100]
[learning_rate: 0.05]
[num_leaves: 7]
[num_threads: 0]
[seed: 0]
[deterministic: 0]
[force_col_wise: 0]
[force_row_wise: 0]
[histogram_pool_size: -1]
[max_depth: -1]
[min_data_in_leaf: 15]
[min_sum_hessian_in_leaf: 0.001]
[bagging_fraction: 0.8]
[pos_bagging_fraction: 1]
[neg_bagging_fraction: 1]
[bagging_freq: 5]
[bagging_seed: 3]
[bagging_by_query: 0]
[feature_fraction: 0.8]
[feature_fraction_bynode: 1]
[feature_fraction_seed: 2]
[extra_trees: 0]
[extra_seed: 6]
[early_stopping_round: 0]
[early_stopping_min_delta: 0]
[first_metric_only: 0]
[max_delta_step: 0]
[lambda_l1: 0]
[lambda_l2: 5]
[linear_lambda: 0]
[min_gain_to_split: 0]
[drop_rate: 0.1]
[max_drop: 50]
[skip_drop: 0.5]
[xgboost_dart_mode: 0]
[uniform_drop: 0]
[drop_seed: 4]
[top_rate: 0.2]
[other_rate: 0.1]
[min_data_per_group: 100]
[max_cat_threshold: 32]
[cat_l2: 10]
[cat_smooth: 10]
[max_cat_to_onehot: 4]
[top_k: 20]
[monotone_constraints: ]
[monotone_constraints_method: basic]
[monotone_penalty: 0]
[feature_contri: ]
[forcedsplits_filename: ]
[refit_decay_rate: 0.9]
[cegb_tradeoff: 1]
[cegb_penalty_split: 0]
[cegb_penalty_feature_lazy: ]
[cegb_penalty_feature_coupled: ]
[path_smooth: 0]
[interaction_constraints: ]
[verbosity: -1]
[saved_feature_importance_type: 0]
[use_quantized_grad: 0]
[num_grad_quant_bins: 4]
[quant_train_renew_leaf: 0]
[stochastic_rounding: 1]
[linear_tree: 0]
[max_bin: 255]
[max_bin_by_feature: ]
[min_data_in_bin: 3]
[bin_construct_sample_cnt: 200000]
[data_random_seed: 1]
[is_enable_sparse: 1]
[enable_bundle: 1]
[use_missing: 1]
[zero_as_missing: 0]
[feature_pre_filter: 1]
[pre_partition: 0]
[two_round: 0]
[header: 0]
[label_column: ]
[weight_column: ]
[group_column: ]
[ignore_column: ]
[categorical_feature: ]
[forcedbins_filename: ]
[precise_float_parser: 0]
[parser_config_file: ]
[objective_seed: 5]
[num_class: 1]
[is_unbalance: 0]
[scale_pos_weight: 1]
[sigmoid: 1]
[boost_from_average: 1]
[reg_sqrt: 0]
[alpha: 0.9]
[fair_c: 1]
[poisson_max_delta_step: 0.7]
[tweedie_variance_power: 1.5]
[lambdarank_truncation_level: 30]
[lambdarank_norm: 1]
[label_gain: ]
[lambdarank_position_bias_regularization: 0]
[eval_at: ]
[multi_error_top_k: 1]
[auc_mu_weights: ]
[num_machines: 1]
[local_listen_port: 12400]
[time_out: 120]
[machine_list_filename: ]
[machines: ]
[gpu_platform_id: -1]
[gpu_device_id: -1]
[gpu_use_dp: 0]
[num_gpu: 1]

end of parameters

pandas_categorical:null
