tree
version=v4
num_class=1
num_tree_per_iteration=1
label_index=0
max_feature_idx=12
objective=binary sigmoid:1
feature_names=market_price spread_bps vol_24h time_to_close_sec ambiguity_score freshness_score source_agreement_score official_source_present llm_confidence retrieval_count price_momentum_1h price_momentum_24h raw_probability
feature_infos=[0.00050000000000000001:0.99950000000000006] none none none [0:0.20000000000000001] [0:0.59999999999999998] none [0:1] [0.69999999999999996:1] [0:6] none none [0.01:0.97999999999999998]
tree_sizes=755 1197 1196 1199 1206 1211 1093 1210 1314 1321 1211 1210 1212 1213 1209 1324 1321 1319 1319 1212 1105 1211 1102 1213 1212 1322 1324 1324 1431 1102 992 1329 1429 1428 1429 1201 1322 1323 1226 987 999 987 1215 1209 996 1219 1218 1225 1219 994 1218 1326 1322 1323 1110 1320 1313 1221 1232 1228 1113 997 1333 1332 1330 1328 1337 1329 895 1437 1414 1414 1414 1220 1415 1216 1522 1411 1217 1218 1333 1332 1333 1330 1105 1314 1742 1426 1437 1430 1753 1864 897 897 1440 1343 1753 1221 1345 886 1443 1445 1776 1002 1452 2183 2185 1115 1111 1100 994 1978 1982 1980 1985 1409 1196 2085 2081 2083 1323 1317 1322 1325 1327 1459 1455 1454 1459 1455 1547 1971 1975 1860 2087 1568 1570 1570 1677 1235 1012 1470 888 1576 1441 1748 1752 1635 1879 1654 1216 1426 1424 1424 1215 2196 1649 1535 898 899 887 1881 1554 1558 1885 793 1778 1430 1318 1675 1655 1692 1555 1346 1855 1208 891 1004 1438 1442 1199 1407 1096 1303 1101 1230 1109 2216 2222 2213 1543 1212 1108 1321 1531 1644 1640 1215 1439 1641

Tree=0
num_leaves=6
num_cat=0
split_feature=0 0 0 12 0
split_gain=143.456 25.3562 4.44521 0.290876 7.10543e-15
threshold=0.3897500000000001 0.61250000000000016 0.033750000000000009 0.32500000000000007 0.010750000000000001
decision_type=2 2 2 2 2
left_child=2 -2 4 -4 -1
right_child=1 -3 3 -5 -6
leaf_value=-1.4754382536075255 -1.321743382446543 -1.1578021865414949 -1.4224989090965203 -1.4414058178504507 -1.4754382536075255
leaf_weight=19.519194245338447 4.8797985613346082 4.564972847700119 3.7779085636138898 4.4075599908828735 4.0927342772483817
leaf_count=124 31 29 24 28 26
internal_value=-1.41361 -1.24251 -1.46443 -1.43268 -1.47544
internal_weight=41.2422 9.44477 31.7974 8.18547 23.6119
internal_count=262 60 202 52 150
is_linear=0
shrinkage=1


Tree=1
num_leaves=10
num_cat=0
split_feature=12 12 4 12 12 12 5 12 4
split_gain=78.1103 17.3836 1.36213 0.401762 1.56332 0.205944 0.335384 0.193067 0.073729
threshold=0.46500000000000002 0.59500000000000008 1.0000000180025095e-35 0.31000000000000005 0.32500000000000007 0.44000000000000006 0.45000000000000007 0.41000000000000009 1.0000000180025095e-35
decision_type=2 2 2 2 2 2 2 2 2
left_child=3 2 -2 8 -5 6 -6 -8 -1
right_child=1 -3 -4 4 5 -7 7 -9 -10
leaf_value=-0.061540390134056412 0.029428703044612804 0.16695807782187727 0.072085638959902762 -0.017548379230172342 -0.061453157415052466 -0.061534461243419318 -0.049499927700725428 -0.03358916912104716 -0.052369950712029545
leaf_weight=3.6556717753410357 3.7818005383014661 5.6084974855184555 3.7048136591911316 4.5041147321462658 3.1842762231826791 3.6549279391765586 4.127333298325536 3.543617457151413 5.4734046459197998
leaf_count=24 23 32 23 29 21 24 27 23 36
internal_value=-0.000480855 0.100399 0.0505378 -0.0474205 -0.0432811 -0.0512688 -0.0478123 -0.0421499 -0.0560422
internal_weight=41.2385 13.0951 7.48661 28.1433 19.0143 14.5102 10.8552 7.67095 9.12908
internal_count=262 78 46 184 124 95 71 50 60
is_linear=0
shrinkage=0.05


Tree=2
num_leaves=10
num_cat=0
split_feature=12 12 4 12 12 12 5 12 4
split_gain=68.5521 13.2734 1.12103 0.399112 1.51807 0.206489 0.33461 0.189156 0.07431
threshold=0.46500000000000002 0.59500000000000008 1.0000000180025095e-35 0.31000000000000005 0.32500000000000007 0.44000000000000006 0.45000000000000007 0.41000000000000009 1.0000000180025095e-35
decision_type=2 2 2 2 2 2 2 2 2
left_child=3 2 -2 8 -5 6 -6 -8 -1
right_child=1 -3 -4 4 5 -7 7 -9 -10
leaf_value=-0.060851683446672515 0.027472037837223701 0.14524377782428222 0.065603773719770206 -0.016857260769025089 -0.060770526760125433 -0.06084613839683603 -0.048555121124998692 -0.032602679822894082 -0.051474699999950461
leaf_weight=3.5157374143600482 3.8468547612428647 6.1101357638835907 3.8629742115736008 4.4555993974208858 3.0621358454227456 3.5150041580200186 4.0004989504814121 3.4701904505491257 5.2947194576263428
leaf_count=24 23 32 23 29 21 24 27 23 36
internal_value=-0.000543841 0.0902004 0.0465778 -0.0464575 -0.0422869 -0.0503526 -0.0468507 -0.0411451 -0.0552165
internal_weight=41.1339 13.82 7.70983 27.3139 18.5034 14.0478 10.5328 7.47069 8.81046
internal_count=262 78 46 184 124 95 71 50 60
is_linear=0
shrinkage=0.05


Tree=3
num_leaves=10
num_cat=0
split_feature=12 12 4 12 12 12 5 12 4
split_gain=60.6906 10.5512 0.933502 0.396897 1.47466 0.207487 0.334433 0.185425 0.0751214
threshold=0.46500000000000002 0.59500000000000008 1.0000000180025095e-35 0.31000000000000005 0.32500000000000007 0.44000000000000006 0.45000000000000007 0.41000000000000009 1.0000000180025095e-35
decision_type=2 2 2 2 2 2 2 2 2
left_child=3 2 -2 8 -5 6 -6 -8 -1
right_child=1 -3 -4 4 5 -7 7 -9 -10
leaf_value=-0.060211102156065267 0.025682238512859182 0.128946755457478 0.060029029252418181 -0.016187760810380907 -0.060135498934478761 -0.060205902739273932 -0.0476337268515711 -0.031635773535774507 -0.050606131325114101
leaf_weight=3.3789474368095416 3.9075717926025373 6.5264106541872025 4.0067035853862762 4.4090940952301052 2.9427704364061364 3.3782270550727835 3.8771365284919712 3.3992684781551361 5.1207464337348938
leaf_count=24 23 32 23 29 21 24 27 23 36
internal_value=-0.000588729 0.0818821 0.0430707 -0.0455192 -0.0413156 -0.0494635 -0.0459123 -0.0401601 -0.0544245
internal_weight=40.9469 14.4407 7.91428 26.5062 18.0065 13.5974 10.2192 7.27641 8.49969
internal_count=262 78 46 184 124 95 71 50 60
is_linear=0
shrinkage=0.05


Tree=4
num_leaves=10
num_cat=0
split_feature=0 0 0 12 12 12 5 0 0
split_gain=91.3169 10.2763 4.5262 0.315826 0.00837922 0.000224748 0.00030379 5.52178e-06 2.73737e-06
threshold=0.3897500000000001 0.61250000000000016 0.033750000000000009 0.32500000000000007 0.44000000000000006 0.31000000000000005 0.45000000000000007 0.0032500000000000007 0.0027500000000000003
decision_type=2 2 2 2 2 2 2 2 2
left_child=2 -2 4 -4 5 7 -7 -1 -8
right_child=1 -3 3 -5 -6 6 8 -9 -10
leaf_value=-0.059741757007073973 0.067468802638345274 0.16082590513944126 -0.0047516677583521495 -0.025075357541266836 -0.062216299536510491 -0.059659922297643025 -0.060244473597314052 -0.059653154780931694 -0.060312390193904775
leaf_weight=3.2750888615846696 5.6186224371194822 6.200839951634407 3.5520116090774527 4.1389147639274597 5.193559616804122 2.9821592867374465 2.9605837762355742 3.7972583025693893 2.9739177078008652
leaf_count=24 31 29 24 28 34 22 21 28 21
internal_value=-0.000620886 0.116447 -0.0485429 -0.015689 -0.0604714 -0.0599047 -0.0600716 -0.0596942 -0.0602785
internal_weight=40.693 11.8195 28.8735 7.69093 21.1826 15.989 8.91666 7.07235 5.9345
internal_count=262 60 202 52 150 116 64 52 42
is_linear=0
shrinkage=0.05


Tree=5
num_leaves=10
num_cat=0
split_feature=0 0 0 12 12 12 12 5 4
split_gain=75.0141 13.8776 3.15426 0.195203 0.00790022 0.00028712 0.000657581 0.00023737 3.52047e-05
threshold=0.31750000000000006 0.67500000000000016 0.056250000000000001 0.34000000000000002 0.44000000000000006 0.19000000000000003 0.32500000000000007 0.45000000000000007 1.0000000180025095e-35
decision_type=2 2 2 2 2 2 2 2 2
left_child=2 -2 4 -4 5 8 -7 -8 -1
right_child=1 -3 3 -5 -6 6 7 -9 -10
leaf_value=-0.059028591351053497 0.042672338018108991 0.14635665097821157 -0.0096471687913445847 -0.027761408855103427 -0.061781895026139136 -0.060165967175889935 -0.058976095794663508 -0.059551874766593571 -0.05927488785260511
leaf_weight=2.5900684297084906 6.4072336256504041 6.5023268163204193 2.9277634322643271 3.0227841287851334 4.6093199253082267 3.5002639442682248 2.8387577831745228 4.8451760858297268 3.2985977977514267
leaf_count=20 35 29 20 21 31 25 22 36 25
internal_value=-0.00460829 0.0948964 -0.0510952 -0.0188489 -0.059945 -0.0594491 -0.0595979 -0.0593392 -0.0591666
internal_weight=40.5423 12.9096 27.6327 5.95055 21.6822 17.0729 11.1842 7.68393 5.88867
internal_count=264 64 200 41 159 128 83 58 45
is_linear=0
shrinkage=0.05


Tree=6
num_leaves=9
num_cat=0
split_feature=12 12 12 12 5 12 12 4
split_gain=38.1996 4.35145 1.39048 0.755464 0.64645 0.489396 0.713064 7.72262e-06
threshold=0.52500000000000013 0.64000000000000012 0.31000000000000005 0.32500000000000007 0.45000000000000007 0.41000000000000009 0.44000000000000006 1.0000000180025095e-35
decision_type=2 2 2 2 2 2 2 2
left_child=2 -2 7 -4 -5 -6 -7 -1
right_child=1 -3 3 4 5 6 -8 -9
leaf_value=-0.058755003027133872 0.038954106224444791 0.095640054542315486 -0.014889207213314742 -0.058723630470052982 -0.047064411078001224 -0.011480599681716504 -0.043458651019191441 -0.058857437140740432
leaf_weight=3.541121274232867 8.3551612943410856 5.6918270736932746 4.3428348004817989 3.1444652378559157 3.988683983683579 4.0671933144330978 3.0509652495384216 3.8301757276058197
leaf_count=28 44 25 30 25 30 29 23 30
internal_value=-0.0044982 0.0619232 -0.0404314 -0.0331462 -0.0387097 -0.0330436 -0.0251869 -0.0588082
internal_weight=40.0124 14.047 25.9654 18.5941 14.2513 11.1068 7.11816 7.3713
internal_count=264 69 195 137 107 82 52 58
is_linear=0
shrinkage=0.05


Tree=7
num_leaves=10
num_cat=0
split_feature=0 0 0 12 12 12 5 0 4
split_gain=63.4582 10.9597 3.17259 0.19361 0.011695 0.000494558 0.000679225 6.17286e-05 3.87887e-05
threshold=0.31750000000000006 0.67500000000000016 0.056250000000000001 0.34000000000000002 0.44000000000000006 0.31000000000000005 0.45000000000000007 0.0027500000000000003 1.0000000180025095e-35
decision_type=2 2 2 2 2 2 2 2 2
left_child=2 -2 4 -4 5 8 -7 -8 -1
right_child=1 -3 3 -5 -6 6 7 -9 -10
leaf_value=-0.058056250261144277 0.037831643857692124 0.12799892686349154 -0.0079038426346791906 -0.026214551023758123 -0.06143543288601562 -0.058121118200702621 -0.058877541671323121 -0.059184276275895113 -0.058303703119736552
leaf_weight=2.8662453144788804 6.6226172149181348 6.8619380444288254 2.8527691066265097 2.9226166754961014 4.4388939067721358 2.8793966621160552 3.0666412636637626 3.5262569636106491 3.5390358939766884
leaf_count=24 35 29 20 21 31 24 24 27 29
internal_value=-0.00435498 0.0837154 -0.0498707 -0.0171699 -0.0591666 -0.0585323 -0.0587618 -0.0590416 -0.058193
internal_weight=39.5764 13.4846 26.0919 5.77539 20.3165 15.8776 9.47229 6.5929 6.40528
internal_count=264 64 200 41 159 128 75 51 53
is_linear=0
shrinkage=0.05


Tree=8
num_leaves=11
num_cat=0
split_feature=0 0 0 12 12 12 12 5 12 4
split_gain=57.4121 9.59544 3.13727 0.180964 0.0228356 0.000287618 0.000753162 0.00020027 3.36129e-05 2.08671e-05
threshold=0.31750000000000006 0.67500000000000016 0.056250000000000001 0.34000000000000002 0.46500000000000002 0.19000000000000003 0.32500000000000007 0.45000000000000007 0.42500000000000004 1.0000000180025095e-35
decision_type=2 2 2 2 2 2 2 2 2 2
left_child=2 -2 4 -4 5 9 -7 -8 -9 -1
right_child=1 -3 3 -5 -6 6 7 8 -10 -11
leaf_value=-0.057572964031463641 0.035289040120607677 0.11881299064010942 -0.007548634543565691 -0.025350629177926444 -0.063167699076759995 -0.058792632754177579 -0.057525987235779522 -0.058150516868872126 -0.057912732552000107 -0.057774874375008327
leaf_weight=2.2836753875017264 6.7415977120399457 7.0184016227722168 2.8380437046289435 2.8724049776792526 2.4402289241552344 3.165334276854991 2.6153631508350443 3.4898068383335978 2.5886327847838402 2.9105098247528076
leaf_count=20 35 29 20 21 15 25 23 29 22 25
internal_value=-0.00425093 0.0778911 -0.049096 -0.0165032 -0.0586437 -0.0579964 -0.0581323 -0.0578918 -0.0580493 -0.0576861
internal_weight=38.964 13.76 25.204 5.71045 19.4936 17.0533 11.8591 8.6938 6.07844 5.19419
internal_count=264 64 200 41 159 144 99 74 51 45
is_linear=0
shrinkage=0.05


Tree=9
num_leaves=11
num_cat=0
split_feature=0 0 0 12 12 12 12 9 12 4
split_gain=52.1533 8.55837 3.10388 0.168996 0.0191087 0.000241935 0.000632865 0.000168491 2.81951e-05 1.75413e-05
threshold=0.31750000000000006 0.67500000000000016 0.056250000000000001 0.34000000000000002 0.46500000000000002 0.19000000000000003 0.32500000000000007 4.5000000000000009 0.42500000000000004 1.0000000180025095e-35
decision_type=2 2 2 2 2 2 2 2 2 2
left_child=2 -2 4 -4 5 9 -7 -8 -9 -1
right_child=1 -3 3 -5 -6 6 7 8 -10 -11
leaf_value=-0.057149339863739559 0.032974498838114603 0.11126431930862575 -0.0072077902437978339 -0.024505308938591458 -0.062367765287529145 -0.058291326424085847 -0.057105262844113838 -0.057690295352541845 -0.057467851367614911 -0.057338458340397518
leaf_weight=2.1879932060837843 6.8511254638433439 7.1169943362474442 2.8240041732788077 2.8241640850901604 2.3502312749624243 3.0361960455775252 2.5056744590401721 3.3454168587922961 2.4809623211622238 2.7891000434756279
leaf_count=20 35 29 20 21 15 25 23 29 22 25
internal_value=-0.00414938 0.0728645 -0.0483389 -0.0158568 -0.0581522 -0.057546 -0.0576733 -0.0574481 -0.0575956 -0.0572553
internal_weight=38.3119 13.9681 24.3437 5.64817 18.6956 16.3453 11.3682 8.33205 5.82638 4.97709
internal_count=264 64 200 41 159 144 99 74 51 45
is_linear=0
shrinkage=0.05


Tree=10
num_leaves=10
num_cat=0
split_feature=0 0 0 0 12 12 5 12 4
split_gain=54.3206 3.77088 3.37923 0.302479 0.0138261 0.000164836 0.000195829 0.000155225 1.73985e-05
threshold=0.31750000000000006 0.67500000000000016 0.033750000000000009 0.086000000000000007 0.46500000000000002 0.31000000000000005 0.45000000000000007 0.42500000000000004 1.0000000180025095e-35
decision_type=2 2 2 2 2 2 2 2 2
left_child=2 -2 4 -4 5 8 -7 -8 -1
right_child=1 -3 3 -5 -6 6 7 -9 -10
leaf_value=-0.056708666419926758 0.054705250042210968 0.10627595247075208 -0.0025515079491446662 -0.024144649906649582 -0.061284394051906436 -0.056778127844227512 -0.057489836942027618 -0.056977306040568755 -0.056894314210432277
leaf_weight=2.086108595132834 7.5920592993497831 6.6490854769945145 2.661282740533351 4.1522775366902351 2.2225047945976248 2.3102253228426024 4.2953528761863646 2.2516811713576317 3.1948054656386375
leaf_count=20 38 27 21 30 15 22 38 21 30
internal_value=0.00193081 0.0787832 -0.0452969 -0.0157107 -0.0576184 -0.0570421 -0.0571739 -0.0573136 -0.056821
internal_weight=37.4154 14.2411 23.1742 6.81356 16.3607 14.1382 8.85726 6.54703 5.28091
internal_count=262 65 197 51 146 131 81 59 50
is_linear=0
shrinkage=0.05


Tree=11
num_leaves=10
num_cat=0
split_feature=0 0 0 0 12 12 5 12 4
split_gain=49.2086 3.58477 3.34331 0.281012 0.0116126 0.000139057 0.000165032 0.000130697 1.46668e-05
threshold=0.31750000000000006 0.67500000000000016 0.033750000000000009 0.086000000000000007 0.46500000000000002 0.31000000000000005 0.45000000000000007 0.42500000000000004 1.0000000180025095e-35
decision_type=2 2 2 2 2 2 2 2 2
left_child=2 -2 4 -4 5 8 -7 -8 -1
right_child=1 -3 3 -5 -6 6 7 -9 -10
leaf_value=-0.056338813116870827 0.050769019793082508 0.10076008053027902 -0.0024283708189629257 -0.023318095023606641 -0.06061799687308566 -0.056404125890653772 -0.057071675859918472 -0.056591109237934568 -0.056513017417037952
leaf_weight=1.9970647096633936 7.7669199109077436 6.6619228571653366 2.6565443500876418 4.0862020030617714 2.136762097477912 2.2117564231157312 4.1150437667965862 2.1561115905642509 3.058977484703064
leaf_count=20 38 27 21 30 15 22 38 21 30
internal_value=0.00182671 0.0738503 -0.0445287 -0.0150878 -0.0571924 -0.0566518 -0.0567755 -0.0569065 -0.0564442
internal_weight=36.8473 14.4288 22.4185 6.74275 15.6757 13.539 8.48291 6.27116 5.05604
internal_count=262 65 197 51 146 131 81 59 50
is_linear=0
shrinkage=0.05


Tree=12
num_leaves=10
num_cat=0
split_feature=0 0 0 0 12 12 5 12 4
split_gain=44.7121 3.43965 3.30829 0.260865 0.00976754 0.000117445 0.000139245 0.000110179 1.23779e-05
threshold=0.31750000000000006 0.67500000000000016 0.033750000000000009 0.086000000000000007 0.46500000000000002 0.31000000000000005 0.45000000000000007 0.42500000000000004 1.0000000180025095e-35
decision_type=2 2 2 2 2 2 2 2 2
left_child=2 -2 4 -4 5 8 -7 -8 -1
right_child=1 -3 3 -5 -6 6 7 -9 -10
leaf_value=-0.055991565479633569 0.047247605190035957 0.096033565811474542 -0.0023109748075413957 -0.022510642168599385 -0.059997424101540187 -0.056053015637201609 -0.056679641336682789 -0.056228686550546914 -0.056155152331286755
leaf_weight=1.9111494719982172 7.9242574572563154 6.6407291740179062 2.652038410305976 4.0227789655327797 2.0530398190021506 2.1167323589324925 3.9407386183738717 2.063841238617897 2.9278629347681999
leaf_count=20 38 27 21 30 15 22 38 21 30
internal_value=0.00173213 0.069491 -0.0437722 -0.0144849 -0.0567931 -0.0562855 -0.0564017 -0.0565246 -0.0560905
internal_weight=36.2532 14.565 21.6882 6.67482 15.0134 12.9603 8.12131 6.00458 4.83901
internal_count=262 65 197 51 146 131 81 59 50
is_linear=0
shrinkage=0.05


Tree=13
num_leaves=10
num_cat=0
split_feature=0 0 0 0 0 4 0 5 0
split_gain=40.728 3.32384 3.27386 0.24197 0.000346704 0.000258758 0.000432916 3.81e-05 2.47079e-05
threshold=0.31750000000000006 0.67500000000000016 0.033750000000000009 0.086000000000000007 0.010750000000000001 1.0000000180025095e-35 0.0037500000000000003 0.45000000000000007 0.00075000000000000012
decision_type=2 2 2 2 2 2 2 2 2
left_child=2 -2 4 -4 5 -1 7 -7 -9
right_child=1 -3 3 -5 -6 6 -8 8 -10
leaf_value=-0.056164760638309712 0.044076253390793664 0.091940856483681721 -0.0021990711419251283 -0.021722167137337326 -0.055832807196890467 -0.056293573148363522 -0.057313578742206994 -0.056654793826727473 -0.056421183382124152
leaf_weight=3.5902136787772188 8.0658816099166852 6.5907026529312125 2.6477537825703612 3.9619365856051445 2.1486140936613074 2.0124817788600895 2.0051811262965202 2.6301935315132168 1.986871190369129
leaf_count=37 38 27 21 30 23 21 19 26 20
internal_value=0.0016456 0.0655998 -0.0430257 -0.0139015 -0.0564186 -0.0565215 -0.0566698 -0.0564751 -0.0565543
internal_weight=35.6398 14.6566 20.9832 6.60969 14.3736 12.2249 8.63473 6.62955 4.61706
internal_count=262 65 197 51 146 123 86 67 46
is_linear=0
shrinkage=0.05


Tree=14
num_leaves=10
num_cat=0
split_feature=0 0 0 0 12 12 5 12 4
split_gain=37.1768 3.24001 3.22924 0.224266 0.00705945 8.47537e-05 9.9923e-05 7.96289e-05 8.62689e-06
threshold=0.31750000000000006 0.033750000000000009 0.67500000000000016 0.086000000000000007 0.46500000000000002 0.31000000000000005 0.45000000000000007 0.42500000000000004 1.0000000180025095e-35
decision_type=2 2 2 2 2 2 2 2 2
left_child=1 4 -2 -3 5 8 -7 -8 -1
right_child=2 3 -4 -5 -6 6 7 -9 -10
leaf_value=-0.055356510237538153 0.041203485224077935 -0.0020924232892412481 0.088365040589629656 -0.02095256814117176 -0.058902174163002835 -0.055410363327516227 -0.055965678041808867 -0.055564949341918413 -0.055499308680665285
leaf_weight=1.7480106651783005 8.1934032291173917 2.6436797007918349 6.5163585394620887 3.9036011025309563 1.8956711217761029 1.9360681250691385 3.609674587845805 1.8881252482533453 2.6780817210674286
leaf_count=20 38 21 27 30 15 22 38 21 30
internal_value=0.00156596 -0.0422888 0.0620958 -0.0133372 -0.056069 -0.0556161 -0.0557193 -0.0558281 -0.0554429
internal_weight=35.0127 20.3029 14.7098 6.54728 13.7556 11.86 7.43387 5.4978 4.42609
internal_count=262 197 65 51 146 131 81 59 50
is_linear=0
shrinkage=0.05


Tree=15
num_leaves=11
num_cat=0
split_feature=0 0 0 0 12 12 12 5 0 0
split_gain=29.3513 6.41173 2.64567 0.345041 0.00697803 7.95279e-05 0.000149586 6.06036e-05 2.07253e-05 4.73923e-07
threshold=0.31750000000000006 0.61250000000000016 0.038750000000000007 0.14250000000000004 0.46500000000000002 0.19000000000000003 0.34000000000000002 0.45000000000000007 0.0037500000000000003 0.0037500000000000003
decision_type=2 2 2 2 2 2 2 2 2 2
left_child=2 -2 4 -4 5 9 -7 -8 -9 -1
right_child=1 -3 3 -5 -6 6 7 8 -10 -11
leaf_value=-0.055177839529394923 0.015751158721188995 0.081623977117435631 -0.026538060817152754 -0.0018029821390114593 -0.058561213683932606 -0.055837851498222638 -0.055067142316196138 -0.055321820156323503 -0.055546192077769133 -0.055143162921579371
leaf_weight=1.7855480536818524 7.1776900589466077 7.6112175732851028 3.0778439342975608 2.6016354560852051 1.9630956575274456 1.7664374634623525 1.7545512020587892 2.4301185905933407 1.7853444665670393 2.1985162869095802
leaf_count=21 33 32 24 20 16 19 21 28 20 26
internal_value=-0.00338583 0.0496531 -0.0438952 -0.0152075 -0.0558023 -0.0553402 -0.0554337 -0.0553141 -0.0554168 -0.0551587
internal_weight=34.152 14.7889 19.3631 5.67948 13.6836 11.7205 7.73645 5.97001 4.21546 3.98406
internal_count=260 65 195 44 151 135 88 69 48 47
is_linear=0
shrinkage=0.05


Tree=16
num_leaves=11
num_cat=0
split_feature=0 0 0 0 12 12 12 5 0 0
split_gain=27.058 6.02731 2.62824 0.321329 0.00589676 6.74818e-05 0.000126752 5.14162e-05 1.76123e-05 4.01403e-07
threshold=0.31750000000000006 0.67500000000000016 0.038750000000000007 0.14250000000000004 0.46500000000000002 0.19000000000000003 0.34000000000000002 0.45000000000000007 0.0037500000000000003 0.0037500000000000003
decision_type=2 2 2 2 2 2 2 2 2 2
left_child=2 -2 4 -4 5 9 -7 -8 -9 -1
right_child=1 -3 3 -5 -6 6 7 8 -10 -11
leaf_value=-0.054899880483235255 0.017834651096799277 0.082027268842510687 -0.025694982474435569 -0.0017149999771329544 -0.058077193943346039 -0.055521317104093887 -0.05479565257719396 -0.055035508728357774 -0.055247032792117082 -0.054867239398594225
leaf_weight=1.7068475484848042 7.9360834211111051 6.7814462035894394 3.0213501378893843 2.5984284654259682 1.882522016763686 1.6896241903305051 1.6770405620336504 2.3233215212821987 1.7072354182600973 2.1015441417694092
leaf_count=21 36 29 24 20 16 19 21 28 20 26
internal_value=-0.00330652 0.0474129 -0.0432075 -0.0146073 -0.0554879 -0.0550529 -0.0551409 -0.0550283 -0.0551251 -0.0548819
internal_weight=33.4254 14.7175 18.7079 5.61978 13.0881 11.2056 7.39722 5.7076 4.03056 3.80839
internal_count=260 65 195 44 151 135 88 69 48 47
is_linear=0
shrinkage=0.05


Tree=17
num_leaves=11
num_cat=0
split_feature=0 0 0 0 12 12 12 5 0 0
split_gain=25.0497 7.459 1.48256 0.882211 0.00498823 5.73063e-05 0.000107496 4.36569e-05 1.49775e-05 3.40322e-07
threshold=0.14250000000000004 0.61250000000000016 0.45750000000000007 0.038750000000000007 0.46500000000000002 0.19000000000000003 0.34000000000000002 0.45000000000000007 0.0037500000000000003 0.0037500000000000003
decision_type=2 2 2 2 2 2 2 2 2 2
left_child=3 2 -2 4 5 9 -7 -8 -9 -1
right_child=1 -3 -4 -5 -6 6 7 8 -10 -11
leaf_value=-0.054638130892777095 0.030149402210493809 0.076324481723382076 -0.0086818451030458068 -0.024868000706163088 -0.057624100384504218 -0.055223577379739867 -0.054539938296242763 -0.054765960866817613 -0.054965470756263804 -0.054607386338356649
leaf_weight=1.6311847716569885 4.6935175582766551 7.3663115203380576 5.1608240008354187 2.9671362191438666 1.8044333234429348 1.6156662404537199 1.6025404110550852 2.220613755285743 1.6320807859301565 2.0083224549889565
leaf_count=21 30 32 23 24 16 19 21 28 20 26
internal_value=-0.00322836 0.038264 0.00981306 -0.0493805 -0.0551921 -0.0547824 -0.0548653 -0.0547593 -0.0548505 -0.0546212
internal_weight=32.7026 17.2207 9.85434 15.482 12.5148 10.7104 7.0709 5.45523 3.85269 3.63951
internal_count=260 85 53 175 151 135 88 69 48 47
is_linear=0
shrinkage=0.05


Tree=18
num_leaves=11
num_cat=0
split_feature=0 0 0 12 12 12 12 5 0 0
split_gain=23.3138 5.35392 2.53368 0.264263 0.00422377 4.87008e-05 9.1238e-05 3.70947e-05 1.2746e-05 2.88746e-07
threshold=0.31750000000000006 0.67500000000000016 0.038750000000000007 0.34000000000000002 0.46500000000000002 0.19000000000000003 0.34000000000000002 0.45000000000000007 0.0037500000000000003 0.0037500000000000003
decision_type=2 2 2 2 2 2 2 2 2 2
left_child=2 -2 4 -4 5 9 -7 -8 -9 -1
right_child=1 -3 3 -5 -6 6 7 8 -10 -11
leaf_value=-0.05439151476027855 0.016353590762193865 0.077448768468844909 -0.024477956701532275 -0.0026618999223373407 -0.057199564837081322 -0.054943342699540598 -0.054298964909909299 -0.054512052890558153 -0.054700323276824052 -0.054362542400482328
leaf_weight=1.5584881752729436 7.994261682033537 6.5027808845043182 2.9109126999974242 2.6534325927495956 1.7288463562726963 1.5445095151662824 1.5309776067733736 2.121902957558635 1.5598181560635564 1.9187618643045423
leaf_count=21 36 29 23 21 16 19 21 28 20 26
internal_value=-0.00315065 0.0437584 -0.0419489 -0.0140747 -0.0549137 -0.0545276 -0.0546058 -0.0545058 -0.0545918 -0.0543755
internal_weight=32.0247 14.497 17.5276 5.56435 11.9633 10.2345 6.75721 5.2127 3.68172 3.47725
internal_count=260 65 195 44 151 135 88 69 48 47
is_linear=0
shrinkage=0.05


Tree=19
num_leaves=10
num_cat=0
split_feature=0 0 0 0 0 0 5 0 0
split_gain=21.6379 6.6096 1.00953 0.89397 0.000197821 0.00029934 4.99646e-05 3.49477e-05 2.76505e-05
threshold=0.14250000000000004 0.67500000000000016 0.45750000000000007 0.038750000000000007 0.0027500000000000003 0.0057500000000000008 0.45000000000000007 0.00075000000000000012 0.011750000000000002
decision_type=2 2 2 2 2 2 2 2 2
left_child=3 2 -2 4 6 -6 -1 -8 -7
right_child=1 -3 -4 -5 5 8 7 -9 -10
leaf_value=-0.054203998420975265 0.028123568988219657 0.075453399019114353 -0.0028200620918868639 -0.023478911374899974 -0.055317734300036205 -0.054710223159775945 -0.054666788563846519 -0.054377045063353113 -0.054427992154513896
leaf_weight=1.5643804222345359 4.764251723885538 6.3450039178133002 5.9000181555747986 2.8791229501366606 2.1983157247304916 1.7738526090979578 2.2892168536782274 1.9082185626029966 1.6990715712308881
leaf_count=22 30 29 26 24 27 23 30 26 23
internal_value=-0.00307556 0.0350457 0.011004 -0.0483807 -0.0546515 -0.0548612 -0.0544452 -0.0545351 -0.0545721
internal_weight=31.3215 17.0093 10.6643 14.3122 11.4331 5.67124 5.76182 4.19744 3.47292
internal_count=260 85 56 175 151 73 78 56 46
is_linear=0
shrinkage=0.05


Tree=20
num_leaves=9
num_cat=0
split_feature=0 0 0 4 4 0 5 0
split_gain=19.7785 3.90477 2.12948 2.97468 0.000168424 0.000129887 9.60843e-06 3.22841e-06
threshold=0.31750000000000006 0.67500000000000016 0.033750000000000009 1.0000000180025095e-35 1.0000000180025095e-35 0.0027500000000000003 0.45000000000000007 0.0037500000000000003
decision_type=2 2 2 2 2 2 2 2
left_child=2 -2 4 -4 7 6 -6 -1
right_child=1 -3 3 -5 5 -7 -8 -9
leaf_value=-0.054096989490973135 0.018790216834783893 0.072693858627688734 -0.059108569789853599 0.01212148574361667 -0.054316573663859238 -0.054853909402390405 -0.054472084386488984 -0.054197840104043583
leaf_weight=1.3937194198370035 8.7595165073871595 5.4500479698181143 2.4939223602414122 3.5551726743578911 1.479943729937079 2.8161577507853508 3.0205647349357578 1.8427587673068044
leaf_count=20 39 26 20 30 21 37 41 26
internal_value=-0.00383648 0.0394648 -0.0408973 -0.0172453 -0.0544547 -0.0545876 -0.0544209 -0.0541544
internal_weight=30.8118 14.2096 16.6022 6.0491 10.5531 7.31667 4.50051 3.23648
internal_count=260 65 195 50 145 99 62 46
is_linear=0
shrinkage=0.05


Tree=21
num_leaves=10
num_cat=0
split_feature=0 0 0 4 12 12 12 0 0
split_gain=18.279 3.77042 2.12433 2.8135 0.00306971 2.85632e-05 2.65269e-05 1.25802e-05 1.5997e-09
threshold=0.31750000000000006 0.67500000000000016 0.033750000000000009 1.0000000180025095e-35 0.46500000000000002 0.31000000000000005 0.42500000000000004 0.00075000000000000012 0.0062500000000000012
decision_type=2 2 2 2 2 2 2 2 2
left_child=2 -2 4 -4 5 8 7 -7 -1
right_child=1 -3 3 -5 -6 6 -8 -9 -10
leaf_value=-0.053707820118089979 0.01775247049177826 0.071145050381216574 -0.05859537109544475 0.011413022769426823 -0.056202646901161814 -0.053858450734128475 -0.053739630350613354 -0.054044441100040336 -0.053705441213428601
leaf_weight=1.4137463271617945 8.8067331910133344 5.294210657477378 2.3925423026084891 3.5862425342202187 1.6359592005610455 1.4580943435430529 1.7449838966131208 2.4150073602795601 1.4129779264330862
leaf_count=22 39 26 20 30 17 22 27 35 22
internal_value=-0.00374152 0.0377988 -0.0402156 -0.0166024 -0.0542203 -0.0538363 -0.0539015 -0.0539744 -0.0537066
internal_weight=30.1605 14.1009 16.0596 5.97878 10.0808 8.44481 5.61809 3.8731 2.82672
internal_count=260 65 195 50 145 128 84 57 44
is_linear=0
shrinkage=0.05


Tree=22
num_leaves=9
num_cat=0
split_feature=0 0 0 0 4 0 5 0
split_gain=16.8989 3.64478 2.11689 0.25638 0.000123217 9.57444e-05 6.73961e-06 2.30438e-06
threshold=0.31750000000000006 0.67500000000000016 0.033750000000000009 0.13000000000000003 1.0000000180025095e-35 0.0027500000000000003 0.45000000000000007 0.0037500000000000003
decision_type=2 2 2 2 2 2 2 2
left_child=2 -2 4 -4 7 6 -6 -1
right_child=1 -3 3 -5 5 -7 -8 -9
leaf_value=-0.053677981139037712 0.016779605627919872 0.06973120607088687 -0.0052837323348409182 -0.026119643831161284 -0.05387537189115818 -0.054356003243111517 -0.054011747395616316 -0.053767212503125529
leaf_weight=1.2707174196839353 8.8503143191337568 5.135500729084014 2.8753514960408202 3.034472368657589 1.3496710062026966 2.5713888220489025 2.755593892186881 1.6802544146776197
leaf_count=20 39 26 26 24 21 37 41 26
internal_value=-0.00364843 0.0362231 -0.0395382 -0.0159822 -0.0539978 -0.0541168 -0.0539669 -0.0537288
internal_weight=29.5233 13.9858 15.5374 5.90982 9.62763 6.67665 4.10526 2.95097
internal_count=260 65 195 50 145 99 62 46
is_linear=0
shrinkage=0.05


Tree=23
num_leaves=10
num_cat=0
split_feature=0 12 0 12 12 12 12 0 0
split_gain=15.6235 3.59607 2.1103 1.13258 0.00224179 2.09098e-05 1.93707e-05 9.14334e-06 1.7971e-09
threshold=0.31750000000000006 0.59500000000000008 0.033750000000000009 0.32500000000000007 0.46500000000000002 0.31000000000000005 0.42500000000000004 0.00075000000000000012 0.0062500000000000012
decision_type=2 2 2 2 2 2 2 2 2
left_child=2 -2 4 -4 5 8 7 -7 -1
right_child=1 -3 3 -5 -6 6 -8 -9 -10
leaf_value=-0.053329408446159854 0.012398589229153871 0.063764610586588388 0.0047953096142617285 -0.039399277394073909 -0.055557694960410409 -0.053464459128325328 -0.053357832331241577 -0.053630561284620959 -0.053326766258699525
leaf_weight=1.2875447943806668 7.8378009647130948 6.0278386473655701 3.1785152852535239 2.6652423962950706 1.4993917942047117 1.3285025805234911 1.5892875306308267 2.2013413868844509 1.2866655886173246
leaf_count=22 35 30 27 23 17 22 27 35 22
internal_value=-0.00355318 0.034729 -0.0388545 -0.0153611 -0.053789 -0.0534443 -0.0535028 -0.053568 -0.0533281
internal_weight=28.9021 13.8656 15.0365 5.84376 9.19273 7.69334 5.11913 3.52984 2.57421
internal_count=260 65 195 50 145 128 84 57 44
is_linear=0
shrinkage=0.05


Tree=24
num_leaves=10
num_cat=0
split_feature=0 0 0 12 12 12 12 0 0
split_gain=14.436 3.52595 2.10083 1.06128 0.00190696 1.78251e-05 1.65038e-05 7.78507e-06 1.5327e-09
threshold=0.31750000000000006 0.67500000000000016 0.033750000000000009 0.32500000000000007 0.46500000000000002 0.31000000000000005 0.42500000000000004 0.00075000000000000012 0.0062500000000000012
decision_type=2 2 2 2 2 2 2 2 2
left_child=2 -2 4 -4 5 8 7 -7 -1
right_child=1 -3 3 -5 -6 6 -8 -9 -10
leaf_value=-0.053156508938670001 0.014616573471206651 0.067619577787463983 0.0045394155425294352 -0.038544523653354666 -0.055258713575918439 -0.053284184361785163 -0.053183406035503117 -0.053441070190886709 -0.053154011027342629
leaf_weight=1.2286334931850453 8.9259399026632291 4.8386487811803809 3.1895185559988013 2.5900553539395332 1.4337871223688123 1.2678781114518645 1.5166099183261392 2.101217795163393 1.2277914471924303
leaf_count=22 39 26 27 23 17 22 27 35 22
internal_value=-0.00346075 0.0332487 -0.0381755 -0.0147682 -0.0535908 -0.0532651 -0.0533204 -0.053382 -0.0531553
internal_weight=28.3201 13.7646 14.5555 5.77957 8.77592 7.34213 4.88571 3.3691 2.45642
internal_count=260 65 195 50 145 128 84 57 44
is_linear=0
shrinkage=0.05


Tree=25
num_leaves=11
num_cat=0
split_feature=0 0 4 12 12 12 9 12 4 0
split_gain=16.4994 3.95933 1.26744 0.788325 0.00149386 1.39851e-05 1.49615e-05 1.61483e-05 1.41486e-06 3.10021e-07
threshold=0.033750000000000009 0.67500000000000016 1.0000000180025095e-35 0.54000000000000015 0.46500000000000002 0.31000000000000005 4.5000000000000009 0.42500000000000004 1.0000000180025095e-35 0.0032500000000000007
decision_type=2 2 2 2 2 2 2 2 2 2
left_child=4 2 3 -2 5 8 -7 9 -1 -8
right_child=1 -3 -4 -5 -6 6 7 -9 -10 -11
leaf_value=-0.052947707774167178 -0.011772687782565633 0.068265007736687741 0.036689060117298812 0.016966693255408422 -0.054893891242604256 -0.052977257762025901 -0.053248297079733789 -0.053045997894267428 -0.053023296087168909 -0.053285042550754828
leaf_weight=1.0514505244791525 3.7352916747331637 4.9031171202659598 5.2828354462981215 6.606101781129837 1.3566015362739561 1.1123637780547158 1.142688956111668 1.295935891568661 1.5054769888520241 1.1534195914864538
leaf_count=20 26 26 37 29 17 21 20 24 28 20
internal_value=0.00469016 0.0290658 0.0167644 0.00658608 -0.0533709 -0.0530863 -0.0531375 -0.0531871 -0.0529922 -0.0532668
internal_weight=29.1453 20.5273 15.6242 10.3414 8.61794 7.26134 4.70441 3.59204 2.55693 2.29611
internal_count=268 118 92 55 150 133 85 64 48 40
is_linear=0
shrinkage=0.05


Tree=26
num_leaves=11
num_cat=0
split_feature=0 0 4 12 12 12 5 12 4 0
split_gain=15.3551 3.83416 1.1034 0.709955 0.00127228 1.19328e-05 1.27595e-05 1.37671e-05 1.20679e-06 2.64389e-07
threshold=0.033750000000000009 0.67500000000000016 1.0000000180025095e-35 0.54000000000000015 0.46500000000000002 0.31000000000000005 0.45000000000000007 0.42500000000000004 1.0000000180025095e-35 0.0032500000000000007
decision_type=2 2 2 2 2 2 2 2 2 2
left_child=4 2 3 -2 5 8 -7 9 -1 -8
right_child=1 -3 -4 -5 -6 6 7 -9 -10 -11
leaf_value=-0.052795692893699432 -0.011259690448824741 0.067095382737651241 0.034158241229421502 0.016051103135908087 -0.054633418240815301 -0.052823663999140728 -0.053079907605648693 -0.052888675991317503 -0.052867168242053508 -0.053114646290056272
leaf_weight=1.0029776990413684 3.7108391001820582 4.7432148307561866 5.3877186551690093 6.6330661773681641 1.2964359596371648 1.0611120797693745 1.0903204344212998 1.2363065443933008 1.4361763186752796 1.1005974933505056
leaf_count=20 26 26 37 29 17 21 20 24 28 20
internal_value=0.00451202 0.027691 0.0158102 0.00625345 -0.0531958 -0.0529268 -0.0529752 -0.0530221 -0.0528378 -0.0530974
internal_weight=28.6988 20.4748 15.7316 10.3439 8.22393 6.92749 4.48834 3.42722 2.43915 2.19092
internal_count=268 118 92 55 150 133 85 64 48 40
is_linear=0
shrinkage=0.05


Tree=27
num_leaves=11
num_cat=0
split_feature=0 0 4 12 12 12 5 12 4 0
split_gain=14.3015 3.71243 0.96321 0.639544 0.00108418 1.01867e-05 1.08869e-05 1.17427e-05 1.02963e-06 2.25542e-07
threshold=0.033750000000000009 0.67500000000000016 1.0000000180025095e-35 0.54000000000000015 0.46500000000000002 0.31000000000000005 0.45000000000000007 0.42500000000000004 1.0000000180025095e-35 0.0032500000000000007
decision_type=2 2 2 2 2 2 2 2 2 2
left_child=4 2 3 -2 5 8 -7 9 -1 -8
right_child=1 -3 -4 -5 -6 6 7 -9 -10 -11
leaf_value=-0.05265192189913738 -0.010766293466537348 0.066017948165588244 0.031856248970931984 0.015190180813446265 -0.054387909592202591 -0.052678403174398127 -0.052920738069470265 -0.052739909278144398 -0.052719523313149247 -0.052953587179010435
leaf_weight=0.95660124719143191 3.6874651461839694 4.5836405754089347 5.485570862889289 6.6578950434923172 1.238633945584297 1.0120740383863474 1.0401854626834373 1.1792446114122865 1.3698624297976494 1.0500244721770284
leaf_count=20 26 26 37 29 17 21 20 24 28 20
internal_value=0.00434082 0.0263923 0.0149191 0.00593834 -0.0530304 -0.0527759 -0.0528217 -0.0528661 -0.0526917 -0.0529372
internal_weight=28.2612 20.4146 15.8309 10.3454 7.84663 6.60799 4.28153 3.26945 2.32646 2.09021
internal_count=268 118 92 55 150 133 85 64 48 40
is_linear=0
shrinkage=0.05


Tree=28
num_leaves=12
num_cat=0
split_feature=0 0 0 12 0 12 12 5 12 4 0
split_gain=13.3302 3.59382 0.857278 3.42148 1.03275 0.000924375 8.69941e-06 9.29353e-06 1.00207e-05 8.78997e-07 1.92504e-07
threshold=0.033750000000000009 0.67500000000000016 0.47550000000000003 0.46500000000000002 0.18250000000000002 0.46500000000000002 0.31000000000000005 0.45000000000000007 0.42500000000000004 1.0000000180025095e-35 0.0032500000000000007
decision_type=2 2 2 2 2 2 2 2 2 2 2
left_child=5 2 3 4 -2 6 9 -8 10 -1 -9
right_child=1 -3 -4 -5 -6 -7 7 8 -10 -11 -12
leaf_value=-0.052515906003657603 -0.017243844166810574 0.065023299988336919 -0.00075562334427968839 0.059339457140963586 0.025565001783308644 -0.054156391665565809 -0.052540981730475958 -0.052770233532717141 -0.052599189051035236 -0.052579866521426266 -0.052801306369910428
leaf_weight=0.91224448010325709 3.6595076173543948 4.4250874966382971 6.0393984019756308 3.9331444054841995 2.2907927855849266 1.1831345483660696 0.96516896039247768 0.99220572039484745 1.1246573664247987 1.3064270503818989 1.001622002571821
leaf_count=20 31 26 26 18 17 17 21 20 24 28 20
internal_value=0.00417609 0.0251633 0.0140859 0.023155 -0.000762963 -0.052874 -0.0526333 -0.0526766 -0.0527185 -0.0525536 -0.0527858
internal_weight=27.8334 20.3479 15.9228 9.88344 5.9503 7.48546 6.30233 4.08365 3.11849 2.21867 1.99383
internal_count=268 118 92 66 48 150 133 85 64 48 40
is_linear=0
shrinkage=0.05


Tree=29
num_leaves=9
num_cat=0
split_feature=0 0 4 0 4 0 5 0
split_gain=12.4407 3.47293 0.889336 0.208241 4.06063e-05 7.10884e-05 1.90549e-05 3.09791e-06
threshold=0.033750000000000009 0.67500000000000016 1.0000000180025095e-35 0.47550000000000003 1.0000000180025095e-35 0.0020000000000000005 0.45000000000000007 0.0052500000000000003
decision_type=2 2 2 2 2 2 2 2
left_child=4 2 3 -2 7 6 -6 -1
right_child=1 -3 -4 -5 5 -7 -8 -9
leaf_value=-0.052602260318373228 0.01159932614613314 0.064103258386604328 0.02944156602319048 -0.0025572467317185651 -0.05246624057436227 -0.053041814867775164 -0.052737254235610743 -0.052482240036571239
leaf_weight=1.1211181804537802 5.3234068006277102 4.268146574497222 5.576024815440177 5.073442667722702 0.93474155664444269 1.9323269724845884 2.118592552840707 1.0330785103142259
leaf_count=24 33 26 37 22 21 38 44 23
internal_value=0.00402054 0.0240375 0.0133314 0.00469122 -0.0527261 -0.0528045 -0.0526543 -0.0525447
internal_weight=27.3809 20.241 15.9729 10.3968 7.13986 4.98566 3.05333 2.1542
internal_count=268 118 92 55 150 103 65 47
is_linear=0
shrinkage=0.05


Tree=30
num_leaves=8
num_cat=0
split_feature=12 4 5 12 12 4 12
split_gain=7.46309 1.79173 1.58293 0.562929 1.75367 0.383578 0.0697604
threshold=0.46500000000000002 1.0000000180025095e-35 0.55000000000000016 0.31000000000000005 0.32500000000000007 1.0000000180025095e-35 0.36500000000000005
decision_type=2 2 2 2 2 2 2
left_child=2 -2 3 -1 -5 -6 -7
right_child=1 -3 -4 4 5 6 -8
leaf_value=-0.053887586571772277 0.013381733454487198 0.052511012835068718 0.0097610979690515576 0.0050037593324449908 -0.020346911962457456 -0.059307200138772533 -0.046017288795323991
leaf_weight=2.6401706784963634 7.8771640881896001 4.6540593430399895 2.5782001949846736 2.7890433892607671 1.3619044572114942 1.5445722900331018 2.7374332062900066
leaf_count=51 37 34 33 29 18 23 44
internal_value=5.21247e-05 0.0279142 -0.0255239 -0.0337394 -0.0274315 -0.04346 -0.0508111
internal_weight=26.1825 12.5312 13.6513 11.0731 8.43295 5.64391 4.28201
internal_count=269 71 198 165 114 85 67
is_linear=0
shrinkage=0.05


Tree=31
num_leaves=11
num_cat=0
split_feature=0 0 0 0 12 5 12 5 0 0
split_gain=11.5897 2.27736 1.19162 0.250196 0.000323956 0.000194184 1.48588e-05 1.38666e-05 1.81898e-08 2.29328e-09
threshold=0.31750000000000006 0.038750000000000007 0.61250000000000016 0.16600000000000004 0.44000000000000006 0.55000000000000016 0.31000000000000005 0.45000000000000007 0.0037500000000000003 0.0027500000000000003
decision_type=2 2 2 2 2 2 2 2 2 2
left_child=1 4 -2 -3 5 6 8 -8 -1 -9
right_child=2 3 -4 -5 -6 -7 7 9 -10 -11
leaf_value=-0.052192567648210245 0.023386520576181444 -0.002229880787954375 0.055985085951366899 -0.022393888196107901 -0.053252432362823759 -0.053111812984573438 -0.052211507395593104 -0.052450783002874327 -0.052182379861794206 -0.052454334825149267
leaf_weight=0.8048218004405514 8.5603012442588788 3.5405143946409225 4.1684828400611869 2.7204590737819672 1.5590989403426645 0.88136986270546902 0.88828605785965908 0.93178945407271407 0.96164236217737198 0.88713881745934486
leaf_count=20 37 29 26 22 30 18 22 21 24 20
internal_value=3.63794e-05 -0.0328366 0.0340621 -0.0109914 -0.0526181 -0.0524335 -0.0522998 -0.0523734 -0.052187 -0.0524525
internal_weight=25.9039 13.1751 12.7288 6.26097 6.91415 5.35505 4.47368 2.70721 1.76646 1.81893
internal_count=269 206 63 51 155 125 107 63 44 41
is_linear=0
shrinkage=0.05


Tree=32
num_leaves=12
num_cat=0
split_feature=0 0 0 0 0 12 5 12 5 0 0
split_gain=10.6549 2.25268 1.11748 3.16036 0.23167 0.000277562 0.00016728 1.27073e-05 1.18502e-05 1.5557e-08 1.97937e-09
threshold=0.31750000000000006 0.038750000000000007 0.47550000000000003 0.61250000000000016 0.16600000000000004 0.44000000000000006 0.55000000000000016 0.31000000000000005 0.45000000000000007 0.0037500000000000003 0.0027500000000000003
decision_type=2 2 2 2 2 2 2 2 2 2 2
left_child=1 5 -2 -4 -3 6 7 9 -9 -1 -10
right_child=2 4 3 -5 -6 -7 -8 8 10 -11 -12
leaf_value=-0.052081070433141141 0.054577641064228577 -0.0021218084063771752 -0.0056015078635141937 0.05484426954329924 -0.021617628097592059 -0.053085874604385352 -0.052954313573722336 -0.052099054950306804 -0.052325596017910328 -0.052071420278133565 -0.052328975400092181
leaf_weight=0.76716776564717448 3.9609835445880881 3.5349516719579697 4.6456301957368833 4.0455691963434219 2.6783319562673569 1.4875963255763052 0.84081551805138577 0.84674155339598645 0.8884125351905825 0.91664255037903786 0.84584305435419083
leaf_count=20 17 29 20 26 22 30 18 22 21 24 20
internal_value=2.32144e-05 -0.0321277 0.0325663 0.0225347 -0.0105258 -0.0524849 -0.0523097 -0.0521827 -0.0522524 -0.0520758 -0.0523272
internal_weight=25.4587 12.8065 12.6522 8.6912 6.21328 6.59322 5.10562 4.26481 2.581 1.68381 1.73426
internal_count=269 206 63 46 51 155 125 107 63 44 41
is_linear=0
shrinkage=0.05


Tree=33
num_leaves=12
num_cat=0
split_feature=0 0 0 0 0 12 5 12 5 0 0
split_gain=9.79719 2.22624 0.952878 2.96744 0.214351 0.000237871 0.000144104 1.08712e-05 1.0131e-05 1.33082e-08 1.7118e-09
threshold=0.31750000000000006 0.038750000000000007 0.47550000000000003 0.61250000000000016 0.16600000000000004 0.44000000000000006 0.55000000000000016 0.31000000000000005 0.45000000000000007 0.0037500000000000003 0.0027500000000000003
decision_type=2 2 2 2 2 2 2 2 2 2 2
left_child=1 5 -2 -4 -3 6 7 9 -9 -1 -10
right_child=2 4 3 -5 -6 -7 -8 8 10 -11 -12
leaf_value=-0.051975461087768765 0.051295020485506319 -0.0020188164436979162 -0.0053289372690914875 0.053738645126232859 -0.02085921207940359 -0.052928238341743788 -0.05280508129800239 -0.051992540620561946 -0.052207077034915367 -0.051966318697537144 -0.052210295712519943
leaf_weight=0.7311979010701195 4.0026141107082358 3.5296625867486 4.6392553001642209 3.9254300892353058 2.6379742547869682 1.4191533513367174 0.80201170220971096 0.80705390125513066 0.84695417806506179 0.87365629151463509 0.80637354031205177
leaf_count=20 17 29 20 26 22 30 18 22 21 24 20
internal_value=9.58968e-06 -0.0314195 0.0311554 0.0217434 -0.0100771 -0.0523586 -0.0521926 -0.0520717 -0.0521378 -0.0519705 -0.0522086
internal_weight=25.0213 12.454 12.5673 8.56469 6.16764 6.2864 4.86725 4.06524 2.46038 1.60485 1.65333
internal_count=269 206 63 46 51 155 125 107 63 44 41
is_linear=0
shrinkage=0.05


Tree=34
num_leaves=12
num_cat=0
split_feature=0 0 0 0 0 12 9 12 9 0 0
split_gain=9.00934 2.19811 0.815672 2.78677 0.198174 0.000203901 0.000124139 9.30322e-06 8.66398e-06 1.13729e-08 1.47853e-09
threshold=0.31750000000000006 0.038750000000000007 0.47550000000000003 0.61250000000000016 0.16600000000000004 0.44000000000000006 5.5000000000000009 0.31000000000000005 4.5000000000000009 0.0037500000000000003 0.0027500000000000003
decision_type=2 2 2 2 2 2 2 2 2 2 2
left_child=1 5 -2 -4 -3 6 7 9 -9 -1 -10
right_child=2 4 3 -5 -6 -7 -8 8 10 -11 -12
leaf_value=-0.051875406989851158 0.048301753332288054 -0.001920684538349856 -0.0050693515939076138 0.052664151676329866 -0.020118632490326194 -0.052779004479143188 -0.052663653098548091 -0.05189163296923005 -0.05209484474901882 -0.051866749625620892 -0.052097908603367798
leaf_weight=0.69684459641576013 4.0371859073638907 3.5246340036392212 4.6331372410058957 3.8082359656691551 2.599328838288784 1.3536610044538973 0.76489415019750584 0.76914855837821994 0.8073395714163778 0.83260269835591316 0.76865915581583977
leaf_count=20 17 29 20 26 22 30 18 22 21 24 20
internal_value=-2.74889e-06 -0.030712 0.029817 0.0209765 -0.00964484 -0.0522391 -0.0520815 -0.0519666 -0.0520292 -0.0518707 -0.0520963
internal_weight=24.5957 12.1171 12.4786 8.44137 6.12396 5.99315 4.63949 3.87459 2.34515 1.52945 1.576
internal_count=269 206 63 46 51 155 125 107 63 44 41
is_linear=0
shrinkage=0.05


Tree=35
num_leaves=10
num_cat=0
split_feature=12 5 12 12 12 4 12 12 7
split_gain=3.17857 1.01826 1.03917 0.670776 1.36154 0.768242 0.362124 0.350358 1.08335
threshold=0.54000000000000015 0.55000000000000016 0.42500000000000004 0.41000000000000009 0.32500000000000007 1.0000000180025095e-35 0.31000000000000005 0.62500000000000011 1.0000000180025095e-35
decision_type=2 2 2 2 2 2 2 2 2
left_child=1 2 3 4 5 -1 -7 8 -2
right_child=7 -3 -4 -5 -6 6 -8 -9 -10
leaf_value=-0.038694928513206828 0.031773332898848115 0.010540168907082238 -0.04919343776029686 0.017976195912769593 -0.059378224598984668 -0.014388659952864983 0.019947752378469814 0.031933953078380269 -0.0077379184662578968
leaf_weight=1.3707604035735146 3.5074651502072811 2.4646629653871051 3.1579791121184826 1.2778666056692598 1.7402879446744917 1.2890096046030521 1.8992850817739964 3.3427276462316513 3.4327920787036401
leaf_count=23 16 34 37 17 30 32 18 27 24
internal_value=-0.00220639 -0.0184426 -0.0250967 -0.0150538 -0.0217542 -0.00739235 0.00606573 0.0186354 0.0122303
internal_weight=23.4828 13.1999 10.7352 7.57721 6.29934 4.55906 3.18829 10.283 6.94026
internal_count=258 191 157 120 103 73 50 67 40
is_linear=0
shrinkage=0.05


Tree=36
num_leaves=11
num_cat=0
split_feature=0 0 0 0 0 12 5 12 0 0
split_gain=6.68926 3.34192 1.07044 2.43763 0.909551 0.000655759 5.99233e-06 3.66639e-06 2.68869e-06 2.15182e-08
threshold=0.033750000000000009 0.61250000000000016 0.47550000000000003 0.31750000000000006 0.13000000000000003 0.54000000000000015 0.55000000000000016 0.31000000000000005 0.00075000000000000012 0.0042500000000000012
decision_type=2 2 2 2 2 2 2 2 2 2
left_child=5 2 3 4 -2 6 7 9 -9 -1
right_child=1 -3 -4 -5 -6 -7 -8 8 -10 -11
leaf_value=-0.051745146081442962 0.012274659283971848 0.053028132661838749 -0.018167473167285338 0.045060840580105337 -0.026743034972549398 -0.053312902684370202 -0.051960355669281678 -0.051784491598872301 -0.051894522742648677 -0.051732272900085578
leaf_weight=0.65152306854725173 2.8381719365715998 3.931097835302352 4.8365855664014807 3.3377327620983124 3.1528925001621246 0.90639104694128025 0.75956441834568966 1.0206257924437525 1.2174859102815387 0.64696797356009483
leaf_count=20 25 28 21 14 27 16 21 31 35 20
internal_value=-0.00212431 0.0122406 0.000921414 0.0108182 -0.00825902 -0.0520908 -0.0518329 -0.0518056 -0.0518443 -0.0517387
internal_weight=23.299 18.0965 14.1654 9.3288 5.99106 5.20256 4.29617 3.5366 2.23811 1.29849
internal_count=258 115 87 66 52 143 127 106 66 40
is_linear=0
shrinkage=0.05


Tree=37
num_leaves=11
num_cat=0
split_feature=0 0 0 0 0 12 5 12 0 0
split_gain=6.30932 3.13825 0.969096 2.18662 0.834867 0.000560728 5.12681e-06 3.14344e-06 2.30113e-06 1.8429e-08
threshold=0.033750000000000009 0.61250000000000016 0.47550000000000003 0.31750000000000006 0.13000000000000003 0.54000000000000015 0.55000000000000016 0.31000000000000005 0.00075000000000000012 0.0042500000000000012
decision_type=2 2 2 2 2 2 2 2 2 2
left_child=5 2 3 4 -2 6 7 9 -9 -1
right_child=1 -3 -4 -5 -6 -7 -8 8 -10 -11
leaf_value=-0.05165714118131725 0.011555706285556834 0.051996278953687941 -0.017343080276698338 0.042562300708266519 -0.025910617822660145 -0.053141547007937578 -0.051861124695383093 -0.051694515605783767 -0.051798794222165101 -0.051644936324885066
leaf_weight=0.62077707797289183 2.8633467927575129 3.8117024302482596 4.8137599080801001 3.3564753085374832 3.0930221006274223 0.86489570513367642 0.72386758401989926 0.97249643318355117 1.1601946819573639 0.61642941646277905
leaf_count=20 25 28 21 14 27 16 21 31 35 20
internal_value=-0.00206406 0.0117355 0.000872097 0.0102874 -0.0078998 -0.0519848 -0.0517404 -0.0517145 -0.0517512 -0.0516511
internal_weight=22.897 17.9383 14.1266 9.31284 5.95637 4.95866 4.09377 3.3699 2.13269 1.23721
internal_count=258 115 87 66 52 143 127 106 66 40
is_linear=0
shrinkage=0.05


Tree=38
num_leaves=10
num_cat=0
split_feature=0 0 4 12 12 5 12 0 0
split_gain=5.95289 2.94654 0.916194 0.714779 0.00047963 4.38769e-06 2.69536e-06 1.97001e-06 1.57782e-08
threshold=0.033750000000000009 0.61250000000000016 1.0000000180025095e-35 0.54000000000000015 0.54000000000000015 0.55000000000000016 0.31000000000000005 0.00075000000000000012 0.0042500000000000012
decision_type=2 2 2 2 2 2 2 2 2
left_child=4 2 3 -2 5 6 8 -8 -1
right_child=1 -3 -4 -5 -6 -7 7 -9 -10
leaf_value=-0.051573715086275257 -0.025496851561526514 0.050987432873749232 0.017360332974588777 0.0032620541022341087 -0.052979535074123278 -0.051767092697773222 -0.051609216553735827 -0.051708061979892556 -0.051562145273189586
leaf_weight=0.59143251553178167 3.7685209885239619 3.6957271248102179 5.2534226700663558 5.0636439621448517 0.82516653090715397 0.68978332355618466 0.92655758000910315 1.1054989416152237 0.58728354424238205
leaf_count=20 28 28 37 22 16 21 31 35 20
internal_value=-0.00200479 0.0112517 0.000825924 -0.00900884 -0.0518844 -0.0516527 -0.0516281 -0.051663 -0.051568
internal_weight=22.507 17.7813 14.0856 8.83216 4.72572 3.90056 3.21077 2.03206 1.17872
internal_count=258 115 87 50 143 127 106 66 40
is_linear=0
shrinkage=0.05


Tree=39
num_leaves=8
num_cat=0
split_feature=12 5 12 4 12 12 12
split_gain=2.37234 0.966717 1.0142 0.739143 0.470032 0.403967 0.248967
threshold=0.54000000000000015 0.55000000000000016 0.32500000000000007 1.0000000180025095e-35 0.41000000000000009 0.44000000000000006 0.62500000000000011
decision_type=2 2 2 2 2 2 2
left_child=1 2 3 -1 -4 -6 -2
right_child=6 -3 4 -5 5 -7 -8
leaf_value=-0.03780615912000327 0.01110244802522049 0.012293910302866739 -0.060425003469691513 0.0081600734690458875 -0.01174526964730057 -0.043066034111007089 0.028370681099472567
leaf_weight=1.2238016407936827 6.8182069994509202 2.3533746916800728 1.5706930272281168 3.0646267663687468 1.9487593080848453 2.182407533749938 3.0082379654049873
leaf_count=23 40 34 30 50 29 25 27
internal_value=-0.00194263 -0.0165358 -0.0233272 -0.00495745 -0.0371432 -0.0282914 0.0163889
internal_weight=22.1701 12.3437 9.99029 4.28843 5.70186 4.13117 9.82644
internal_count=258 191 157 73 84 54 67
is_linear=0
shrinkage=0.05


Tree=40
num_leaves=8
num_cat=0
split_feature=0 0 0 0 4 0 0
split_gain=5.74203 2.00479 1.22795 1.3468 2.05858e-05 2.69948e-05 2.40033e-07
threshold=0.033750000000000009 0.61250000000000016 0.43750000000000006 0.18250000000000002 1.0000000180025095e-35 0.0027500000000000003 0.0052500000000000003
decision_type=2 2 2 2 2 2 2
left_child=4 2 3 -2 6 -6 -1
right_child=1 -3 -4 -5 5 -7 -8
leaf_value=-0.051596550587550687 -0.0024587009230867722 0.047879415822748773 -0.011838249528340679 0.041544061493718518 -0.051704344283506301 -0.052011769355466232 -0.051551734751810102
leaf_weight=0.62447537109256035 3.5749925002455729 3.3714692667126647 6.0598253458738327 3.3858983740210533 1.9009646829217675 1.1436792742460964 0.57285858877003193
leaf_count=21 31 28 26 22 63 34 20
internal_value=9.86152e-05 0.0135162 0.00461852 0.018945 -0.0517508 -0.0518198 -0.0515751
internal_weight=20.6342 16.3922 13.0207 6.96089 4.24198 3.04464 1.19733
internal_count=245 107 79 53 138 97 41
is_linear=0
shrinkage=0.05


Tree=41
num_leaves=8
num_cat=0
split_feature=12 5 12 12 4 12 12
split_gain=3.11819 2.18744 0.35584 0.761381 0.640671 0.144735 0.022756
threshold=0.56000000000000016 0.55000000000000016 0.46500000000000002 0.32500000000000007 1.0000000180025095e-35 0.31000000000000005 0.36500000000000005
decision_type=2 2 2 2 2 2 2
left_child=1 2 3 5 -5 -1 -6
right_child=-2 -3 -4 4 6 -7 -8
leaf_value=-0.02284711049963975 0.033506346972011783 0.02986530659801126 -0.0099976914244765073 -0.011394884767834965 -0.063061234694169965 -0.0031828659185145535 -0.053433899210835557
leaf_weight=1.6402281280607005 5.1978294402360907 2.6536989305168381 5.130550142377615 1.0699890349060299 1.0909572448581459 2.178669162094593 1.4033528100699184
leaf_count=45 36 32 31 19 20 24 38
internal_value=8.5201e-05 -0.0113681 -0.0201122 -0.0271407 -0.0437607 -0.0116287 -0.0576447
internal_weight=20.3653 15.1674 12.5137 7.3832 3.5643 3.8189 2.49431
internal_count=245 209 177 146 77 69 58
is_linear=0
shrinkage=0.05


Tree=42
num_leaves=10
num_cat=0
split_feature=0 0 0 12 12 12 12 12 0
split_gain=5.2906 1.86545 1.1736 2.72454 0.000390802 6.46495e-06 1.19092e-05 3.68489e-06 1.25049e-07
threshold=0.033750000000000009 0.61250000000000016 0.43750000000000006 0.41000000000000009 0.54000000000000015 0.32500000000000007 0.19000000000000003 0.41000000000000009 0.0062500000000000012
decision_type=2 2 2 2 2 2 2 2 2
left_child=4 2 3 -2 5 6 8 -7 -1
right_child=1 -3 -4 -5 -6 7 -8 -9 -10
leaf_value=-0.051428367107604414 -0.013840323481222924 0.046871509272025179 -0.011798965787692633 0.048742194525345776 -0.052795403939719571 -0.051271493033958809 -0.05169356408677539 -0.051425252921681763 -0.051394910483208239
leaf_weight=0.56553433649242257 3.3851838782429713 3.2103851512074462 6.0475287139415741 3.5765086486935616 0.62954019010066975 0.62512486241757859 0.56474666111171234 1.0344416648149488 0.5517965666949749
leaf_count=21 30 28 26 23 13 26 18 39 21
internal_value=7.2989e-05 0.0127374 0.00431388 0.0183109 -0.0516526 -0.0514374 -0.0515064 -0.0513673 -0.0514118
internal_weight=20.1908 16.2196 13.0092 6.96169 3.97118 3.34164 1.68208 1.65957 1.11733
internal_count=245 107 79 53 138 125 60 65 42
is_linear=0
shrinkage=0.05


Tree=43
num_leaves=10
num_cat=0
split_feature=0 0 0 12 12 12 12 12 0
split_gain=4.97942 1.76296 1.055 2.4071 0.00033462 5.53799e-06 1.02051e-05 3.16057e-06 1.0712e-07
threshold=0.033750000000000009 0.61250000000000016 0.43750000000000006 0.41000000000000009 0.54000000000000015 0.32500000000000007 0.19000000000000003 0.41000000000000009 0.0062500000000000012
decision_type=2 2 2 2 2 2 2 2 2
left_child=4 2 3 -2 5 6 8 -7 -1
right_child=1 -3 -4 -5 -6 7 -8 -9 -10
leaf_value=-0.051356775831368863 -0.013284187697749434 0.045970633146596857 -0.011234717857710554 0.0454277316556519 -0.052652212420951652 -0.051207965661487012 -0.051608291228603047 -0.05135387947917025 -0.051325047763586477
leaf_weight=0.5386838819831643 3.3514378815889376 3.1121448948979369 6.0340474992990494 3.6437740921974182 0.6004245951771735 0.5953562445938585 0.53806886263191689 0.98532443307340145 0.52558155916631222
leaf_count=21 30 28 26 23 13 26 18 39 21
internal_value=5.8893e-05 0.0121603 0.00408438 0.0172986 -0.0515696 -0.0513653 -0.0514308 -0.0512989 -0.0513411
internal_weight=19.9248 16.1414 13.0293 6.99521 3.78344 3.18301 1.60233 1.58068 1.06427
internal_count=245 107 79 53 138 125 60 65 42
is_linear=0
shrinkage=0.05


Tree=44
num_leaves=8
num_cat=0
split_feature=12 5 12 12 4 12 12
split_gain=2.73323 1.89577 0.293148 0.824025 0.614668 0.117111 0.0237255
threshold=0.56000000000000016 0.55000000000000016 0.46500000000000002 0.32500000000000007 1.0000000180025095e-35 0.31000000000000005 0.36500000000000005
decision_type=2 2 2 2 2 2 2
left_child=1 2 3 5 -5 -1 -6
right_child=-2 -3 -4 4 6 -7 -8
leaf_value=-0.019889139454232194 0.032006817618480038 0.027705828402024603 -0.010057258332713785 -0.012303474830230258 -0.063887003677005672 -0.001605040203063233 -0.053663299691312533
leaf_weight=1.5008492674678584 4.9915858656167975 2.6220679376274338 5.0719001144170761 1.0717125143855812 1.0076859034597876 2.1027774941176176 1.2989525143057106
leaf_count=45 36 32 31 19 20 24 38
internal_value=4.60857e-05 -0.0108244 -0.0192058 -0.0258516 -0.0435922 -0.00922006 -0.0581297
internal_weight=19.6675 14.6759 12.0539 6.98198 3.37835 3.60363 2.30664
internal_count=245 209 177 146 77 69 58
is_linear=0
shrinkage=0.05


Tree=45
num_leaves=10
num_cat=0
split_feature=0 0 12 7 12 5 12 12 12
split_gain=8.88405 1.16642 0.956156 0.808774 0.000265653 1.57957e-05 6.79888e-06 5.43468e-06 2.07057e-06
threshold=0.31750000000000006 0.033750000000000009 0.32500000000000007 1.0000000180025095e-35 0.54000000000000015 0.55000000000000016 0.32500000000000007 0.12500000000000003 0.41000000000000009
decision_type=2 2 2 2 2 2 2 2 2
left_child=1 4 -3 -2 5 6 7 -1 -8
right_child=3 2 -4 -5 -6 -7 8 -9 -10
leaf_value=-0.051218072218558452 0.048002091963948612 0.0019482887616364874 -0.038704525278531396 0.021041864116402315 -0.052402490482873501 -0.051531364624413434 -0.051077844305171753 -0.05142349500022883 -0.051204070736916033
leaf_weight=0.71849929727614215 6.0840523689985275 3.3051433488726616 2.5719199255108833 5.1250481829047185 0.63177708163857449 0.51715784519910801 0.57516387477517106 0.58340344578027725 0.74661600776016712
leaf_count=31 29 28 24 34 15 18 28 22 33
internal_value=0.00539902 -0.02977 -0.0158422 0.0356753 -0.051467 -0.0512788 -0.051229 -0.0513101 -0.0511491
internal_weight=20.8588 9.64968 5.87706 11.2091 3.77262 3.14084 2.62368 1.3019 1.32178
internal_count=262 199 52 63 147 132 114 53 61
is_linear=0
shrinkage=0.05


Tree=46
num_leaves=10
num_cat=0
split_feature=0 0 12 7 12 5 12 12 12
split_gain=8.10504 1.16109 0.897928 0.710547 0.000227648 1.35385e-05 5.82965e-06 4.66134e-06 1.77692e-06
threshold=0.31750000000000006 0.033750000000000009 0.32500000000000007 1.0000000180025095e-35 0.54000000000000015 0.55000000000000016 0.32500000000000007 0.12500000000000003 0.41000000000000009
decision_type=2 2 2 2 2 2 2 2 2
left_child=1 4 -3 -2 5 6 7 -1 -8
right_child=3 2 -4 -5 -6 -7 8 -9 -10
leaf_value=-0.051157261064195728 0.04539377645978411 0.0018482497820647204 -0.037852000755967091 0.020109403702381259 -0.052280329215832561 -0.051454467582767983 -0.05102418613335602 -0.05135220052761539 -0.05114401519701859
leaf_weight=0.6842496134340792 6.1112189441919327 3.3097153827548027 2.5001925230026245 5.095335476100443 0.60233372449874867 0.4926523845642804 0.54767364636063554 0.55570154637098312 0.71101601980626583
leaf_count=31 29 28 24 34 15 18 28 22 33
internal_value=0.00517544 -0.0290539 -0.0152361 0.0338976 -0.0513935 -0.0512149 -0.0511677 -0.0512446 -0.0510919
internal_weight=20.6101 9.40353 5.80991 11.2066 3.59363 2.99129 2.49864 1.23995 1.25869
internal_count=262 199 52 63 147 132 114 53 61
is_linear=0
shrinkage=0.05


Tree=47
num_leaves=10
num_cat=0
split_feature=0 4 0 7 0 12 5 12 0
split_gain=7.39649 1.20407 1.87486 0.626328 0.00940176 0.000196056 7.77618e-05 6.06674e-06 1.84325e-08
threshold=0.31750000000000006 1.0000000180025095e-35 0.033750000000000009 1.0000000180025095e-35 0.046500000000000007 0.54000000000000015 0.55000000000000016 0.32500000000000007 0.00075000000000000012
decision_type=2 2 2 2 2 2 2 2 2
left_child=1 4 5 -2 6 7 -1 -3 -9
right_child=3 2 -4 -5 -6 -7 -8 8 -10
leaf_value=-0.051159522320652275 0.042971216921169168 -0.051210288690651244 0.0051948324791211524 0.019214619646945506 -0.057308121913026935 -0.052220037979475442 -0.051961397547987377 -0.051021808641133148 -0.05103556465746039
leaf_weight=0.63167948462069234 6.1323812901973724 0.84263111092150234 3.9139717742800713 5.0667311996221525 1.6991656646132467 0.50993435084819783 0.57988663204014301 0.55998445302248001 0.43091632984578609
leaf_count=29 29 37 33 34 17 13 19 29 22
internal_value=0.00496069 -0.028341 -0.0159828 0.0322232 -0.0549086 -0.0513528 -0.0515433 -0.0511117 -0.0510278
internal_weight=20.3673 9.16817 6.25744 11.1991 2.91073 2.34347 1.21157 1.83353 0.990901
internal_count=262 199 134 63 65 101 48 88 51
is_linear=0
shrinkage=0.05


Tree=48
num_leaves=10
num_cat=0
split_feature=0 0 12 12 12 5 12 12 12
split_gain=6.75322 1.14437 0.835853 0.558135 0.000167313 9.90107e-06 4.28906e-06 3.43935e-06 1.31292e-06
threshold=0.31750000000000006 0.033750000000000009 0.32500000000000007 0.59500000000000008 0.54000000000000015 0.55000000000000016 0.32500000000000007 0.12500000000000003 0.41000000000000009
decision_type=2 2 2 2 2 2 2 2 2
left_child=1 4 -3 -2 5 6 7 -1 -8
right_child=3 2 -4 -5 -6 -7 8 -9 -10
leaf_value=-0.051044677316076981 0.022912687285259498 0.0022805668299501255 -0.036554305022133547 0.046776747724788403 -0.052054969871386705 -0.05131174230667726 -0.050924792312826789 -0.051220504831886615 -0.051032969619172024
leaf_weight=0.62040686793625643 7.5632418245077115 3.2861559987068176 2.3956609107553959 3.6242123767733574 0.54732232727110375 0.4467694368213414 0.49644890800118424 0.50412524119019508 0.64475023001432419
leaf_count=31 35 28 24 28 15 18 28 22 33
internal_value=0.00475209 -0.0276423 -0.0140936 0.0306435 -0.0512575 -0.0510966 -0.0510542 -0.0511235 -0.0509859
internal_weight=20.1291 8.94164 5.68182 11.1875 3.25982 2.7125 2.26573 1.12453 1.1412
internal_count=262 199 52 63 147 132 114 53 61
is_linear=0
shrinkage=0.05


Tree=49
num_leaves=8
num_cat=0
split_feature=12 7 12 4 12 12 12
split_gain=2.27025 1.17613 1.59017 1.49871 1.16988 0.954296 0.10086
threshold=0.62500000000000011 1.0000000180025095e-35 0.52500000000000013 1.0000000180025095e-35 0.46500000000000002 0.32500000000000007 0.41000000000000009
decision_type=2 2 2 2 2 2 2
left_child=1 2 -1 -3 5 -5 -7
right_child=-2 3 -4 4 -6 6 -8
leaf_value=-0.017115869679897592 0.049142135853410214 -0.041827382568553992 0.034359316938287698 0.0042690990401559803 0.028520644429773589 -0.053171500855060096 -0.030688345214859653
leaf_weight=2.3933475762605712 2.4973083622753611 3.0134743098169565 4.0210297424346209 3.2341346982866526 2.426087386906147 0.74176200851798091 1.5230498090386388
leaf_count=38 25 39 18 55 23 25 39
internal_value=0.00456887 -0.00184581 0.0151528 -0.0118138 -0.000401268 -0.0131614 -0.0380519
internal_weight=19.8502 17.3529 6.41438 10.9385 7.92503 5.49895 2.26481
internal_count=262 237 56 181 142 119 64
is_linear=0
shrinkage=0.05


Tree=50
num_leaves=10
num_cat=0
split_feature=0 0 0 4 12 5 12 12 12
split_gain=3.73402 2.5381 1.20744 0.33565 0.00013621 9.34482e-06 5.24241e-06 2.40225e-06 1.02471e-06
threshold=0.67500000000000016 0.033750000000000009 0.49000000000000005 1.0000000180025095e-35 0.54000000000000015 0.55000000000000016 0.32500000000000007 0.12500000000000003 0.41000000000000009
decision_type=2 2 2 2 2 2 2 2 2
left_child=1 4 3 -3 5 6 7 -1 -8
right_child=-2 2 -4 -5 -6 -7 8 -9 -10
leaf_value=-0.050987104199915118 0.056475949804195763 0.0024866138998569176 -0.021789418629391051 0.02109023164284525 -0.051959706940921183 -0.051236109622011354 -0.050835699104923499 -0.051144872054447926 -0.050937263421951533
leaf_weight=0.58654891513288709 2.579306185245513 6.056319095194338 4.266548588871955 4.0431804284453392 0.45399464666843403 0.39844888262450684 0.46563308965414762 0.4098897147923708 0.53219188190996647
leaf_count=31 29 37 18 31 13 17 29 19 30
internal_value=0.000372913 -0.00803404 0.000512718 0.00993429 -0.0511657 -0.051015 -0.0509709 -0.051052 -0.0508899
internal_weight=19.7921 17.2128 14.366 10.0995 2.84671 2.39271 1.99426 0.996439 0.997825
internal_count=254 225 86 68 139 126 109 50 59
is_linear=0
shrinkage=0.05


Tree=51
num_leaves=11
num_cat=0
split_feature=0 0 0 0 12 12 5 12 12 12
split_gain=3.51439 2.4291 1.08981 0.297319 0.417554 0.000116826 8.01642e-06 4.49841e-06 2.06178e-06 8.80124e-07
threshold=0.67500000000000016 0.033750000000000009 0.49000000000000005 0.3897500000000001 0.32500000000000007 0.54000000000000015 0.55000000000000016 0.32500000000000007 0.12500000000000003 0.41000000000000009
decision_type=2 2 2 2 2 2 2 2 2 2
left_child=1 5 3 4 -3 6 7 8 -1 -9
right_child=-2 2 -4 -5 -6 -7 -8 9 -10 -11
leaf_value=-0.050938041302297926 0.056134524593270042 0.016061907369589769 -0.020760549506643307 0.018918174642582386 -0.011223684180012088 -0.05186082474499748 -0.051174386026750798 -0.050794286761291843 -0.051087825300135947 -0.050890755848627983
leaf_weight=0.55846642330289575 2.4680570214986792 2.6649301722645742 4.2544087916612616 4.5297256112098694 2.9589240029454231 0.43265569396316994 0.37946192175149907 0.44327589590102434 0.39032355509698391 0.50668754242360592
leaf_count=31 29 22 18 19 27 13 17 29 19 30
internal_value=0.000355398 -0.00768638 0.000483351 0.00938467 0.00170592 -0.0511076 -0.0509646 -0.0509227 -0.0509997 -0.0508457
internal_weight=19.5869 17.1189 14.408 10.1536 5.62385 2.71087 2.27822 1.89875 0.94879 0.949963
internal_count=254 225 86 68 49 139 126 109 50 59
is_linear=0
shrinkage=0.05


Tree=52
num_leaves=11
num_cat=0
split_feature=0 0 0 0 12 12 5 12 12 12
split_gain=3.30989 2.32332 0.985153 0.268563 0.375011 0.000100218 6.87789e-06 3.86062e-06 1.76972e-06 7.56026e-07
threshold=0.67500000000000016 0.033750000000000009 0.49000000000000005 0.3897500000000001 0.32500000000000007 0.54000000000000015 0.55000000000000016 0.32500000000000007 0.12500000000000003 0.41000000000000009
decision_type=2 2 2 2 2 2 2 2 2 2
left_child=1 5 3 4 -3 6 7 8 -1 -9
right_child=-2 2 -4 -5 -6 -7 -8 9 -10 -11
leaf_value=-0.05089146268493927 0.055812490473327682 0.015084788290194953 -0.019781484887083763 0.017967007640044989 -0.010742802501040316 -0.05176709017202339 -0.051115810978193267 -0.050754957005255646 -0.051033676740636746 -0.050846593560926058
leaf_weight=0.5317036574706504 2.3608915507793418 2.6948772370815259 4.2420487701892844 4.5310146510601044 2.9373689219355583 0.41228120960295189 0.36135853454470623 0.42197557352483273 0.37167125474661589 0.48238415457308292
leaf_count=31 29 22 18 19 27 13 17 29 19 30
internal_value=0.000339705 -0.00737017 0.000457528 0.0089051 0.001615 -0.0510525 -0.0509167 -0.0508769 -0.05095 -0.0508038
internal_weight=19.3476 16.9867 14.4053 10.1633 5.63225 2.58137 2.16909 1.80773 0.903375 0.90436
internal_count=254 225 86 68 49 139 126 109 50 59
is_linear=0
shrinkage=0.05


Tree=53
num_leaves=11
num_cat=0
split_feature=0 0 0 0 12 12 5 12 12 12
split_gain=3.11845 2.22169 0.890622 0.242629 0.336963 8.59857e-05 5.90214e-06 3.31356e-06 1.51932e-06 6.49479e-07
threshold=0.67500000000000016 0.033750000000000009 0.49000000000000005 0.3897500000000001 0.32500000000000007 0.54000000000000015 0.55000000000000016 0.32500000000000007 0.12500000000000003 0.41000000000000009
decision_type=2 2 2 2 2 2 2 2 2 2
left_child=1 5 3 4 -3 6 7 8 -1 -9
right_child=-2 2 -4 -5 -6 -7 -8 9 -10 -11
leaf_value=-0.050847232430658286 0.055508591059525561 0.01417786691324102 -0.018849345503246222 0.017066439139898675 -0.010279487344128667 -0.051678220307454587 -0.051060221277917976 -0.050717604144322519 -0.05098227476424682 -0.050804655569454453
leaf_weight=0.50620099715889189 2.2577333785593501 2.7231472134590131 4.2295601963996878 4.5315856635570526 2.9168111272156239 0.39283140376210202 0.34409965574741352 0.4016837514936924 0.35389209166169167 0.45922722015529871
leaf_count=31 29 22 18 19 27 13 17 29 19 30
internal_value=0.000324699 -0.00706543 0.000433209 0.00845134 0.00152928 -0.0510002 -0.0508712 -0.0508334 -0.0509028 -0.050764
internal_weight=19.1168 16.859 14.4011 10.1715 5.63996 2.45794 2.0651 1.721 0.860093 0.860911
internal_count=254 225 86 68 49 139 126 109 50 59
is_linear=0
shrinkage=0.05


Tree=54
num_leaves=9
num_cat=0
split_feature=0 0 0 0 5 0 0 0
split_gain=2.93914 2.12409 0.81321 0.661067 6.41158e-06 4.20356e-06 1.12635e-05 5.68734e-07
threshold=0.67500000000000016 0.033750000000000009 0.43750000000000006 0.14250000000000004 0.45000000000000007 0.0037500000000000003 0.010750000000000001 0.00075000000000000012
decision_type=2 2 2 2 2 2 2 2
left_child=1 4 3 -3 -1 7 -7 -6
right_child=-2 2 -4 -5 5 6 -8 -9
leaf_value=-0.050754335244984287 0.055221678442004131 -0.006030616848196434 -0.011297288242192505 0.025069982375021196 -0.050954781814668559 -0.051190967063309556 -0.050828073012182756 -0.050881200522387197
leaf_weight=0.35366109386086941 2.158498413860797 2.8718352615833265 7.3053472191095352 4.2184286937117577 0.5089432923123256 0.60413645487278689 0.33096094708889723 0.54258063249289989
leaf_count=25 29 26 31 29 30 30 21 33
internal_value=0.000310344 -0.0067718 0.00041029 0.012473 -0.0509505 -0.0509854 -0.0510625 -0.0509168
internal_weight=18.8944 16.7359 14.3956 7.09026 2.34028 1.98662 0.935097 1.05152
internal_count=254 225 86 55 139 114 51 63
is_linear=0
shrinkage=0.05


Tree=55
num_leaves=11
num_cat=0
split_feature=0 12 0 0 12 4 0 0 12 12
split_gain=3.50216 1.53284 2.31047 3.07943 0.743517 0.755309 0.520609 0.00455043 1.17227e-05 1.47116e-06
threshold=0.67500000000000016 0.56000000000000016 0.45750000000000007 0.18250000000000002 0.32500000000000007 1.0000000180025095e-35 0.056250000000000001 0.033750000000000009 0.44000000000000006 0.41000000000000009
decision_type=2 2 2 2 2 2 2 2 2 2
left_child=1 2 3 4 5 -1 -7 8 9 -6
right_child=-2 -3 -4 -5 7 6 -8 -9 -10 -11
leaf_value=-0.054393558235607466 0.054934208431835434 0.014672954570845312 -0.057000096909863768 0.030836305517496887 -0.050664326488310978 -0.022946882468647564 0.021006799341936989 -0.055273292143678057 -0.051045838882606033 -0.050805629662157958
leaf_weight=0.99032478500158161 1.9371775425970543 3.2092964462935916 3.7472067773342124 3.0279790982604027 0.37085144687443994 1.5160826211795213 1.2124670445919035 1.0987494587898252 0.51279592607170343 0.36599329020828009
leaf_count=33 27 18 16 19 29 41 8 13 28 24
internal_value=-0.00857138 -0.0162354 -0.0239594 -0.0103467 -0.0308999 -0.0169908 -0.00341548 -0.0529261 -0.0508623 -0.0507345
internal_weight=17.9889 16.0517 12.8425 9.09524 6.06726 3.71887 2.72855 2.34839 1.24964 0.736845
internal_count=256 229 211 195 176 82 49 94 81 53
is_linear=0
shrinkage=0.05


Tree=56
num_leaves=11
num_cat=0
split_feature=0 12 0 0 12 4 0 0 12 12
split_gain=3.27716 1.40637 2.10699 2.82597 0.735167 0.727328 0.472705 0.00388219 1.00724e-05 1.26377e-06
threshold=0.67500000000000016 0.56000000000000016 0.45750000000000007 0.18250000000000002 0.32500000000000007 1.0000000180025095e-35 0.056250000000000001 0.033750000000000009 0.44000000000000006 0.41000000000000009
decision_type=2 2 2 2 2 2 2 2 2 2
left_child=1 2 3 4 5 -1 -7 8 9 -6
right_child=-2 -3 -4 -5 7 6 -8 -9 -10 -11
leaf_value=-0.054179744489461883 0.054678430272169079 0.01393833834541177 -0.05486047960847823 0.029028951737681774 -0.05063151900180738 -0.022213566594317679 0.019689845822044871 -0.054990665676673323 -0.050993955879625796 -0.050765752580697925
leaf_weight=0.9456497784703991 1.8511021621525277 3.2095130719244471 3.6998922973871222 3.0549587309360504 0.35298762284219287 1.4885381227359178 1.2284584343433378 1.0503984950482843 0.48827034328132868 0.34841015841811895
leaf_count=33 27 18 16 19 29 41 8 13 28 24
internal_value=-0.0082784 -0.0156231 -0.0231189 -0.0100083 -0.0302121 -0.0164124 -0.00326743 -0.0527755 -0.0508196 -0.0506982
internal_weight=17.7182 15.8671 12.6576 8.95767 5.90271 3.66265 2.717 2.24007 1.18967 0.701398
internal_count=256 229 211 195 176 82 49 94 81 53
is_linear=0
shrinkage=0.05


Tree=57
num_leaves=10
num_cat=0
split_feature=0 0 12 4 12 9 12 12 12
split_gain=3.06803 1.35048 0.430999 1.4548 0.000123285 3.08324e-06 2.75747e-06 1.14968e-06 3.76349e-07
threshold=0.67500000000000016 0.033750000000000009 0.54000000000000015 1.0000000180025095e-35 0.54000000000000015 5.5000000000000009 0.32500000000000007 0.060000000000000012 0.41000000000000009
decision_type=2 2 2 2 2 2 2 2 2
left_child=1 4 3 -3 5 6 7 -1 -8
right_child=-2 2 -4 -5 -6 -7 8 -9 -10
leaf_value=-0.050714071097760965 0.054436704147959425 -0.046810810835808958 -0.000175090360285168 0.00096457742265747325 -0.051671684291641352 -0.05086363534609975 -0.050589218927056617 -0.050841242594926887 -0.050661276986387116
leaf_weight=0.42681504879147103 1.768444038927554 2.650188956409691 6.7907589673995972 3.9960961118340492 0.42967594973742951 0.34855218790471543 0.32002879586070776 0.30451920162886381 0.41771897859871387
leaf_count=31 27 21 29 32 15 21 28 19 33
internal_value=-0.00799495 -0.0150343 -0.00903413 -0.0180857 -0.05091 -0.0507299 -0.0506982 -0.050767 -0.05063
internal_weight=17.4528 15.6844 13.437 6.64629 2.24731 1.81763 1.46908 0.731334 0.737748
internal_count=256 229 82 53 147 132 111 50 61
is_linear=0
shrinkage=0.05


Tree=58
num_leaves=10
num_cat=0
split_feature=0 0 12 4 12 5 12 12 12
split_gain=2.87279 1.31591 0.395557 1.36328 0.000105858 2.64748e-06 2.36835e-06 9.87414e-07 3.23442e-07
threshold=0.67500000000000016 0.033750000000000009 0.54000000000000015 1.0000000180025095e-35 0.54000000000000015 0.55000000000000016 0.32500000000000007 0.060000000000000012 0.41000000000000009
decision_type=2 2 2 2 2 2 2 2 2
left_child=1 4 3 -3 5 6 7 -1 -8
right_child=-2 2 -4 -5 -6 -7 8 -9 -10
leaf_value=-0.050678768720713807 0.054208178502661554 -0.045699977031511921 -0.00016633708979952992 0.00091576474722409912 -0.051587958135937133 -0.050820815750282182 -0.050560156709520868 -0.050799562608223374 -0.050628628950113996
leaf_weight=0.40627471730113318 1.6891083382070053 2.5806591510772687 6.7907223701477051 3.9985786154866219 0.40936700254678715 0.33182540908455838 0.30459137260913849 0.28989929705858231 0.39759634993970394
leaf_count=31 27 21 29 32 15 21 28 19 33
internal_value=-0.00771391 -0.0144577 -0.00863158 -0.0173689 -0.0508649 -0.0506938 -0.0506637 -0.0507291 -0.0505989
internal_weight=17.1986 15.5095 13.37 6.57924 2.13955 1.73019 1.39836 0.696174 0.702188
internal_count=256 229 82 53 147 132 111 50 61
is_linear=0
shrinkage=0.05


Tree=59
num_leaves=10
num_cat=0
split_feature=0 0 12 4 12 5 12 12 12
split_gain=2.6909 1.28084 0.362911 1.27714 9.09069e-05 2.27357e-06 2.03432e-06 8.48165e-07 2.77979e-07
threshold=0.67500000000000016 0.033750000000000009 0.54000000000000015 1.0000000180025095e-35 0.54000000000000015 0.55000000000000016 0.32500000000000007 0.060000000000000012 0.41000000000000009
decision_type=2 2 2 2 2 2 2 2 2
left_child=1 4 3 -3 5 6 7 -1 -8
right_child=-2 2 -4 -5 -6 -7 8 -9 -10
leaf_value=-0.050645231887606036 0.053992052782233638 -0.044610901909530959 -0.00015801959329772195 0.00086945101861761855 -0.051508532120532594 -0.050780150990907637 -0.050532543898318495 -0.050759978059328414 -0.050597610499583182
leaf_weight=0.38670991640538266 1.612998530268668 2.5132065266370756 6.7906874865293503 4.0009360983967781 0.38998723775148381 0.31588848214596499 0.28989061061292887 0.27597036492079496 0.37843135464936495
leaf_count=31 27 21 29 32 15 21 28 19 33
internal_value=-0.00743983 -0.0138987 -0.00824594 -0.0166772 -0.0508221 -0.0506596 -0.0506309 -0.050693 -0.0505694
internal_weight=16.9547 15.3417 13.3048 6.51414 2.03688 1.64689 1.331 0.66268 0.668322
internal_count=256 229 82 53 147 132 111 50 61
is_linear=0
shrinkage=0.05


Tree=60
num_leaves=9
num_cat=0
split_feature=0 4 0 0 4 0 0 0
split_gain=2.56213 0.761836 0.53376 0.173826 3.50874e-06 5.17664e-06 6.37418e-07 1.01171e-07
threshold=0.033750000000000009 1.0000000180025095e-35 0.49000000000000005 0.46800000000000003 1.0000000180025095e-35 0.0027500000000000003 0.00075000000000000012 0.0052500000000000003
decision_type=2 2 2 2 2 2 2 2
left_child=4 2 -2 -3 7 6 -6 -1
right_child=1 3 -4 -5 5 -7 -8 -9
leaf_value=-0.050675249585792864 -0.0099042090130095489 0.028981025217896396 0.01399288456917969 0.011632083103491933 -0.05075451128329618 -0.050922931233842998 -0.050660059226909859 -0.050632323115897854
leaf_weight=0.28425575420260663 5.260643716901539 4.2126694694161406 4.2039787508547306 2.1966623403131962 0.6138553386554122 0.55233314540237188 0.25193472020328045 0.2654320327565074
leaf_count=22 36 33 26 24 48 38 21 22
internal_value=0.00305312 0.00972426 0.000710358 0.023035 -0.0507618 -0.0508033 -0.050727 -0.0506545
internal_weight=17.8418 15.874 9.46462 6.40933 1.96781 1.41812 0.86579 0.549688
internal_count=270 119 62 57 151 107 69 44
is_linear=0
shrinkage=0.05


Tree=61
num_leaves=8
num_cat=0
split_feature=12 12 12 12 12 4 7
split_gain=1.77398 0.662333 1.16702 0.185625 0.106824 1.12885 0.010032
threshold=0.62500000000000011 0.46500000000000002 0.42500000000000004 0.41000000000000009 0.32500000000000007 1.0000000180025095e-35 1.0000000180025095e-35
decision_type=2 2 2 2 2 2 2
left_child=1 2 3 4 5 -1 -3
right_child=-2 6 -4 -5 -6 -7 -8
leaf_value=-0.044992334665225515 0.046368053471960116 0.0084554418269023879 -0.059322141935331724 0.014551952185681869 -0.021482999095019419 0.012786056601697435 0.0049517050202150525
leaf_weight=1.2160785971209436 2.073521312326192 4.6011965423822403 1.1776637667790053 1.0105353407561777 1.2688456838950513 2.7731700334697962 3.6745165809988958
leaf_count=38 29 20 35 22 41 53 32
internal_value=0.00289816 -0.00283494 -0.0136539 -0.00507442 -0.00884635 -0.00482705 0.00689974
internal_weight=17.7955 15.722 7.44629 6.26863 5.25809 3.98925 8.27571
internal_count=270 241 189 154 132 91 52
is_linear=0
shrinkage=0.05


Tree=62
num_leaves=11
num_cat=0
split_feature=0 12 4 0 12 12 12 12 0 0
split_gain=2.37023 1.12745 1.57784 0.0354599 0.0315348 6.59809e-05 1.80031e-06 8.11108e-07 5.27973e-07 4.92402e-08
threshold=0.033750000000000009 0.59500000000000008 1.0000000180025095e-35 0.20650000000000002 0.54000000000000015 0.54000000000000015 0.32500000000000007 0.27500000000000008 0.0032500000000000007 0.0037500000000000003
decision_type=2 2 2 2 2 2 2 2 2 2
left_child=5 2 4 -4 -2 6 7 9 -8 -1
right_child=1 -3 3 -5 -6 -7 8 -9 -10 -11
leaf_value=-0.050616937184320067 -0.0092837895814256166 0.035505786160161118 0.019342030070274411 0.027566959604480901 -0.015930915773168776 -0.05133007020561367 -0.050490356337349329 -0.050710250445770905 -0.050579069782256195 -0.050586398357105426
leaf_weight=0.23968366254121309 3.2121816314756853 3.2061989456415168 3.163889043033123 2.236922912299633 4.0138683766126633 0.36778980586677779 0.4364931033924222 0.24349719937890768 0.27236865181475878 0.29377854056656361
leaf_count=20 29 32 26 15 17 16 46 18 25 26
internal_value=0.00276476 0.00902757 0.00230424 0.0227487 -0.0129761 -0.0507305 -0.0505821 -0.0506346 -0.0505244 -0.0506001
internal_weight=17.6867 15.8331 12.6269 5.40081 7.22605 1.85361 1.48582 0.776959 0.708862 0.533462
internal_count=270 119 87 41 46 151 135 64 71 46
is_linear=0
shrinkage=0.05


Tree=63
num_leaves=11
num_cat=0
split_feature=0 12 0 12 0 12 12 12 0 0
split_gain=2.23141 1.03721 0.661872 2.02606 0.111356 5.66891e-05 1.54668e-06 6.96925e-07 4.5388e-07 4.22819e-08
threshold=0.033750000000000009 0.59500000000000008 0.45750000000000007 0.44000000000000006 0.13000000000000003 0.54000000000000015 0.32500000000000007 0.27500000000000008 0.0032500000000000007 0.0037500000000000003
decision_type=2 2 2 2 2 2 2 2 2 2
left_child=5 2 3 4 -2 6 7 9 -8 -1
right_child=1 -3 -4 -5 -6 -7 8 -9 -10 -11
leaf_value=-0.050586488321616663 0.00010772525774168695 0.034191934562151194 -0.010821691506836928 0.049222198281625447 -0.015352110451764784 -0.051263859216322344 -0.05046621981348523 -0.050675150349484104 -0.050550533664223976 -0.050557481324092352
leaf_weight=0.22812791820615774 2.5459570661187154 3.1640240289270869 5.5163202732801437 2.4378206580877304 2.1470734030008316 0.35029293131083239 0.41539866011589766 0.23177808709442616 0.25922764092683792 0.27960660308599472
leaf_count=20 24 32 29 15 19 16 46 18 25 26
internal_value=0.00263708 0.00858855 0.00218319 0.0122436 -0.00696519 -0.0506944 -0.0505534 -0.0506033 -0.0504986 -0.0505705
internal_weight=17.5756 15.8112 12.6472 7.13085 4.69303 1.76443 1.41414 0.739513 0.674626 0.507735
internal_count=270 119 87 58 43 151 135 64 71 46
is_linear=0
shrinkage=0.05


Tree=64
num_leaves=11
num_cat=0
split_feature=0 12 4 12 0 12 12 12 0 0
split_gain=2.1022 0.953088 1.37905 0.034105 0.02211 4.87103e-05 1.32887e-06 5.98875e-07 3.90214e-07 3.63138e-08
threshold=0.033750000000000009 0.59500000000000008 1.0000000180025095e-35 0.54000000000000015 0.16600000000000004 0.54000000000000015 0.32500000000000007 0.27500000000000008 0.0032500000000000007 0.0037500000000000003
decision_type=2 2 2 2 2 2 2 2 2 2
left_child=5 2 3 -2 -4 6 7 9 -8 -1
right_child=1 -3 4 -5 -6 -7 8 -9 -10 -11
leaf_value=-0.050557559207077787 -0.0084804009734698507 0.032917267926458812 0.023903081900058548 -0.015417618137106924 0.017513829490288884 -0.051201009501477629 -0.050443282481422352 -0.050641806729557606 -0.050523418963622481 -0.050530004224375716
leaf_weight=0.21712302695960051 3.1869404800236207 3.1232758909463874 2.9829908236861229 3.9895972907543182 2.479527972638607 0.33360765315592278 0.39531457517296076 0.2206156412139535 0.24671396287158132 0.26611100416630507
leaf_count=20 29 32 24 17 17 16 46 18 25 26
internal_value=0.00251802 0.00818418 0.00207231 -0.012337 0.0210029 -0.0506602 -0.0505261 -0.0505735 -0.0504741 -0.0505424
internal_weight=17.4418 15.7623 12.6391 7.17654 5.46252 1.67949 1.34588 0.70385 0.642029 0.483234
internal_count=270 119 87 46 41 151 135 64 71 46
is_linear=0
shrinkage=0.05


Tree=65
num_leaves=11
num_cat=0
split_feature=0 7 12 0 0 0 12 12 12 12
split_gain=3.14742 0.821224 1.99139 1.47239 2.8543 0.00725727 3.12108e-05 1.11285e-06 4.43433e-07 1.63394e-07
threshold=0.61250000000000016 1.0000000180025095e-35 0.54000000000000015 0.066500000000000017 0.033750000000000009 0.29875000000000002 0.54000000000000015 0.32500000000000007 0.060000000000000012 0.41000000000000009
decision_type=2 2 2 2 2 2 2 2 2 2
left_child=1 2 -1 4 6 -5 7 8 -3 -9
right_child=-2 3 -4 5 -6 -7 -8 9 -10 -11
leaf_value=-0.041419087932842928 0.056579152218343746 -0.050503619752974585 0.016710610633452232 -0.041216879916561144 0.058819061380555329 -0.037656866766865686 -0.051157548306608805 -0.050397821398427425 -0.050601336209695195 -0.050460532169522357
leaf_weight=2.175656064413487 1.7152000479400147 0.26298613660037717 4.5641000866889954 2.8468755334615707 1.2652636766433714 2.8795559331774712 0.2198830833658576 0.17131603555753827 0.20786687452346087 0.26383728766813874
leaf_count=42 27 27 20 27 10 13 11 22 18 30
internal_value=-0.00755159 -0.0149551 -0.0020542 -0.0256664 0.0072875 -0.0394267 -0.0506232 -0.0504935 -0.0505468 -0.0504358
internal_weight=16.5725 14.8573 6.73976 8.11758 2.39115 5.72643 1.12589 0.906006 0.470853 0.435153
internal_count=247 220 62 158 118 40 108 97 45 52
is_linear=0
shrinkage=0.05


Tree=66
num_leaves=11
num_cat=0
split_feature=0 0 7 0 12 12 12 4 0 12
split_gain=2.9458 0.787332 0.585894 1.20449 2.70813e-05 7.62833e-07 4.09894e-07 3.82925e-07 4.62859e-08 7.00228e-09
threshold=0.61250000000000016 0.033750000000000009 1.0000000180025095e-35 0.21750000000000003 0.54000000000000015 0.32500000000000007 0.27500000000000008 1.0000000180025095e-35 0.0037500000000000003 0.42500000000000004
decision_type=2 2 2 2 2 2 2 2 2 2
left_child=1 4 -3 -4 5 6 8 -7 -1 -9
right_child=-2 2 3 -5 -6 7 -8 9 -10 -11
leaf_value=-0.050507141647430212 0.056264653229789567 0.00023488371702016917 0.001075355616308936 -0.040625000064117595 -0.051100085656125796 -0.050500095746629219 -0.050577945188281841 -0.050401046048636378 -0.050474636992934432 -0.050415221187460016
leaf_weight=0.22767846751958376 1.6404380053281773 6.3988960832357407 3.3102188222110254 3.6313061565160751 0.20938852801918972 0.16301393695175648 0.19952022004872561 0.19409605069085956 0.2110368269495666 0.158073958940804
leaf_count=23 27 33 29 21 11 17 18 25 23 20
internal_value=-0.00728644 -0.0143768 -0.0106788 -0.0207393 -0.050577 -0.050482 -0.0505185 -0.0504367 -0.0504915 -0.0504074
internal_weight=16.3437 14.7032 13.3404 6.94152 1.36281 1.15342 0.638236 0.515184 0.438715 0.35217
internal_count=247 220 83 50 137 126 64 62 46 45
is_linear=0
shrinkage=0.05


Tree=67
num_leaves=11
num_cat=0
split_feature=0 0 0 0 0 0 0 0 0 0
split_gain=2.75489 0.736697 1.77562 0.611323 2.70563 0.862707 2.51583e-06 7.27079e-06 1.78204e-07 2.53732e-09
threshold=0.61250000000000016 0.52250000000000008 0.47550000000000003 0.066500000000000017 0.033750000000000009 0.31750000000000006 0.0027500000000000003 0.0047500000000000007 0.010750000000000001 0.00075000000000000012
decision_type=2 2 2 2 2 2 2 2 2 2
left_child=1 2 3 4 6 -5 9 -8 -9 -1
right_child=-2 -3 -4 5 -6 -7 7 8 -10 -11
leaf_value=-0.050483696924335186 0.055965162184813726 -0.041303762281220235 0.025694421169996703 -0.044430926740740888 0.050440113979517288 -0.0094084625695066756 -0.050860965059723685 -0.050532091274920747 -0.050466951775641679 -0.050477498792385139
leaf_weight=0.36785964155569872 1.5685723945498455 2.082395687699317 2.8250454962253562 3.5473739989101887 1.3572246357798574 3.4866279065608978 0.20937200170010328 0.21520327869802713 0.20502421585842967 0.29959421092644334
leaf_count=42 27 9 13 35 11 15 17 22 23 33
internal_value=-0.00700061 -0.0137674 -0.00918498 -0.0193556 0.00109047 -0.0270709 -0.0505485 -0.0506202 -0.0505003 -0.0504809
internal_weight=16.1643 14.5957 12.5133 9.68828 2.65428 7.034 1.29705 0.629599 0.420227 0.667454
internal_count=247 220 211 198 148 50 137 62 45 75
is_linear=0
shrinkage=0.05


Tree=68
num_leaves=7
num_cat=0
split_feature=12 7 7 12 12 12
split_gain=0.710739 1.07653 0.846719 0.262909 0.151303 0.160353
threshold=0.52500000000000013 1.0000000180025095e-35 1.0000000180025095e-35 0.42500000000000004 0.41000000000000009 0.060000000000000012
decision_type=2 2 2 2 2 2
left_child=2 -2 3 -1 5 -4
right_child=1 -3 4 -5 -6 -7
leaf_value=-0.029485447279081756 0.017001695873800977 -0.018340583174874577 0.003770142076818743 -0.069160875664693519 0.0025189250639365886 -0.021162137996593625
leaf_weight=0.81932665267959126 5.2969046980142593 3.6320830611512047 0.85259879333898636 0.8514649118296802 1.8730587461031971 2.6473341481760144
leaf_count=32 27 41 34 9 45 59
internal_value=-0.00674242 0.00262536 -0.0186174 -0.0497047 -0.00895046 -0.0150885
internal_weight=15.9728 8.92899 7.04378 1.67079 5.37299 3.49993
internal_count=247 68 179 41 138 93
is_linear=0
shrinkage=0.05


Tree=69
num_leaves=12
num_cat=0
split_feature=0 0 0 0 0 0 12 12 12 12 0
split_gain=2.59424 0.698096 1.60663 0.581916 2.49526 0.824618 1.8909e-05 5.48065e-07 2.38323e-07 2.33291e-07 3.66221e-08
threshold=0.61250000000000016 0.52250000000000008 0.47550000000000003 0.066500000000000017 0.033750000000000009 0.31750000000000006 0.54000000000000015 0.32500000000000007 0.27500000000000008 0.41000000000000009 0.0037500000000000003
decision_type=2 2 2 2 2 2 2 2 2 2 2
left_child=1 2 3 4 6 -5 7 8 10 -9 -1
right_child=-2 -3 -4 5 -6 -7 -8 9 -10 -11 -12
leaf_value=-0.050454756316899878 0.055771089640663345 -0.039895484881505891 0.024548624813078054 -0.043438769656027901 0.047553904130712428 -0.0088286981560054545 -0.050975998528337688 -0.050341224181332057 -0.050510017008414433 -0.050415273957130913 -0.050424240386936839
leaf_weight=0.20456597628071749 1.5161910317838199 2.0650734752416602 2.8345752060413352 3.4090368635952473 1.3895104229450224 3.4757190644741058 0.18660092167556275 0.16712241247296333 0.17642788216471672 0.29255791194736958 0.18929524580016732
leaf_count=23 27 9 13 35 11 15 11 25 18 37 23
internal_value=-0.00643685 -0.0129911 -0.0084834 -0.0183489 0.00177438 -0.0259661 -0.0505129 -0.050429 -0.0504617 -0.0503884 -0.0504401
internal_weight=15.9067 14.3905 12.3254 9.49084 2.60608 6.88476 1.21657 1.02997 0.570289 0.45968 0.393861
internal_count=247 220 211 198 148 50 137 126 64 62 46
is_linear=0
shrinkage=0.05


Tree=70
num_leaves=12
num_cat=0
split_feature=5 4 12 12 12 0 0 12 0 0 0
split_gain=3.33794 1.48062 2.41664 1.44258 0.754601 0.981131 0.754452 0.0800182 0.0368104 0.361244 0.0104863
threshold=0.55000000000000016 1.0000000180025095e-35 0.46500000000000002 0.34000000000000002 0.56000000000000016 0.47550000000000003 0.086000000000000007 0.36500000000000005 0.40750000000000003 0.25500000000000006 0.21750000000000003
decision_type=2 2 2 2 2 2 2 2 2 2 2
left_child=1 4 3 6 5 8 -3 -5 9 -1 -9
right_child=-2 2 -4 7 -6 -7 -8 10 -10 -11 -12
leaf_value=-0.052295581805061712 0.056996221184077045 -0.019598382006898035 0.04438940323126004 -0.071824094988341955 -0.0073439895287110953 -0.063871323918286788 0.037990415354590912 -0.052816873492864284 -0.012065500632483038 0.0028268897531698602 -0.042845391146993629
leaf_weight=0.5882744188420459 1.9261470315977938 1.2967201396822936 2.3695435747504234 0.53871500864624966 2.6893612574785948 2.3022879287600517 1.0129961818456648 0.56397219840437152 1.2131166160106657 0.60075106471776962 0.49514017254114151
leaf_count=37 34 42 32 17 17 12 7 40 5 4 4
internal_value=-0.00462664 -0.0133089 0.00454968 -0.0196092 -0.0284703 -0.0405475 0.00565893 -0.0561353 -0.0181932 -0.0244451 -0.0481552
internal_weight=15.597 13.6709 6.27709 3.90754 7.39379 4.70443 2.30972 1.59783 2.40214 1.18903 1.05911
internal_count=251 217 142 110 75 58 49 61 46 41 44
is_linear=0
shrinkage=0.05


Tree=71
num_leaves=12
num_cat=0
split_feature=5 4 12 12 12 0 0 12 0 0 0
split_gain=2.99391 1.34909 2.18937 1.35812 0.70389 0.909803 0.670471 0.0769432 0.0360089 0.349388 0.0133934
threshold=0.55000000000000016 1.0000000180025095e-35 0.46500000000000002 0.34000000000000002 0.56000000000000016 0.47550000000000003 0.086000000000000007 0.36500000000000005 0.40750000000000003 0.25500000000000006 0.21750000000000003
decision_type=2 2 2 2 2 2 2 2 2 2 2
left_child=1 4 3 6 5 8 -3 -5 9 -1 -9
right_child=-2 2 -4 7 -6 -7 -8 10 -10 -11 -12
leaf_value=-0.052183012018662739 0.053526528222348616 -0.018895032451966661 0.042176849484575528 -0.070853802020519163 -0.0069724791567650629 -0.061823997085035325 0.035199062726875487 -0.052680456735695415 -0.011474209576193269 0.0026830193820231809 -0.041245425004181768
leaf_weight=0.56076061213388884 1.9478792082518346 1.2782203089445836 2.3691647779196501 0.51928175194188941 2.6909809615463018 2.2606690302491188 1.0379887223243711 0.53782107913866617 1.2118818759918211 0.60130249708890915 0.48879517614841461
leaf_count=37 34 42 32 17 17 12 7 40 5 4 4
internal_value=-0.00443707 -0.0127654 0.00433648 -0.0188762 -0.0273125 -0.0391225 0.00534676 -0.0551694 -0.0175043 -0.0237929 -0.047236
internal_weight=15.5047 13.5569 6.23127 3.86211 7.32559 4.63461 2.31621 1.5459 2.37394 1.16206 1.02662
internal_count=251 217 142 110 75 58 49 61 46 41 44
is_linear=0
shrinkage=0.05


Tree=72
num_leaves=12
num_cat=0
split_feature=5 4 12 12 12 0 0 12 0 0 0
split_gain=2.68629 1.22935 1.98345 1.27802 0.656525 0.845055 0.596979 0.0741861 0.0350917 0.438687 0.0164691
threshold=0.55000000000000016 1.0000000180025095e-35 0.46500000000000002 0.34000000000000002 0.56000000000000016 0.47550000000000003 0.086000000000000007 0.36500000000000005 0.40750000000000003 0.29875000000000002 0.21750000000000003
decision_type=2 2 2 2 2 2 2 2 2 2 2
left_child=1 4 3 6 5 8 -3 -5 9 -1 -9
right_child=-2 2 -4 7 -6 -7 -8 10 -10 -11 -12
leaf_value=-0.052305883173816285 0.05028673316395299 -0.018208633142314259 0.040075453831965452 -0.069909072016231186 -0.0066200694602553262 -0.059874756529237655 0.03268565419265531 -0.052550562187554176 -0.010912033283550501 0.0099529317639021325 -0.039683262881325267
leaf_weight=0.60410037031397068 1.9691431354731328 1.2605435596778995 2.3687353869900107 0.50046250084415056 2.6924804039299488 2.2186308726668358 1.0612892657518385 0.51282386854290962 1.2106331735849378 0.53220540285110474 0.48279161751270294
leaf_count=38 34 42 32 17 17 12 7 40 5 3 4
internal_value=-0.00425492 -0.0122432 0.00413302 -0.0181666 -0.0262021 -0.0377503 0.0050547 -0.0542049 -0.0168353 -0.0231461 -0.046311
internal_weight=15.4138 13.4447 6.18665 3.81791 7.25805 4.56557 2.32183 1.49608 2.34694 1.13631 0.995615
internal_count=251 217 142 110 75 58 49 61 46 41 44
is_linear=0
shrinkage=0.05


Tree=73
num_leaves=10
num_cat=0
split_feature=9 0 0 0 0 12 12 12 0
split_gain=2.41132 1.13989 2.26055 0.997639 0.873901 4.07875e-05 6.12606e-07 9.50767e-08 3.14588e-08
threshold=5.5000000000000009 0.54750000000000021 0.47550000000000003 0.033750000000000009 0.21750000000000003 0.54000000000000015 0.34000000000000002 0.060000000000000012 0.00075000000000000012
decision_type=2 2 2 2 2 2 2 2 2
left_child=1 2 3 5 -5 6 7 -1 -8
right_child=-2 -3 -4 4 -6 -7 8 -9 -10
leaf_value=-0.050376011266468561 0.047262115925457926 0.024796708306893903 -0.051782522251542333 0.023930092210611157 -0.011592576319826374 -0.051156920194178272 -0.050323628372847609 -0.05042295875376767 -0.050293425040264489
leaf_weight=0.23050341848283817 1.9898558314889676 1.8397920597344626 3.4031089544296256 2.9821334965527058 4.1280449628829956 0.2012823112308979 0.17402305779978633 0.20265634311363101 0.17085779597982764
leaf_count=32 34 26 16 26 23 10 29 25 30
internal_value=-0.00408072 -0.0117436 -0.0175932 -0.00321031 0.00330625 -0.0505225 -0.0503584 -0.050398 -0.0503087
internal_weight=15.3223 13.3324 11.4926 8.0895 7.11018 0.979323 0.778041 0.43316 0.344881
internal_count=251 217 191 175 49 126 116 57 59
is_linear=0
shrinkage=0.05


Tree=74
num_leaves=12
num_cat=0
split_feature=5 4 12 12 12 0 0 0 0 12 0
split_gain=2.16364 1.04324 1.87408 1.18359 0.598755 0.759999 0.507898 0.811664 0.224386 0.0738974 0.0193281
threshold=0.55000000000000016 1.0000000180025095e-35 0.46500000000000002 0.34000000000000002 0.56000000000000016 0.47550000000000003 0.086000000000000007 0.042750000000000003 0.45750000000000007 0.36500000000000005 0.21750000000000003
decision_type=2 2 2 2 2 2 2 2 2 2 2
left_child=1 4 3 6 5 8 7 -3 -1 -5 -11
right_child=-2 2 -4 9 -6 -7 -8 -9 -10 10 -12
leaf_value=-0.0024513998336309151 0.044438225668770578 0.020020925038972348 0.038911558802967275 -0.069498161937097055 -0.0056132352174294714 -0.057096145914626473 0.028781971213511632 -0.06090071993060895 -0.03406432411944333 -0.052542229277127567 -0.038329375400938809
leaf_weight=1.3430263679474577 2.0099570024758586 0.66193411732092566 2.3531033797189593 0.48390989750623681 2.6827783826738596 2.1272047981619835 1.0989981591701505 0.58262118697166443 0.96437141299247731 0.48432591184973717 0.47263114154338837
leaf_count=42 34 38 32 17 17 12 7 4 4 40 4
internal_value=-0.00390227 -0.0112326 0.00387301 -0.0179135 -0.0242585 -0.0355383 0.00401178 -0.0178614 -0.0156639 -0.0535747 -0.0455226
internal_weight=15.2649 13.2549 6.13752 3.78442 7.11738 4.4346 2.34355 1.24456 2.3074 1.44087 0.956957
internal_count=251 217 142 110 75 58 49 42 46 61 44
is_linear=0
shrinkage=0.05


Tree=75
num_leaves=10
num_cat=0
split_feature=0 0 0 0 12 9 12 12 12
split_gain=1.67023 1.50549 1.30793 0.45258 3.51398e-05 4.16316e-06 9.71642e-07 1.0942e-07 8.68155e-08
threshold=0.033750000000000009 0.52250000000000008 0.40750000000000003 0.16600000000000004 0.54000000000000015 5.5000000000000009 0.32500000000000007 0.12500000000000003 0.41000000000000009
decision_type=2 2 2 2 2 2 2 2 2
left_child=4 2 3 -2 5 6 7 -1 -8
right_child=1 -3 -4 -5 -6 -7 8 -9 -10
leaf_value=-0.050375220383060006 0.015600820582490344 -0.018736339556859011 0.037298208072445972 -0.012206168127813347 -0.051078651283419978 -0.050600081367373068 -0.05024978958841371 -0.050426387353966776 -0.050302985943705497
leaf_weight=0.25260659446939893 3.316517945379017 3.3170336410403243 5.4246153384447098 2.6186582408845425 0.24069498851895332 0.20879834238439798 0.13088312046602368 0.17819193052127957 0.18525195820257068
leaf_count=35 30 38 25 21 13 18 27 22 33
internal_value=0.00626778 0.0108985 0.0195519 0.0033321 -0.0505387 -0.0504027 -0.0503475 -0.0503964 -0.050281
internal_weight=15.8733 14.6768 11.3598 5.93518 1.19643 0.955732 0.746934 0.430799 0.316135
internal_count=262 114 76 51 148 135 117 57 60
is_linear=0
shrinkage=0.05


Tree=76
num_leaves=13
num_cat=0
split_feature=9 0 0 0 12 12 0 0 0 0 12 12
split_gain=1.3874 1.13476 1.51541 2.73903 2.75882 0.892145 1.41376 1.54872 3.81819 0.000832481 7.63049e-08 2.04048e-08
threshold=5.5000000000000009 0.52250000000000008 0.40750000000000003 0.21750000000000003 0.46500000000000002 0.32500000000000007 0.056250000000000001 0.038750000000000007 0.023750000000000004 0.066500000000000017 0.12500000000000003 0.36500000000000005
decision_type=2 2 2 2 2 2 2 2 2 2 2 2
left_child=1 2 3 4 5 6 7 8 10 11 -1 -7
right_child=-2 -3 -4 -5 -6 9 -8 -9 -10 -11 -12 -13
leaf_value=-0.050367629178311259 0.044511904050698381 -0.027305841824609829 0.027880241276877344 -0.067194520178682077 0.11208092763216913 -0.050233379995863893 0.043701498958271433 -0.060087523528078328 0.23930323500243655 -0.053629239651311278 -0.050415541974411941 -0.050261349837471762
leaf_weight=0.19960197759792109 2.033695620484651 2.9361228346824637 5.0221293419599533 1.5245989337563512 0.5812656097114085 0.099575855769216903 1.4168088436126707 1.0488427430391309 0.17043193150311708 0.49625606834888458 0.1423679725266993 0.18891935609281063
leaf_count=28 37 30 23 14 15 22 10 8 12 8 18 37
internal_value=0.00595245 0.000281042 0.00771837 -0.0095352 0.010701 -0.00495987 0.00753787 -0.0252801 0.0459676 -0.0523876 -0.0503876 -0.0502517
internal_weight=15.8606 13.8269 10.8908 5.86867 4.34407 3.7628 2.97805 1.56124 0.512402 0.784751 0.34197 0.288495
internal_count=262 225 195 172 158 143 76 66 58 67 46 59
is_linear=0
shrinkage=0.05


Tree=77
num_leaves=12
num_cat=0
split_feature=5 0 0 0 12 12 0 12 0 0 12
split_gain=1.24233 1.0203 1.373 2.56288 2.29233 0.84119 1.26207 1.63577 2.06642 0.000712174 1.75482e-08
threshold=0.55000000000000016 0.52250000000000008 0.40750000000000003 0.21750000000000003 0.46500000000000002 0.32500000000000007 0.056250000000000001 0.19000000000000003 0.026000000000000002 0.066500000000000017 0.36500000000000005
decision_type=2 2 2 2 2 2 2 2 2 2 2
left_child=1 2 3 4 5 6 7 8 -1 10 -7
right_child=-2 -3 -4 -5 -6 9 -8 -9 -10 -11 -12
leaf_value=-0.050353481912028888 0.041929055922362089 -0.025919442360792518 0.02642287629243455 -0.066382923838095881 0.098420232914166336 -0.0502219476972681 0.040403443227208603 -0.058858782193745345 0.15847711445026127 -0.053440148123404418 -0.050248539520947849
leaf_weight=0.23988375626504321 2.050578218884767 2.9384520240128031 5.0338556170463562 1.4675244502723215 0.62754032388329495 0.094740500906482228 1.4548104405403135 1.0671119093894956 0.23402771400287747 0.47368145361542702 0.17975030606612563
leaf_count=35 37 30 23 14 15 22 10 22 9 8 37
internal_value=0.00561371 0.000221966 0.00728679 -0.00921041 0.00998235 -0.0048409 0.00700289 -0.0245291 0.0527716 -0.0522658 -0.0502394
internal_weight=15.862 13.8114 10.8729 5.83907 4.37155 3.74401 2.99583 1.54102 0.473911 0.748172 0.274491
internal_count=262 225 195 172 158 143 76 66 44 67 59
is_linear=0
shrinkage=0.05


Tree=78
num_leaves=10
num_cat=0
split_feature=0 0 0 0 12 9 12 0 12
split_gain=1.58415 1.13201 0.9569 0.301486 6.24586e-05 5.69681e-06 9.01293e-07 1.79766e-07 1.40118e-07
threshold=0.033750000000000009 0.52250000000000008 0.40750000000000003 0.16600000000000004 0.54000000000000015 5.5000000000000009 0.32500000000000007 0.0062500000000000012 0.41000000000000009
decision_type=2 2 2 2 2 2 2 2 2
left_child=4 2 3 -2 5 6 7 -1 -8
right_child=1 -3 -4 -5 -6 -7 8 -9 -10
leaf_value=-0.0503421020060894 0.013037598631195413 -0.016003073485037059 0.032334292975340614 -0.0097925069386314307 -0.051256552106318347 -0.050621972862924185 -0.050214848535107104 -0.050408896717963204 -0.05028730205573078
leaf_weight=0.20461188070476122 3.3948515392839891 3.3017371688038102 5.4650468379259109 2.5191298462450504 0.27785640582442284 0.21623041853308678 0.11272824159823358 0.19840797781944275 0.16353103471919894
leaf_count=31 30 38 25 21 13 18 27 26 33
internal_value=0.00530388 0.00977215 0.0172511 0.00331285 -0.0506017 -0.0503985 -0.0503273 -0.050375 -0.0502577
internal_weight=15.8541 14.6808 11.379 5.91398 1.17337 0.89551 0.679279 0.40302 0.276259
internal_count=262 114 76 51 148 135 117 57 60
is_linear=0
shrinkage=0.05


Tree=79
num_leaves=10
num_cat=0
split_feature=0 0 0 0 12 9 12 0 12
split_gain=1.48641 1.01912 0.862535 0.270769 5.36727e-05 4.89622e-06 7.74757e-07 1.54617e-07 1.20664e-07
threshold=0.033750000000000009 0.52250000000000008 0.40750000000000003 0.16600000000000004 0.54000000000000015 5.5000000000000009 0.32500000000000007 0.0062500000000000012 0.41000000000000009
decision_type=2 2 2 2 2 2 2 2 2
left_child=4 2 3 -2 5 6 7 -1 -8
right_child=1 -3 -4 -5 -6 -7 8 -9 -10
