tree
version=v4
num_class=1
num_tree_per_iteration=1
label_index=0
max_feature_idx=12
objective=binary sigmoid:1
feature_names=market_price spread_bps vol_24h time_to_close_sec ambiguity_score freshness_score source_agreement_score official_source_present llm_confidence retrieval_count price_momentum_1h price_momentum_24h raw_probability
feature_infos=[0.00050000000000000001:0.99950000000000006] none none [7696:26024377] [0:0.20000000000000001] [0:0.59999999999999998] none [0:1] [0.59999999999999998:1] [0:6] none none [0.01:0.94999999999999996]
tree_sizes=548 882 884 883 875 890 993 883 781 888 992 887 989 997 995 993 882 883 992 977 987 885 880 1095 972 874 991 884 887 883 886 878 885 986 981 888 891 893 1088 888 987 1105 875 987 1101 1107 1086 1113 1110 1078 1185 1196 1007 1006 896 890 781 786 1000 998 1001 1011 1003 888 1206 1003 904 981 1186 1093 1212 1216 1096 1110 896 1106 889 883 880 1111 1094 983 981 1305 1204 888 1002 882 888 985 1086 789 975 788 1115 1232 1125 1231 1105 1432 1212 1099 895 1209 1211 991 1010 902 898 1325 1322 1095 987 1093 1315 1542 1199 1290 1528 1323 1203 1435 1096 1108 1106 1221 1228 1227 985 1226 1457 1001 1321 1001 1112 1428 1443 1542 1548 1317 1444 1433 1211 1438 1127 1024 1241 1129 1243 1021 1458 1338 1108 1340 997 888 1435 1658 1199 1200 1323 991 1091 1097 1201 988 1348 889 1015 1466 1089 1109 988 891 1098 1329 1319 1326 1214 1446 1214 1113 1562 1344 1439 1237 1675 1682 1550 1553 1332 1336 1433 993 1444 1212 1213 994 989 1212

Tree=0
num_leaves=4
num_cat=0
split_feature=0 3 0
split_gain=140.026 14.468 0.973485
threshold=0.44750000000000006 89182.000000000015 0.025000000000000005
decision_type=2 2 2
left_child=2 -2 -1
right_child=1 -3 -4
leaf_value=-1.3905556891146857 -1.2245649592180032 -1.0887543620298086 -1.3618127055827927
leaf_weight=19.217940390110023 3.3134379982948285 4.804485097527504 3.479109898209571
leaf_count=116 20 29 21
internal_value=-1.32241 -1.14419 -1.38615
internal_weight=30.815 8.11792 22.6971
internal_count=186 49 137
is_linear=0
shrinkage=1


Tree=1
num_leaves=7
num_cat=0
split_feature=12 7 8 5 8 5
split_gain=64.9668 2.82104 1.82302 0.228414 6.26575e-06 4.49697e-07
threshold=0.37500000000000006 1.0000000180025095e-35 0.82500000000000007 0.15000000000000005 0.82500000000000007 0.25000000000000006
decision_type=2 2 2 2 2 2
left_child=1 -1 -2 -3 -5 -6
right_child=2 3 -4 4 5 -7
leaf_value=-0.01700529733668953 0.081877228900135213 -0.047706112641477338 0.12356876180860576 -0.062563686359579651 -0.062497078386812469 -0.062473188399700723
leaf_weight=5.4106623977422759 4.7657188475131971 3.3679762333631524 5.8290562182664871 3.5303281694650632 3.5192843228578568 4.474069207906723
leaf_count=33 27 21 33 22 22 28
internal_value=0.00444979 -0.0479259 0.104815 -0.0591605 -0.0625082 -0.0624837
internal_weight=30.8971 20.3023 10.5948 14.8917 11.5237 7.99335
internal_count=186 126 60 93 72 50
is_linear=0
shrinkage=0.05


Tree=2
num_leaves=7
num_cat=0
split_feature=0 0 0 12 4 5
split_gain=107.763 8.89714 0.98974 0.00197184 0.000195987 6.43212e-06
threshold=0.44750000000000006 0.7350000000000001 0.025000000000000005 0.27500000000000008 1.0000000180025095e-35 0.25000000000000006
decision_type=2 2 2 2 2 2
left_child=2 -2 3 4 -1 -6
right_child=1 -3 -4 -5 5 -7
leaf_value=-0.062109550314790055 0.087690638254969699 0.18647996933847671 -0.032509986966588536 -0.063223998067889295 -0.061775507883358942 -0.061692735204711184
leaf_weight=5.4922744780778965 3.8952102512121183 5.4933857023715973 3.3415596485137931 3.2955284565687171 4.6281687468290329 4.7618948966264725
leaf_count=35 21 28 21 20 30 31
internal_value=0.0041473 0.145494 -0.0575199 -0.0621174 -0.0618723 -0.0617335
internal_weight=30.908 9.3886 21.5194 18.1779 14.8823 9.39006
internal_count=186 49 137 116 96 61
is_linear=0
shrinkage=0.05


Tree=3
num_leaves=7
num_cat=0
split_feature=12 3 3 5 4 5
split_gain=50.3706 3.72917 1.54689 0.243397 0.000132714 7.19036e-06
threshold=0.37500000000000006 179962.50000000003 89969.500000000015 0.15000000000000005 1.0000000180025095e-35 0.25000000000000006
decision_type=2 2 2 2 2 2
left_child=1 3 -2 -1 -5 -6
right_child=2 -3 -4 4 5 -7
leaf_value=-0.045612403221221821 0.067903510903210271 -0.0049912427767584292 0.10436561901714272 -0.061423396159999089 -0.061131643824684272 -0.061026272595229747
leaf_weight=3.1705765575170579 5.9026675820350629 4.2936183661222449 5.7349700033664703 5.1459091156721097 3.5730805397033691 2.9603754132986069
leaf_count=21 31 27 29 34 24 20
internal_value=0.00383771 -0.046032 0.0858719 -0.0578983 -0.0612335 -0.0610839
internal_weight=30.7812 19.1436 11.6376 14.8499 11.6794 6.53346
internal_count=186 126 60 99 78 44
is_linear=0
shrinkage=0.05


Tree=4
num_leaves=7
num_cat=0
split_feature=12 3 3 5 4 5
split_gain=44.7294 3.61668 1.26881 0.2452 0.000110367 5.9914e-06
threshold=0.37500000000000006 179962.50000000003 89969.500000000015 0.15000000000000005 1.0000000180025095e-35 0.25000000000000006
decision_type=2 2 2 2 2 2
left_child=1 3 -2 -1 -5 -6
right_child=2 -3 -4 4 5 -7
leaf_value=-0.044640817572663194 0.062438530167403 -0.0047559795398637496 0.094847201387992852 -0.060742926009353243 -0.060471636706951527 -0.060373533648166111
leaf_weight=3.079922214150435 6.0931388586759549 4.2810386866331092 5.9879529029130936 4.9483806341886503 3.4349716454744339 2.8456675410270691
leaf_count=21 31 27 29 34 24 20
internal_value=0.00360065 -0.0450754 0.0785018 -0.0571384 -0.0605663 -0.0604272
internal_weight=30.6711 18.59 12.0811 14.3089 11.229 6.28064
internal_count=186 126 60 99 78 44
is_linear=0
shrinkage=0.05


Tree=5
num_leaves=7
num_cat=0
split_feature=0 0 0 8 7 5
split_gain=63.1916 13.2734 0.283143 0.00094979 0.000668391 4.05952e-05
threshold=0.7350000000000001 0.28750000000000003 0.011750000000000002 0.87500000000000011 1.0000000180025095e-35 0.25000000000000006
decision_type=2 2 2 2 2 2
left_child=1 2 3 -1 -5 -6
right_child=-2 -3 -4 4 5 -7
leaf_value=-0.061668908384620427 0.14882741670701172 0.029726001869022231 -0.044470611410786336 -0.061438124688934295 -0.060686194833169477 -0.060439794308260811
leaf_weight=5.5444235056638815 5.5641831606626502 5.5502298623323432 3.0463192760944358 3.2715748548507673 3.4282868057489395 3.262220486998558
leaf_count=37 25 28 21 22 24 23
internal_value=-0.00305111 -0.0381122 -0.0584066 -0.0611444 -0.0608524 -0.0605661
internal_weight=29.6672 24.1031 18.5528 15.5065 9.96208 6.69051
internal_count=180 155 127 106 69 47
is_linear=0
shrinkage=0.05


Tree=6
num_leaves=8
num_cat=0
split_feature=0 0 0 12 3 7 3
split_gain=55.5471 11.3312 0.284458 0.0143846 0.000849603 7.76821e-05 5.52577e-07
threshold=0.59525000000000017 0.28750000000000003 0.011750000000000002 0.27500000000000008 179962.50000000003 1.0000000180025095e-35 89971.500000000015
decision_type=2 2 2 2 2 2 2
left_child=1 2 3 4 5 -1 -7
right_child=-2 -3 -4 -5 -6 6 -8
leaf_value=-0.059598007003030501 0.12956158521561204 0.026139943438784875 -0.043518778258758113 -0.063344729787978712 -0.060393374777480392 -0.059300764621058349 -0.0592691626659742
leaf_weight=3.1073476821184247 6.2234453409910193 5.207548886537551 2.9595212340354911 3.4035600125789633 2.8487589210271826 2.9083455353975296 2.6378994882106781
leaf_count=23 27 26 21 21 20 22 20
internal_value=-0.00300374 -0.0387604 -0.0576781 -0.0604893 -0.0596444 -0.0593979 -0.0592857
internal_weight=29.2964 23.073 17.8654 14.9059 11.5024 8.65359 5.54625
internal_count=180 153 127 106 85 65 42
is_linear=0
shrinkage=0.05


Tree=7
num_leaves=7
num_cat=0
split_feature=0 3 0 3 7 3
split_gain=49.6403 14.5251 0.286395 0.00129838 0.000392637 0.000356631
threshold=0.28750000000000003 89948.500000000015 0.011750000000000002 127762.50000000001 1.0000000180025095e-35 89965.500000000015
decision_type=2 2 2 2 2 2
left_child=2 -2 3 4 -1 -6
right_child=1 -3 -4 -5 5 -7
leaf_value=-0.059984076072151941 0.01451923429473834 0.12666767025527231 -0.042583891467441959 -0.060642681565140646 -0.059788547648408658 -0.059037514218631848
leaf_weight=3.8020591735839897 5.2170940190553647 6.4648650735616684 2.8754221946001044 3.9817047119140616 2.6768375188112259 3.8599895685911179
leaf_count=28 25 28 21 28 20 30
internal_value=-0.00295248 0.0765828 -0.0569841 -0.0598755 -0.0595801 -0.0593451
internal_weight=28.878 11.682 17.196 14.3206 10.3389 6.53683
internal_count=180 53 127 106 78 50
is_linear=0
shrinkage=0.05


Tree=8
num_leaves=6
num_cat=0
split_feature=12 12 5 7 8
split_gain=16.8698 2.79116 1.71403 1.10209 8.00849e-05
threshold=0.37500000000000006 0.62500000000000011 0.15000000000000005 1.0000000180025095e-35 0.82500000000000007
decision_type=2 2 2 2 2
left_child=2 -2 -1 -4 -5
right_child=1 -3 3 4 -6
leaf_value=-0.0083723062189386566 0.010039441148435885 0.057957773946688329 -0.026754112495372386 -0.058801748003359515 -0.058461559437914382
leaf_weight=3.7412626221776035 4.9377625137567502 7.9025522768497467 4.2349052652716619 2.6616628021001816 4.9425932765007019
leaf_count=27 24 37 31 21 40
internal_value=-0.00290279 0.0395307 -0.0378736 -0.0471962 -0.0585806
internal_weight=28.4207 12.8403 15.5804 11.8392 7.60426
internal_count=180 61 119 92 61
is_linear=0
shrinkage=0.05


Tree=9
num_leaves=7
num_cat=0
split_feature=0 3 0 3 7 5
split_gain=43.6367 12.2953 0.301052 0.00113942 0.000457256 0.000247651
threshold=0.28750000000000003 89948.500000000015 0.011750000000000002 424774.50000000006 1.0000000180025095e-35 0.25000000000000006
decision_type=2 2 2 2 2 2
left_child=2 -2 3 4 -1 -6
right_child=1 -3 -4 -5 5 -7
leaf_value=-0.059428226576120846 0.012828585766091485 0.11506472036349319 -0.041000455540823176 -0.060096615771007916 -0.058993383058755171 -0.058393717756317277
leaf_weight=3.6199943944811874 5.2745100110769254 6.6467589288949966 2.7285326495766631 2.8538684695959082 4.0206682756543159 3.0111369863152504
leaf_count=28 25 28 21 21 32 25
internal_value=-0.00280802 0.0698308 -0.0561489 -0.0592094 -0.0589716 -0.0587366
internal_weight=28.1555 11.9213 16.2342 13.5057 10.6518 7.03181
internal_count=180 53 127 106 85 57
is_linear=0
shrinkage=0.05


Tree=10
num_leaves=8
num_cat=0
split_feature=12 5 3 12 3 8 4
split_gain=17.3233 4.08792 1.94679 0.583483 0.0495664 0.000350932 2.67407e-05
threshold=0.56000000000000016 1.0000000180025095e-35 179962.50000000003 0.32500000000000001 89972.500000000015 0.82500000000000007 1.0000000180025095e-35
decision_type=2 2 2 2 2 2 2
left_child=1 -1 3 5 -2 -3 -7
right_child=4 2 -4 -5 -6 6 -8
leaf_value=0.0220439406874272 0.05631451488716735 -0.058238814874265903 -0.010924840860703351 -0.030878755687875521 0.048802872224527824 -0.057681985887382041 -0.057482662734147205
leaf_weight=2.9010068848729196 4.0910849869251233 2.6157768517732602 3.7436020597815505 2.5547500327229491 4.7412991970777512 2.7680207937955856 4.2913313135504723
leaf_count=20 19 22 27 13 22 24 38
internal_value=-0.00551277 -0.0325581 -0.0424746 -0.0521321 0.0522822 -0.0577441 -0.0575608
internal_weight=27.7069 18.8745 15.9735 12.2299 8.83238 9.67513 7.05935
internal_count=185 144 124 97 41 84 62
is_linear=0
shrinkage=0.05


Tree=11
num_leaves=7
num_cat=0
split_feature=12 5 4 5 8 12
split_gain=15.6981 3.83068 0.82431 0.401945 0.137324 5.86695e-05
threshold=0.56000000000000016 1.0000000180025095e-35 1.0000000180025095e-35 0.45000000000000007 0.87500000000000011 0.065000000000000016
decision_type=2 2 2 2 2 2
left_child=1 -1 3 -3 -4 -6
right_child=-2 2 4 -5 5 -7
leaf_value=0.020669545976071485 0.04904632666197993 -0.040040775311065424 -0.043993319554529661 -0.016351833364505377 -0.057458691850662248 -0.05712185956607746
leaf_weight=2.9382184073329034 8.9413451105356199 3.9275890514254543 3.0868485271930695 3.291193924844265 2.8133717551827431 2.3918844982981682
leaf_count=20 41 26 25 26 25 22
internal_value=-0.00532635 -0.031678 -0.0415942 -0.0292405 -0.0523489 -0.0573039
internal_weight=27.3905 18.4491 15.5109 7.21878 8.2921 5.20526
internal_count=185 144 124 52 72 47
is_linear=0
shrinkage=0.05


Tree=12
num_leaves=8
num_cat=0
split_feature=12 5 3 12 3 3 3
split_gain=14.2376 3.58558 1.95705 0.638667 0.0357044 0.000178795 2.95146e-06
threshold=0.56000000000000016 1.0000000180025095e-35 179962.50000000003 0.32500000000000001 89972.500000000015 89977.500000000015 89958.500000000015
decision_type=2 2 2 2 2 2 2
left_child=1 -1 3 5 -2 6 -3
right_child=4 2 -4 -5 -6 -7 -8
leaf_value=0.019399165627042303 0.049463353001865197 -0.056858794324774288 -0.0086549644500195193 -0.028329498634096003 0.043162662062974116 -0.057263545375302149 -0.056781326159726565
leaf_weight=2.9731691107153955 4.2152751088142377 2.1163402125239354 3.6241813078522673 2.476286679506301 4.8188904076814651 3.9286410138010979 2.9340985268354416
leaf_count=20 19 20 27 13 22 36 28
internal_value=-0.00514075 -0.0307845 -0.040679 -0.0508106 0.0461025 -0.0570106 -0.0568138
internal_weight=27.0869 18.0527 15.0795 11.4554 9.03417 8.97908 5.05044
internal_count=185 144 124 97 41 84 48
is_linear=0
shrinkage=0.05


Tree=13
num_leaves=8
num_cat=0
split_feature=0 3 0 12 3 12 0
split_gain=37.2675 7.39873 0.359012 0.0405969 0.000875915 0.000522818 0.000192615
threshold=0.38700000000000007 89969.500000000015 0.011750000000000002 0.32500000000000001 179962.50000000003 0.065000000000000016 0.0010000000000000002
decision_type=2 2 2 2 2 2 2
left_child=2 -2 3 4 5 6 -1
right_child=1 -3 -4 -5 -6 -7 -8
leaf_value=-0.056794776799870432 0.025725160442209662 0.10702133142957755 -0.037025566380858708 -0.064453160836930215 -0.057795517808312713 -0.056328160832322741 -0.057447743272576596
leaf_weight=2.195683993399145 5.8694641739130002 5.3494517505168915 2.3399941623210898 2.2129414305090895 2.7933329343795767 3.6828619614243507 2.3256666585803032
leaf_count=21 27 22 20 13 24 37 21
internal_value=-0.00496728 0.0644892 -0.0550767 -0.0582741 -0.0570308 -0.0567704 -0.0571306
internal_weight=26.7694 11.2189 15.5505 13.2105 10.9975 8.20421 4.52135
internal_count=185 49 136 116 103 79 42
is_linear=0
shrinkage=0.05


Tree=14
num_leaves=8
num_cat=0
split_feature=12 5 3 12 12 8 4
split_gain=12.0281 3.3199 1.86858 0.736115 0.0371662 0.000772481 6.59514e-05
threshold=0.56000000000000016 1.0000000180025095e-35 179962.50000000003 0.37500000000000006 0.77500000000000013 0.82500000000000007 1.0000000180025095e-35
decision_type=2 2 2 2 2 2 2
left_child=1 -1 3 5 -2 -3 -7
right_child=4 2 -4 -5 -6 6 -8
leaf_value=0.018792189510160706 0.045272510094854918 -0.057169898008902056 -0.0077864202674997295 -0.023927420787231566 0.038846108671933104 -0.056330210907272617 -0.055991802719804355
leaf_weight=2.9589713364839616 4.2632067352533323 2.5164289698004705 3.5158247575163832 2.1885698884725562 4.7639372944831848 2.391099251806736 3.6185388639569283
leaf_count=20 19 24 27 11 22 24 38
internal_value=-0.00485319 -0.029396 -0.0394159 -0.0497945 0.0418811 -0.0564344 -0.0561264
internal_weight=26.2166 17.1894 14.2305 10.7146 9.02714 8.52607 6.00964
internal_count=185 144 124 97 41 86 62
is_linear=0
shrinkage=0.05


Tree=15
num_leaves=8
num_cat=0
split_feature=0 0 12 5 8 5 7
split_gain=36.8394 5.66485 0.0651636 0.00120979 0.000244743 0.000257944 3.1077e-06
threshold=0.28750000000000003 0.7350000000000001 0.4250000000000001 0.15000000000000005 0.82500000000000007 0.35000000000000003 1.0000000180025095e-35
decision_type=2 2 2 2 2 2 2
left_child=2 -2 3 -1 -5 -6 -7
right_child=1 -3 -4 4 5 6 -8
leaf_value=-0.057637915649193433 0.024238143121762774 0.093642562082175348 -0.06461141054130809 -0.056665132931109398 -0.055686040238148729 -0.056373698283760834 -0.056290763481879981
leaf_weight=1.9302028864622141 5.6502058506011945 6.1294773668050766 3.141919717192649 2.7603800818324071 2.3754284381866455 2.0915818884968758 2.4557890668511391
leaf_count=17 27 25 18 27 26 21 25
internal_value=-0.00558396 0.0603523 -0.0582232 -0.0564949 -0.0562671 -0.0561083 -0.0563289
internal_weight=26.535 11.7797 14.7553 11.6134 9.68318 6.9228 4.54737
internal_count=186 52 134 116 99 72 46
is_linear=0
shrinkage=0.05


Tree=16
num_leaves=7
num_cat=0
split_feature=12 5 12 3 3 5
split_gain=13.8014 2.44432 2.35486 0.185002 0.0006154 0.000298388
threshold=0.12500000000000003 0.25000000000000006 0.62500000000000011 89970.500000000015 179962.50000000003 0.35000000000000003
decision_type=2 2 2 2 2 2
left_child=3 2 -2 -1 5 -5
right_child=1 -3 -4 4 -6 -7
leaf_value=-0.041348859339252558 0.0082104336508188845 -0.0052676221938296845 0.055632459151571362 -0.056426894485920677 -0.056918392821977006 -0.055586743022525698
leaf_weight=2.9318988025188464 4.3716778531670588 5.1232353821396819 6.5253646224737167 1.8662822544574735 2.6615771874785423 2.4366606324911118
leaf_count=31 24 31 29 19 25 27
internal_value=-0.00546172 0.0232161 0.0366077 -0.0518852 -0.0563208 -0.0559511
internal_weight=25.9167 16.0203 10.897 9.89642 6.96452 4.30294
internal_count=186 84 53 102 71 46
is_linear=0
shrinkage=0.05


Tree=17
num_leaves=7
num_cat=0
split_feature=0 3 5 3 5 3
split_gain=32.9207 7.26813 0.00234915 0.000639191 0.000958526 0.00079454
threshold=0.28750000000000003 89948.500000000015 0.15000000000000005 97149.500000000015 0.35000000000000003 424774.50000000006
decision_type=2 2 2 2 2 2
left_child=2 -2 -1 4 -4 -5
right_child=1 -3 3 5 -6 -7
leaf_value=-0.059061251530690341 0.011815009431880075 0.09107890974194581 -0.057019406795170952 -0.056258590883274284 -0.058219467447029417 -0.05757572012647301
leaf_weight=2.4943684488534954 5.1592766940593702 6.5813183039426804 3.0390665829181653 2.3135728687047958 3.677350752055645 2.2668380662798882
leaf_count=21 24 28 32 25 35 21
internal_value=-0.0052874 0.0562473 -0.0576725 -0.0573659 -0.0576765 -0.0569104
internal_weight=25.5318 11.7406 13.7912 11.2968 6.71642 4.58041
internal_count=186 52 134 113 67 46
is_linear=0
shrinkage=0.05


Tree=18
num_leaves=8
num_cat=0
split_feature=0 0 12 5 8 5 7
split_gain=30.5214 4.87372 0.0538776 0.000775468 0.000211303 0.000149371 2.0405e-06
threshold=0.28750000000000003 0.7350000000000001 0.4250000000000001 0.15000000000000005 0.82500000000000007 0.35000000000000003 1.0000000180025095e-35
decision_type=2 2 2 2 2 2 2
left_child=2 -2 3 -1 -5 -6 -7
right_child=1 -3 -4 4 5 6 -8
leaf_value=-0.056512779895536193 0.020892799653217289 0.085445256806323727 -0.063199022400318536 -0.055739668768893136 -0.054847088215911312 -0.055407764357047445 -0.055336050239852788
leaf_weight=1.7160179913044 5.7641320675611478 5.9342874437570572 2.9620579332113257 2.452502138912676 2.087144635617733 1.8370146974921229 2.1560643464326859
leaf_count=17 27 25 18 27 26 21 25
internal_value=-0.00517716 0.0536385 -0.0572595 -0.0555429 -0.0553479 -0.0551899 -0.055369
internal_weight=24.9092 11.6984 13.2108 10.2487 8.53273 6.08022 3.99308
internal_count=186 52 134 116 99 72 46
is_linear=0
shrinkage=0.05


Tree=19
num_leaves=8
num_cat=0
split_feature=5 8 3 5 4 3 5
split_gain=6.08152 1.25629 1.23277 0.772764 0.486389 0.390335 0.256051
threshold=0.35000000000000003 0.87500000000000011 89182.000000000015 0.15000000000000005 1.0000000180025095e-35 97146.500000000015 0.15000000000000005
decision_type=2 2 2 2 2 2 2
left_child=1 2 -1 -4 5 -2 -3
right_child=4 6 3 -5 -6 -7 -8
leaf_value=-0.0026215035264841695 -0.043362835161088881 0.0032650480714613538 0.048699337997639952 0.016899641580805196 -0.05650677176475092 -0.015738494445165094 -0.01930207420671207
leaf_weight=3.4783096015453392 2.8777932450175268 2.505238525569438 3.9401928633451462 3.7087062150239944 2.9560567289590836 2.3014347180724144 2.5225769579410553
leaf_count=17 26 18 21 26 32 20 26
internal_value=-0.00506855 0.0126853 0.0220578 0.0332807 -0.040324 -0.0310877 -0.00805742
internal_weight=24.2903 16.155 11.1272 7.6489 8.13528 5.17923 5.02782
internal_count=186 108 64 47 78 46 44
is_linear=0
shrinkage=0.05


Tree=20
num_leaves=8
num_cat=0
split_feature=0 3 0 12 3 9 7
split_gain=26.752 7.03298 0.464328 0.0373028 0.000427658 0.000486114 6.7806e-05
threshold=0.28750000000000003 89948.500000000015 0.011750000000000002 0.66500000000000015 179962.50000000003 2.5000000000000004 1.0000000180025095e-35
decision_type=2 2 2 2 2 2 2
left_child=2 -2 3 4 5 -1 -7
right_child=1 -3 -4 -5 -6 6 -8
leaf_value=-0.055409784253561092 0.0080571556101434513 0.083268736696646431 -0.02937221034385934 -0.062460226648372086 -0.055793257968535695 -0.05475767645191848 -0.05429525614341129
leaf_weight=2.8954770565032977 5.40455214679241 7.3152978420257568 1.8263233378529538 2.2286682575941077 1.9431253373622892 1.5061843618750572 1.6736202985048294
leaf_count=34 25 32 19 14 21 19 23
internal_value=0.000711436 0.051312 -0.0525985 -0.056738 -0.0551476 -0.0549411 -0.0545143
internal_weight=24.7932 12.7198 12.0734 10.2471 8.01841 6.07528 3.1798
internal_count=187 57 130 111 97 76 42
is_linear=0
shrinkage=0.05


Tree=21
num_leaves=7
num_cat=0
split_feature=0 0 0 12 9 7
split_gain=24.74 4.60067 0.467284 0.0313172 0.000227868 7.00546e-05
threshold=0.28750000000000003 0.7350000000000001 0.011750000000000002 0.66500000000000015 2.5000000000000004 1.0000000180025095e-35
decision_type=2 2 2 2 2 2
left_child=2 -2 3 4 -1 -6
right_child=1 -3 -4 -5 5 -7
leaf_value=-0.055207114244080702 0.020720193038140926 0.081144400722336307 -0.028557745203475121 -0.06170686949844905 -0.05487299345063238 -0.05447967459188098
leaf_weight=3.0554731562733668 6.7253546565771085 5.9259781688451767 1.7855406701564778 2.1451978534460068 1.9995535165071485 2.6096182018518448
leaf_count=37 31 26 19 14 25 35
internal_value=0.000671004 0.0490233 -0.0520846 -0.0563669 -0.0548723 -0.0546503
internal_weight=24.2467 12.6513 11.5954 9.80984 7.66464 4.60917
internal_count=187 57 130 111 97 60
is_linear=0
shrinkage=0.05


Tree=22
num_leaves=7
num_cat=0
split_feature=12 5 3 3 5 5
split_gain=6.54631 1.86194 2.48617 1.85883 0.00169376 8.61439e-05
threshold=0.37500000000000006 1.0000000180025095e-35 179962.50000000003 89967.500000000015 0.25000000000000006 0.45000000000000007
decision_type=2 2 2 2 2 2
left_child=1 -1 4 -2 -3 -6
right_child=3 2 -4 -5 5 -7
leaf_value=0.018598777448255107 0.0068243125608227241 -0.05596845316231961 0.002554755170014157 0.044672170036801122 -0.054092141618315021 -0.054599107276412241
leaf_weight=1.7573545500636125 6.99058600515127 2.804959759116171 2.6787087693810463 6.0532859414815903 1.9452301114797594 1.4720178917050359
leaf_count=15 34 35 24 31 28 20
internal_value=0.000635625 -0.0284337 -0.0377195 0.0243884 -0.0550579 -0.0543105
internal_weight=23.7021 10.6583 8.90092 13.0439 6.22221 3.41725
internal_count=187 122 107 65 83 48
is_linear=0
shrinkage=0.05


Tree=23
num_leaves=9
num_cat=0
split_feature=0 3 0 12 5 3 3 3
split_gain=22.3217 6.20237 0.491894 0.0308362 0.000929469 0.000669765 1.94881e-05 3.03404e-06
threshold=0.28750000000000003 89948.500000000015 0.011750000000000002 0.66500000000000015 0.15000000000000005 179962.50000000003 89965.500000000015 97144.500000000015
decision_type=2 2 2 2 2 2 2 2
left_child=2 -2 3 4 -1 6 -6 -8
right_child=1 -3 -4 -5 5 -7 7 -9
leaf_value=-0.05565703296891529 0.0062722856068709049 0.077279006388013494 -0.02679971350243476 -0.061404712241896281 -0.054054322852394414 -0.05510643098723416 -0.053771642510018126 -0.053876511794688879
leaf_weight=1.4409627988934532 5.4630057513713819 7.0366129577159882 1.6961150318384159 2.1083542108535767 1.3432792946696279 1.5912886857986448 1.432124085724354 1.3304483778774736
leaf_count=16 25 32 19 14 20 19 22 20
internal_value=0.000594745 0.0462452 -0.0515515 -0.0560918 -0.0545225 -0.0542356 -0.0538981 -0.0538221
internal_weight=23.4422 12.4996 10.9426 9.24646 7.1381 5.69714 4.10585 2.76257
internal_count=187 57 130 111 97 81 62 42
is_linear=0
shrinkage=0.05


Tree=24
num_leaves=8
num_cat=0
split_feature=5 3 3 3 3 8 3
split_gain=2.40558 1.03054 1.86216 1.74072 0.852473 0.483931 0.650284
threshold=0.25000000000000006 89969.500000000015 89975.500000000015 88166.000000000015 2361558.5000000005 0.82500000000000007 97146.500000000015
decision_type=2 2 2 2 2 2 2
left_child=1 3 -3 -1 5 -2 -7
right_child=4 2 -4 -5 -6 6 -8
leaf_value=0.028633084493126095 -0.013029591130750709 0.056888026609158142 0.0059221301317059476 -0.023519904172856564 0.0085672735534525184 -0.056945036275051403 -0.01535368823221916
leaf_weight=2.8101346567273158 2.9650619104504568 2.9686874598264694 4.5226288102567196 3.7152720503509045 2.0422904714941978 2.2872454114258294 1.5952917374670503
leaf_count=13 26 21 34 30 18 29 16
internal_value=0.000561793 0.0134658 0.0261191 -0.00106047 -0.019784 -0.0282397 -0.0398556
internal_weight=22.9066 14.0167 7.49132 6.52541 8.88989 6.8476 3.88254
internal_count=187 98 55 43 89 71 45
is_linear=0
shrinkage=0.05


Tree=25
num_leaves=7
num_cat=0
split_feature=12 5 12 3 3 3
split_gain=5.29256 2.35952 1.00149 0.954244 0.227691 1.20436e-05
threshold=0.12500000000000003 0.25000000000000006 0.56000000000000016 179962.50000000003 89971.500000000015 97151.500000000015
decision_type=2 2 2 2 2 2
left_child=3 2 -2 4 -1 -6
right_child=1 -3 -4 -5 5 -7
leaf_value=-0.032768022431483572 0.0149424188983109 -0.0099410765481199939 0.048284149381618235 -0.0054374405184793046 -0.053831889421399076 -0.054040680929674324
leaf_weight=2.3406734392046955 3.8370402902364713 4.398148074746131 5.4529267996549606 2.2933701798319817 1.2978965118527415 1.4762522876262663
leaf_count=35 22 30 26 22 20 22
internal_value=0.00180539 0.0202294 0.034513 -0.0322366 -0.0442528 -0.053943
internal_weight=21.0963 13.6881 9.28997 7.40819 5.11482 2.77415
internal_count=177 78 48 99 77 42
is_linear=0
shrinkage=0.05


Tree=26
num_leaves=8
num_cat=0
split_feature=0 0 12 12 12 5 5
split_gain=19.4156 4.21932 0.0233192 0.004342 0.000282112 0.000163279 3.06285e-05
threshold=0.037000000000000012 0.7350000000000001 0.66500000000000015 0.53500000000000014 0.065000000000000016 0.25000000000000006 0.35000000000000003
decision_type=2 2 2 2 2 2 2
left_child=2 3 4 -2 5 -1 -6
right_child=1 -3 -4 -5 6 -7 -8
leaf_value=-0.054689570392044543 0.019931705323026978 0.078962381405542889 -0.060413637140580546 0.017509282295821767 -0.053822035185886789 -0.054061281012560053 -0.053475704087768486
leaf_weight=1.7337762713432328 3.7836560755968076 4.7925822287797928 1.835361376404762 3.61928391456604 1.2948009818792345 2.5623037591576576 1.2592316344380377
leaf_count=23 24 22 13 16 20 38 21
internal_value=0.00172265 0.0424106 -0.0554085 0.0187474 -0.0540674 -0.0543148 -0.0536513
internal_weight=20.881 12.1955 8.68547 7.40294 6.85011 4.29608 2.55403
internal_count=177 62 115 40 102 61 41
is_linear=0
shrinkage=0.05


Tree=27
num_leaves=7
num_cat=0
split_feature=0 3 12 5 3 5
split_gain=18.038 5.49321 0.0196758 0.00062606 0.000710104 1.25015e-05
threshold=0.037000000000000012 89967.500000000015 0.66500000000000015 0.15000000000000005 179962.50000000003 0.35000000000000003
decision_type=2 2 2 2 2 2
left_child=2 -2 3 -1 5 -5
right_child=1 -3 -4 4 -6 -7
leaf_value=-0.054850406890279084 0.012460400253958084 0.080869050840249451 -0.059805665204082474 -0.053355025989635221 -0.054556860785495466 -0.05317354533093023
leaf_weight=1.2709215246140972 7.1520011723041517 4.9764900654554367 1.7631465643644331 1.7531649954617026 1.448401555418968 2.0686762146651745
leaf_count=16 37 25 13 30 19 37
internal_value=0.0016564 0.0405294 -0.0551179 -0.0538543 -0.0536141 -0.0532568
internal_weight=20.4328 12.1285 8.30431 6.54116 5.27024 3.82184
internal_count=177 62 115 102 86 67
is_linear=0
shrinkage=0.05


Tree=28
num_leaves=7
num_cat=0
split_feature=0 3 12 3 0 3
split_gain=16.7544 5.15416 0.0166242 0.000465639 0.000102613 2.07507e-05
threshold=0.037000000000000012 89948.500000000015 0.66500000000000015 179962.50000000003 0.0010000000000000002 89968.500000000015
decision_type=2 2 2 2 2 2
left_child=2 -2 3 4 5 -1
right_child=1 -3 -4 -5 -6 -7
leaf_value=-0.053046441494193942 0.0055660001866775404 0.070888907909561677 -0.059238688100896254 -0.054403215256615817 -0.053702614066163938 -0.053323185495707359
leaf_weight=1.0738484822213679 5.9595851600170118 6.121463917195797 1.692801237106323 1.5519569739699361 1.7846442162990568 1.8345157913863657
leaf_count=20 30 32 13 21 29 32
internal_value=0.00158741 0.0386651 -0.0548438 -0.0536524 -0.0534041 -0.053221
internal_weight=20.0188 12.081 7.93777 6.24497 4.69301 2.90836
internal_count=177 62 115 102 81 52
is_linear=0
shrinkage=0.05


Tree=29
num_leaves=7
num_cat=0
split_feature=0 3 3 3 8 3
split_gain=15.5784 4.81483 0.00122286 0.000638375 0.000635061 0.000149446
threshold=0.037000000000000012 89967.500000000015 424774.50000000006 97149.500000000015 0.87500000000000011 89968.500000000015
decision_type=2 2 2 2 2 2
left_child=2 -2 3 4 -1 -6
right_child=1 -3 -4 -5 5 -7
leaf_value=-0.055331824644159339 0.010954548861420787 0.075480865628970051 -0.055756744144952512 -0.053393315654674062 -0.053736171113697231 -0.05449725425651232
leaf_weight=1.6451841518282915 7.1832531541585904 4.8381817638874054 1.723333954811096 1.6089122258126733 1.4389917477965357 1.1689658313989637
leaf_count=23 37 25 21 28 25 18
internal_value=0.00152112 0.036924 -0.0545859 -0.0542417 -0.0545626 -0.0540773
internal_weight=19.6068 12.0214 7.58539 5.86205 4.25314 2.60796
internal_count=177 62 115 94 66 43
is_linear=0
shrinkage=0.05


Tree=30
num_leaves=7
num_cat=0
split_feature=12 7 5 8 8 5
split_gain=2.80626 0.930615 2.32026 0.430719 0.000623437 3.44692e-05
threshold=0.37500000000000006 1.0000000180025095e-35 0.15000000000000005 0.82500000000000007 0.82500000000000007 0.35000000000000003
decision_type=2 2 2 2 2 2
left_child=1 -1 -3 -2 -4 -6
right_child=3 2 4 -5 5 -7
leaf_value=0.0054669996865163682 0.0099383086492601264 0.010640691185147278 -0.05449533013303326 0.029125828037799173 -0.052945617867645567 -0.053316273185632417
leaf_weight=2.804499853402378 6.1619082838296872 2.2546898573637009 1.2232861667871477 5.5674328953027725 1.3371450416743758 1.1814228631556032
leaf_count=33 31 20 18 32 26 21
internal_value=0.00303308 -0.0183075 -0.0294264 0.0190458 -0.0535693 -0.0531195
internal_weight=20.5304 8.80104 5.99654 11.7293 3.74185 2.51857
internal_count=181 118 85 63 65 47
is_linear=0
shrinkage=0.05


Tree=31
num_leaves=7
num_cat=0
split_feature=0 3 0 5 8 3
split_gain=15.2401 5.41656 0.540601 0.00186471 0.00116639 0.00029876
threshold=0.28750000000000003 89948.500000000015 0.037000000000000012 0.15000000000000005 0.87500000000000011 95343.500000000015
decision_type=2 2 2 2 2 2
left_child=2 -2 3 -1 -5 -6
right_child=1 -3 -4 4 5 -7
leaf_value=-0.056234752564535709 0.0044890617248813016 0.071633973642988638 -0.020505544742919022 -0.055120740039819774 -0.053184453881878362 -0.054130159103082179
leaf_weight=1.4470941945910469 5.8532470017671567 6.169331356883049 1.3918370157480238 2.172246478497982 1.76027212664485 1.5889841839671133
leaf_count=17 26 31 15 32 35 25
internal_value=0.00289089 0.0389442 -0.0489549 -0.0546371 -0.0542184 -0.0536331
internal_weight=20.383 12.0226 8.36043 6.9686 5.5215 3.34926
internal_count=181 57 124 109 92 60
is_linear=0
shrinkage=0.05


Tree=32
num_leaves=7
num_cat=0
split_feature=12 7 5 8 8 5
split_gain=2.3676 0.838016 2.1557 0.39106 0.000560946 2.66329e-05
threshold=0.37500000000000006 1.0000000180025095e-35 0.15000000000000005 0.82500000000000007 0.82500000000000007 0.35000000000000003
decision_type=2 2 2 2 2 2
left_child=1 -1 -3 -2 -4 -6
right_child=3 2 4 -5 5 -7
leaf_value=0.0053638094577131562 0.0088289555878081419 0.0099824988010265726 -0.054179212161877016 0.027270968158793252 -0.052659529201484367 -0.053000700351071219
leaf_weight=2.7175906263291854 6.1254083514213544 2.2182669080793858 1.1333799064159396 5.4162701740860939 1.2176404520869257 1.0788405053317545
leaf_count=33 31 20 18 32 26 21
internal_value=0.00280313 -0.0174504 -0.0284274 0.0174834 -0.053269 -0.0528198
internal_weight=19.9074 8.36572 5.64813 11.5417 3.42986 2.29648
internal_count=181 118 85 63 65 47
is_linear=0
shrinkage=0.05


Tree=33
num_leaves=8
num_cat=0
split_feature=3 3 12 12 12 7 3
split_gain=2.96705 2.80871 2.87084 0.850074 0.419592 0.221259 0.849076
threshold=44965.500000000007 89182.000000000015 0.12500000000000003 0.065000000000000016 0.59000000000000008 1.0000000180025095e-35 89978.500000000015
decision_type=2 2 2 2 2 2 2
left_child=-1 -2 3 5 -4 -3 -7
right_child=1 2 4 -5 -6 6 -8
leaf_value=0.052009808753181591 -0.046940137030471972 0.0037388157500019338 0.038346896669435568 -0.052751072146728029 0.014994768494244887 0.0068440357338236408 -0.053112440335165205
leaf_weight=2.6401529684662846 3.2291976287961033 1.6863352544605721 3.0918012596666795 1.6407284475862978 5.0910345837473869 1.3230565041303637 1.0664660297334192
leaf_count=14 16 20 22 35 34 20 20
internal_value=0.00267097 -0.00493396 0.00482517 -0.0223617 0.0238181 -0.0101286 -0.0199151
internal_weight=19.7688 17.1286 13.8994 5.71659 8.18284 4.07586 2.38952
internal_count=181 167 151 95 56 60 40
is_linear=0
shrinkage=0.05


Tree=34
num_leaves=8
num_cat=0
split_feature=3 3 12 3 5 5 5
split_gain=2.64063 2.57298 2.65539 1.18912 1.05617 0.741364 1.90741e-05
threshold=44965.500000000007 89182.000000000015 0.27500000000000008 179962.50000000003 0.15000000000000005 0.15000000000000005 0.25000000000000006
decision_type=2 2 2 2 2 2 2
left_child=-1 -2 3 4 -3 -4 -6
right_child=1 2 5 -5 6 -7 -8
leaf_value=0.048668137608912559 -0.04527405971610883 0.00045572954247890353 0.042961226176589352 0.0090826674488715588 -0.052742673041586613 0.010620405421806131 -0.052472108328031598
leaf_weight=2.6793056130409267 3.181848011910918 1.4281683452427367 3.3544653877615929 2.5235929489135742 1.0666311010718348 3.7563419081270695 1.6732389181852338
leaf_count=14 16 15 20 28 23 27 38
internal_value=0.00253585 -0.00474161 0.00460225 -0.0180051 -0.0344058 0.0258769 -0.0525774
internal_weight=19.6636 16.9843 13.8024 6.69163 4.16804 7.11081 2.73987
internal_count=181 167 151 104 76 47 61
is_linear=0
shrinkage=0.05


Tree=35
num_leaves=7
num_cat=0
split_feature=0 0 5 3 8 3
split_gain=14.513 3.1146 0.00190142 0.00168096 0.000270461 0.000304254
threshold=0.59525000000000017 0.037000000000000012 0.25000000000000006 89975.500000000015 0.87500000000000011 97144.500000000015
decision_type=2 2 2 2 2 2
left_child=1 2 3 -1 -4 -6
right_child=-2 -3 4 -5 5 -7
leaf_value=-0.054498526982481435 0.065021434126128708 -0.007313863129041114 -0.05446069707790982 -0.056953807573382031 -0.054156734473430904 -0.053028335533450092
leaf_weight=1.4797559715807458 5.5867137610912314 7.1267888695001602 1.5858325324952605 1.3179944381117819 1.2531899176537993 1.1415348537266252
leaf_count=25 30 39 26 16 24 22
internal_value=-0.00304464 -0.0303918 -0.0546563 -0.0556552 -0.0539542 -0.0536188
internal_weight=19.4918 13.9051 6.77831 2.79775 3.98056 2.39472
internal_count=182 152 113 41 72 46
is_linear=0
shrinkage=0.05


Tree=36
num_leaves=7
num_cat=0
split_feature=0 0 12 3 5 3
split_gain=13.4603 3.05228 0.0166177 0.000189476 0.000224792 5.11594e-06
threshold=0.59525000000000017 0.037000000000000012 0.66500000000000015 179962.50000000003 0.25000000000000006 95343.500000000015
decision_type=2 2 2 2 2 2
left_child=1 2 3 4 -1 -6
right_child=-2 -3 -4 -5 5 -7
leaf_value=-0.053052170348065322 0.063500686484310329 -0.0069658334000028584 -0.058455746953032586 -0.053309678759480297 -0.052129658136464412 -0.052304448115481753
leaf_weight=1.5454541109502336 5.4382667094469062 7.1091788820922375 1.8293877542018888 1.4254850596189497 0.8475362956523893 0.82723626866936684
leaf_count=31 30 39 15 25 22 20
internal_value=-0.00297319 -0.029585 -0.0544192 -0.0528297 -0.0526173 -0.052216
internal_weight=19.0225 13.5843 6.4751 4.64571 3.22023 1.67477
internal_count=182 152 113 98 73 42
is_linear=0
shrinkage=0.05


Tree=37
num_leaves=7
num_cat=0
split_feature=0 0 12 3 5 3
split_gain=12.4877 2.98831 0.0140821 0.000161454 0.000192607 4.37617e-06
threshold=0.59525000000000017 0.037000000000000012 0.66500000000000015 179962.50000000003 0.25000000000000006 95343.500000000015
decision_type=2 2 2 2 2 2
left_child=1 2 3 4 -1 -6
right_child=-2 -3 -4 -5 5 -7
leaf_value=-0.052896029792594307 0.06205904229356856 -0.0066336820479493703 -0.057977754587622304 -0.053138323648453056 -0.052021631736720024 -0.052187209240174039
leaf_weight=1.4743112400174161 5.2901458740234366 7.0923231951892376 1.7541499957442281 1.3602253794670103 0.80783331580460049 0.78861458227038383
leaf_count=31 30 39 15 25 22 20
internal_value=-0.00290259 -0.0287853 -0.0541859 -0.0526848 -0.052484 -0.0521034
internal_weight=18.5676 13.2775 6.18513 4.43098 3.07076 1.59645
internal_count=182 152 113 98 73 42
is_linear=0
shrinkage=0.05


Tree=38
num_leaves=9
num_cat=0
split_feature=0 3 3 0 12 3 9 3
split_gain=11.5886 4.59882 1.71919 5.45441 0.0119436 0.000137647 0.00016507 3.74452e-06
threshold=0.59525000000000017 44958.000000000007 89182.000000000015 0.037000000000000012 0.66500000000000015 179962.50000000003 2.5000000000000004 95343.500000000015
decision_type=2 2 2 2 2 2 2 2
left_child=1 -1 -3 4 5 6 -4 -8
right_child=-2 2 3 -5 -6 -7 7 -9
leaf_value=0.053179374799068341 0.060687700905027557 -0.071741816922440402 -0.052748234086531599 0.033155681436943855 -0.05753028333436188 -0.052976330379951676 -0.051919287478539904 -0.052076170345888607
leaf_weight=1.5380864143371606 5.1429553478956214 2.956340827047824 1.4062383696436866 2.5817688219249249 1.6812482625246046 1.2977429404854772 0.7699113395065067 0.75171253271400928
leaf_count=8 30 16 31 15 15 25 22 20
internal_value=-0.0028331 -0.0279955 -0.0389046 -0.0274683 -0.0539659 -0.0525477 -0.0523577 -0.0519968
internal_weight=18.126 12.983 11.445 8.48862 5.90685 4.22561 2.92786 1.52162
internal_count=182 152 144 128 113 98 73 42
is_linear=0
shrinkage=0.05


Tree=39
num_leaves=7
num_cat=0
split_feature=0 0 12 3 5 3
split_gain=10.7675 2.84881 0.0101379 0.000117406 0.000141503 3.20501e-06
threshold=0.59525000000000017 0.037000000000000012 0.66500000000000015 179962.50000000003 0.25000000000000006 95343.500000000015
decision_type=2 2 2 2 2 2
left_child=1 2 3 4 -1 -6
right_child=-2 -3 -4 -5 5 -7
leaf_value=-0.05260830254359438 0.05937896423512376 -0.0060637526129824872 -0.05711099859583018 -0.052823136365128788 -0.051822303021484897 -0.051970977740867723
leaf_weight=1.3411234449595233 4.997210130095481 7.037775281816721 1.6106960847973821 1.237940866500139 0.73369831591844537 0.71646183729171753
leaf_count=31 30 39 15 25 22 20
internal_value=-0.0027801 -0.0272815 -0.0537582 -0.0524179 -0.0522381 -0.0518958
internal_weight=17.6749 12.6777 5.63992 4.02922 2.79128 1.45016
internal_count=182 152 113 98 73 42
is_linear=0
shrinkage=0.05


Tree=40
num_leaves=8
num_cat=0
split_feature=3 12 3 12 12 5 12
split_gain=5.21396 2.51824 1.3686 0.805239 0.344143 0.608843 0.0207302
threshold=44958.000000000007 0.62500000000000011 179962.50000000003 0.37500000000000006 0.065000000000000016 0.15000000000000005 0.17500000000000002
decision_type=2 2 2 2 2 2 2
left_child=-1 2 3 4 5 -2 -6
right_child=1 -3 -4 -5 6 -7 -8
leaf_value=0.07033724242451328 0.0025950681839801764 0.028558762355470575 0.013594301784746571 -0.012824765610824143 -0.052680667594010071 -0.051904975618070295 -0.062054462561023482
leaf_weight=2.497270010411742 0.88311844691634034 3.5559903457760802 2.3731786459684363 3.9240482300519943 1.3699451666325333 1.2209138646721838 1.0357296131551263
leaf_count=12 15 29 30 19 37 36 13
internal_value=0.00365485 -0.00793917 -0.0199487 -0.0293874 -0.0437991 -0.0290299 -0.0567164
internal_weight=16.8602 14.3629 10.8069 8.43376 4.50971 2.10403 2.40567
internal_count=191 179 150 120 101 51 50
is_linear=0
shrinkage=0.05


Tree=41
num_leaves=9
num_cat=0
split_feature=0 0 0 12 5 3 8 4
split_gain=11.3047 1.72568 0.881931 0.00638417 0.000328901 0.000184099 3.89705e-05 9.41287e-06
threshold=0.44750000000000006 0.59525000000000017 0.037000000000000012 0.66500000000000015 0.15000000000000005 179962.50000000003 0.87500000000000011 1.0000000180025095e-35
decision_type=2 2 2 2 2 2 2 2
left_child=2 -2 3 4 -1 6 -6 -8
right_child=1 -3 -4 -5 5 -7 7 -9
leaf_value=-0.053062133774653568 0.021871410384189698 0.06550600571878 -0.014122828229714501 -0.056507786980360887 -0.052050094847508256 -0.052577722311355247 -0.051759174273624031 -0.051509729165085665
leaf_weight=0.96101794391870754 5.4096044450998289 3.8990691602230072 1.9807518422603605 1.1044535264372823 0.80868122167885381 1.0076656118035314 0.68271395377814748 0.84787426330149174
leaf_count=18 24 25 17 11 23 22 21 30
internal_value=0.00348867 0.0401484 -0.0426693 -0.0531163 -0.0522468 -0.0520127 -0.0517693 -0.051621
internal_weight=16.7018 9.30867 7.39316 5.41241 4.30795 3.34694 2.33927 1.53059
internal_count=191 49 142 125 114 96 74 51
is_linear=0
shrinkage=0.05


Tree=42
num_leaves=7
num_cat=0
split_feature=3 12 3 3 3 5
split_gain=4.49281 2.20796 1.2129 0.720506 0.93515 0.00588455
threshold=44958.000000000007 0.62500000000000011 179962.50000000003 89971.500000000015 89957.500000000015 0.25000000000000006
decision_type=2 2 2 2 2 2
left_child=-1 2 3 4 -2 -5
right_child=1 -3 -4 5 -6 -7
leaf_value=0.064701391687576507 -0.033744058143271138 0.027189122681951384 0.012845070687907793 -0.057158996951974878 0.0075660394301304045 -0.051659437339711081
leaf_weight=2.5252340063452747 4.089921295642851 3.3933890536427489 2.2943171039223662 1.0808160100132225 2.0599738508462906 0.88442786224186409
leaf_count=12 36 29 30 20 35 29
internal_value=0.00338239 -0.00783593 -0.0192538 -0.0283288 -0.0199068 -0.054684
internal_weight=16.3281 13.8028 10.4095 8.11514 6.1499 1.96524
internal_count=191 179 150 120 71 49
is_linear=0
shrinkage=0.05


Tree=43
num_leaves=8
num_cat=0
split_feature=0 0 0 9 3 3 3
split_gain=10.2329 1.68984 0.906661 0.000375836 0.000344448 0.00042658 4.79213e-05
threshold=0.44750000000000006 0.59525000000000017 0.037000000000000012 1.5000000000000002 97149.500000000015 89975.500000000015 89962.000000000015
decision_type=2 2 2 2 2 2 2
left_child=2 -2 3 -1 5 6 -5
right_child=1 -3 -4 4 -6 -7 -8
leaf_value=-0.053803889250581063 0.020417928181799015 0.064223966169884655 -0.012906990455130832 -0.052844161038994066 -0.05215391083145117 -0.053883740426749316 -0.052274489418221687
leaf_weight=1.1322419159114385 5.4283654987812024 3.7034531757235527 1.9462073147296903 0.7723176013678319 1.4409827422350643 1.0662121493369339 0.70720522664487362
leaf_count=20 24 25 17 21 39 24 21
internal_value=0.00322665 0.0381837 -0.0419557 -0.053 -0.0527716 -0.0531213 -0.0525719
internal_weight=16.197 9.13182 7.06517 5.11896 3.98672 2.54573 1.47952
internal_count=191 49 142 125 105 66 42
is_linear=0
shrinkage=0.05


Tree=44
num_leaves=9
num_cat=0
split_feature=0 0 0 12 9 3 8 9
split_gain=9.47408 1.6791 0.907566 0.00518973 0.000226767 0.000165044 2.75241e-05 2.94622e-06
threshold=0.44750000000000006 0.59525000000000017 0.037000000000000012 0.66500000000000015 1.5000000000000002 179962.50000000003 0.87500000000000011 4.5000000000000009
decision_type=2 2 2 2 2 2 2 2
left_child=2 -2 3 4 -1 6 -6 -8
right_child=1 -3 -4 -5 5 -7 7 -9
leaf_value=-0.052718457051128702 0.019295241572633848 0.063411387558738389 -0.012359051535157893 -0.055991948731903531 -0.051800427989615698 -0.052351835467853949 -0.051355839524514869 -0.051506968147957057
leaf_weight=0.86235056445002678 5.4562606513500196 3.5668279677629471 1.9312583059072492 1.0355305150151251 0.70961538702249605 0.9271583892405032 0.81407831609249093 0.5340406745672226
leaf_count=18 24 25 17 11 23 22 32 19
internal_value=0.00312774 0.0367344 -0.0413739 -0.05285 -0.0520043 -0.0517979 -0.0515484 -0.0514157
internal_weight=15.8371 9.02309 6.81403 4.88277 3.84724 2.98489 2.05773 1.34812
internal_count=191 49 142 125 114 96 74 51
is_linear=0
shrinkage=0.05


Tree=45
num_leaves=9
num_cat=0
split_feature=0 0 5 0 12 3 0 12
split_gain=10.8492 1.92288 0.912962 0.0433569 0.00522033 9.27598e-05 0.000109504 3.02825e-06
threshold=0.44750000000000006 0.59525000000000017 1.0000000180025095e-35 0.26500000000000007 0.12500000000000003 106147.00000000001 0.0037500000000000003 0.065000000000000016
decision_type=2 2 2 2 2 2 2 2
left_child=2 -2 -1 4 5 6 7 -4
right_child=1 -3 3 -5 -6 -7 -8 -9
leaf_value=-0.002350954608071539 0.01699845506121626 0.06394308630176164 -0.051438854642675017 -0.065103419672968565 -0.055126041866696812 -0.052249716151637177 -0.052188558344409108 -0.051279592718817615
leaf_weight=0.9513164050877102 5.4801408648490888 3.6237253472208977 0.61500192806124709 0.92397973686456669 2.182186521589756 0.94878808967769135 0.60190179757773865 0.57992635294795036
leaf_count=15 24 26 23 7 30 25 17 24
internal_value=-1.12916e-05 0.0356844 -0.0477791 -0.0551642 -0.0533006 -0.0518498 -0.0516386 -0.0513616
internal_weight=15.907 9.10387 6.8031 5.85178 4.9278 2.74562 1.79683 1.19493
internal_count=191 50 141 126 119 89 64 47
is_linear=0
shrinkage=0.05


Tree=46
num_leaves=9
num_cat=0
split_feature=0 0 12 0 0 12 3 3
split_gain=10.0878 1.89283 0.364033 0.927151 0.0228407 0.00332981 4.87213e-05 2.85946e-05
threshold=0.44750000000000006 0.59525000000000017 0.065000000000000016 0.0037500000000000003 0.11375 0.66500000000000015 89975.500000000015 127762.50000000001
decision_type=2 2 2 2 2 2 2 2
left_child=2 -2 3 7 5 6 -4 -1
right_child=1 -3 4 -5 -6 -7 -8 -9
leaf_value=-0.05181269437790062 0.016086293503024669 0.063170080387782435 -0.051839909955671039 0.015244434964928832 -0.061902877170650808 -0.055561892407783892 -0.052439921668235391 -0.052226214265583298
leaf_weight=1.0245593264698993 5.5007956624031049 3.4881023466587067 0.76224612258374713 0.7288702931255101 1.2932350561022756 1.4186388850212095 0.60835050418972969 0.70620899088680733
leaf_count=34 24 26 26 18 11 16 18 18
internal_value=-2.05603e-05 0.0343569 -0.0472555 -0.0320602 -0.0564104 -0.0538638 -0.0521062 -0.0519814
internal_weight=15.531 8.9889 6.54211 2.45964 4.08247 2.78924 1.3706 1.73077
internal_count=191 50 141 70 71 60 44 52
is_linear=0
shrinkage=0.05


Tree=47
num_leaves=9
num_cat=0
split_feature=0 0 5 0 5 8 7 0
split_gain=9.38 1.86109 0.917381 0.0316035 0.000869336 0.000421592 0.000137038 2.45927e-05
threshold=0.44750000000000006 0.59525000000000017 1.0000000180025095e-35 0.26500000000000007 0.15000000000000005 0.87500000000000011 1.0000000180025095e-35 0.0010000000000000002
decision_type=2 2 2 2 2 2 2 2
left_child=2 -2 -1 4 -4 -6 -7 -8
right_child=1 -3 3 -5 5 6 7 -9
leaf_value=-0.00074916140698295637 0.015228029017152589 0.062445791066710749 -0.054416339534052588 -0.063436079778093388 -0.053247592631297608 -0.052690542927350419 -0.051660975885735073 -0.052102935558174815
leaf_weight=0.92563861981034357 5.5197797119617444 3.3554918989539146 0.84631871245801438 0.85902559012174595 1.5995017439126971 0.77665151283144962 0.73790448531508446 0.54890008270740509
leaf_count=15 24 26 14 7 38 21 28 18
internal_value=-3.03577e-05 0.0330797 -0.0467199 -0.0546465 -0.052972 -0.0526383 -0.0521661 -0.0518495
internal_weight=15.1692 8.87527 6.29394 5.3683 4.50928 3.66296 2.06346 1.2868
internal_count=191 50 141 126 119 105 67 46
is_linear=0
shrinkage=0.05


Tree=48
num_leaves=9
num_cat=0
split_feature=0 0 5 0 12 0 3 12
split_gain=8.72468 1.09332 0.903908 0.0268928 0.00321777 6.89421e-05 0.000112219 1.66428e-06
threshold=0.44750000000000006 0.50250000000000006 1.0000000180025095e-35 0.26500000000000007 0.12500000000000003 0.0037500000000000003 383365.50000000006 0.065000000000000016
decision_type=2 2 2 2 2 2 2 2
left_child=2 -2 -1 4 5 6 7 -4
right_child=1 -3 3 -5 -6 -7 -8 -9
leaf_value=-0.00071215787228509229 0.013045913180708158 0.048437020852088258 -0.051218013747910608 -0.06266850258924303 -0.054356610199239389 -0.052066819316215367 -0.051996769975697035 -0.051098933771769418
leaf_weight=0.9250628165900715 4.107246980071066 4.656050056219101 0.63851397298276447 0.82688428834080685 1.9049201179295776 0.60123979672789563 0.61359567567706097 0.54290039092302322
leaf_count=15 18 32 28 7 30 18 17 26
internal_value=-3.84773e-05 0.0318497 -0.046204 -0.0544104 -0.0528228 -0.0516034 -0.0514482 -0.0511633
internal_weight=14.8164 8.7633 6.05312 5.12805 4.30117 2.39625 1.79501 1.18141
internal_count=191 50 141 126 119 89 71 54
is_linear=0
shrinkage=0.05


Tree=49
num_leaves=9
num_cat=0
split_feature=3 12 3 3 3 7 3 5
split_gain=6.4078 1.64111 1.11778 2.13155 1.32259 0.2823 0.50659 0.00542765
threshold=44958.000000000007 0.62500000000000011 89969.500000000015 89975.500000000015 179962.50000000003 1.0000000180025095e-35 89957.500000000015 0.15000000000000005
decision_type=2 2 2 2 2 2 2 2
left_child=-1 2 5 -4 7 -2 -7 -5
right_child=1 -3 3 4 -6 6 -8 -9
leaf_value=0.091588750082012518 -0.026290348254320663 0.018666204897259328 0.067328513468211268 -0.057199639611204091 0.011130620596433174 -0.068394977817308619 -0.024336751799854658 -0.051279352709971041
leaf_weight=1.6858888715505607 2.9804913047701103 3.2394047975540152 0.863153820857406 0.76223421655595325 1.550547396764159 1.4626405611634257 1.17784640006721 0.7867052610963583
leaf_count=8 17 35 13 11 25 22 25 35
internal_value=-5.18558e-05 -0.0121002 -0.0224997 -0.00216215 -0.0215141 -0.0368371 -0.0487419 -0.0541927
internal_weight=14.5089 12.823 9.58362 3.96264 3.09949 5.62098 2.64049 1.54894
internal_count=191 183 148 84 71 64 47 46
is_linear=0
shrinkage=0.05


Tree=50
num_leaves=10
num_cat=0
split_feature=3 3 3 3 12 12 12 8 9
split_gain=3.82357 4.69199 1.97292 1.10504 0.917053 0.426484 0.12742 0.00408888 0.00075061
threshold=44950.000000000007 89967.500000000015 89972.500000000015 536366.00000000012 0.52500000000000013 0.53500000000000014 0.4250000000000001 0.82500000000000007 2.5000000000000004
decision_type=2 2 2 2 2 2 2 2 2
left_child=-1 5 -3 4 8 6 7 -2 -4
right_child=1 2 3 -5 -6 -7 -8 -9 -10
leaf_value=0.068525722547168502 -0.056861304219674204 0.064520966001026178 -0.053581473411602 0.023752011656109951 0.0051225389422974677 -0.035660967413715682 -0.076033807231947262 -0.051494708926161259 -0.051208807681560498
leaf_weight=1.5614142045378692 0.65057785995304429 1.4682982414960859 0.70106996782124065 2.3882426712661982 1.4332003146409986 2.680764377117157 1.1979464963078497 0.78104380704462528 0.63548940606415272
leaf_count=7 11 18 17 33 15 16 6 32 29
internal_value=-0.00505274 -0.0146774 0.0133855 -0.00117096 -0.022661 -0.0496947 -0.0640017 -0.0539335 -0.0524533
internal_weight=13.498 11.9366 6.6263 5.158 2.76976 5.31033 2.62957 1.43162 1.33656
internal_count=184 177 112 94 61 65 49 43 46
is_linear=0
shrinkage=0.05


Tree=51
num_leaves=10
num_cat=0
split_feature=3 3 3 3 12 12 12 8 9
split_gain=3.44571 4.33349 1.77383 1.18117 0.639225 0.438137 0.105836 0.00354234 0.000716351
threshold=44950.000000000007 89967.500000000015 89975.500000000015 536366.00000000012 0.52500000000000013 0.53500000000000014 0.4250000000000001 0.82500000000000007 2.5000000000000004
decision_type=2 2 2 2 2 2 2 2 2
left_child=-1 5 -3 4 8 6 7 -2 -4
right_child=1 2 3 -5 -6 -7 -8 -9 -10
leaf_value=0.064643130357650777 -0.056532436857501089 0.056767222054474681 -0.053567905353743055 0.022662318563174716 -0.0017189256056859678 -0.034137246520828481 -0.074256201790472195 -0.051420436531896624 -0.051148619549932765
leaf_weight=1.5721377581357963 0.62235786020755612 1.7008154690265653 0.61887906678020976 2.3781905397772789 1.2681235447525976 2.6609157472848892 1.1661003082990644 0.74399790726602077 0.60518959816545248
leaf_count=7 11 22 15 33 13 16 6 32 29
internal_value=-0.00487971 -0.0141703 0.0128073 -0.00254419 -0.0265977 -0.0483052 -0.0631917 -0.0537489 -0.0523718
internal_weight=13.3367 11.7646 6.5712 4.87038 2.49219 5.19337 2.53246 1.36636 1.22407
internal_count=184 177 112 90 57 65 49 43 44
is_linear=0
shrinkage=0.05


Tree=52
num_leaves=8
num_cat=0
split_feature=0 3 12 9 3 9 7
split_gain=5.20745 5.98085 0.00380551 0.000355064 0.000101379 2.06923e-05 2.48458e-06
threshold=0.037000000000000012 89967.500000000015 0.66500000000000015 1.0000000180025095e-35 273579.00000000006 2.5000000000000004 1.0000000180025095e-35
decision_type=2 2 2 2 2 2 2
left_child=2 -2 3 -1 5 -5 -7
right_child=1 -3 -4 4 -6 6 -8
leaf_value=-0.052780323213516667 -0.01597363266447413 0.066782318384127473 -0.054987542033434034 -0.051371008120836871 -0.051892840698044611 -0.051072012591565789 -0.050900722547410696
leaf_weight=0.57507709041237998 5.6766634956002218 3.5477142967283726 1.2943639308214185 0.57839653082191966 0.65243889018893231 0.40803985856473446 0.4399796025827527
leaf_count=12 35 31 16 25 19 20 26
internal_value=-0.00471305 0.0158545 -0.0527648 -0.0516807 -0.0513766 -0.0511404 -0.0509831
internal_weight=13.1727 9.22438 3.9483 2.65393 2.07885 1.42642 0.848019
internal_count=184 66 118 102 90 71 46
is_linear=0
shrinkage=0.05


Tree=53
num_leaves=8
num_cat=0
split_feature=0 3 12 5 3 5 7
split_gain=4.91189 5.54729 0.00324541 0.000303965 8.68565e-05 1.77891e-05 2.1311e-06
threshold=0.037000000000000012 89967.500000000015 0.66500000000000015 1.0000000180025095e-35 273579.00000000006 0.25000000000000006 1.0000000180025095e-35
decision_type=2 2 2 2 2 2 2
left_child=2 -2 3 -1 5 -5 -7
right_child=1 -3 -4 4 -6 6 -8
leaf_value=-0.052637966133002895 -0.015235200687280676 0.06517192475356863 -0.05472164266092177 -0.051302831810654329 -0.051797294710554768 -0.051018654951413861 -0.05085607736583897
leaf_weight=0.54847229644656348 5.654786538332699 3.4559709019958973 1.2370683699846265 0.55090048816055037 0.62173496559262265 0.38853521086275578 0.41887968499213457
leaf_count=12 35 31 16 25 19 20 26
internal_value=-0.00458798 0.0152655 -0.0526231 -0.0515963 -0.0513078 -0.0510838 -0.0509343
internal_weight=12.8763 9.11076 3.76559 2.52852 1.98005 1.35832 0.807415
internal_count=184 66 118 102 90 71 46
is_linear=0
shrinkage=0.05


Tree=54
num_leaves=7
num_cat=0
split_feature=0 3 8 5 7 3
split_gain=4.63409 5.14142 0.000327547 0.000348976 0.000124481 6.55998e-06
threshold=0.037000000000000012 89967.500000000015 0.87500000000000011 0.15000000000000005 1.0000000180025095e-35 89970.500000000015
decision_type=2 2 2 2 2 2
left_child=2 -2 -1 -4 -5 -6
right_child=1 -3 3 4 5 -7
leaf_value=-0.05312634027676482 -0.014529169010153112 0.06355226021767757 -0.053026939215132934 -0.052306960314213474 -0.051506018843200788 -0.051250378144468547
leaf_weight=1.2909161234274518 5.6336499340832216 3.3690846934914589 0.73826798424124751 0.55732068605720964 0.49026328045874834 0.51409130077809095
leaf_count=35 35 31 16 19 24 24
internal_value=-0.00446415 0.0146912 -0.0524889 -0.0521312 -0.0517077 -0.0513752
internal_weight=12.5936 9.00273 3.59086 2.29994 1.56168 1.00435
internal_count=184 66 118 83 67 48
is_linear=0
shrinkage=0.05


Tree=55
num_leaves=7
num_cat=0
split_feature=0 8 12 9 8 9
split_gain=5.53589 1.31246 0.00186507 0.000212505 1.09711e-05 4.40726e-06
threshold=0.037000000000000012 0.82500000000000007 0.66500000000000015 1.5000000000000002 0.82500000000000007 3.5000000000000004
decision_type=2 2 2 2 2 2
left_child=2 -2 3 -1 -5 -6
right_child=1 -3 -4 4 5 -7
leaf_value=-0.052304804864727661 0.009932237652703145 0.047376600355392817 -0.054242262166130963 -0.051372445486328383 -0.050949693958927247 -0.051159024736547168
leaf_weight=0.56053737923503089 5.6152825653552991 4.0123864151537418 0.84137581661343563 0.48299089074134816 0.38283480331301667 0.7326406454667449
leaf_count=14 35 33 12 21 22 37
internal_value=0.00705649 0.0255374 -0.0522453 -0.0514671 -0.0511734 -0.0510872
internal_weight=12.628 9.62767 3.00038 2.159 1.59847 1.11548
internal_count=174 68 106 94 80 59
is_linear=0
shrinkage=0.05


Tree=56
num_leaves=6
num_cat=0
split_feature=0 3 9 8 3
split_gain=5.1593 1.83898 0.000417174 0.000118114 1.1071e-05
threshold=0.037000000000000012 89967.500000000015 1.5000000000000002 0.87500000000000011 97146.500000000015
decision_type=2 2 2 2 2
left_child=2 -2 -1 -4 -5
right_child=1 -3 3 4 -6
leaf_value=-0.053067435602823544 0.0088014634298958817 0.05517894608778047 -0.052166927780151688 -0.051245466763965075 -0.051560570183486233
leaf_weight=0.84060508385300758 6.3567906282842142 3.2203356176614761 0.90331840887665782 0.57630339358001925 0.53989722393453121
leaf_count=18 37 31 33 32 23
internal_value=0.00679743 0.024396 -0.0521315 -0.0517419 -0.0513979
internal_weight=12.4373 9.57713 2.86012 2.01952 1.1162
internal_count=174 68 106 88 55
is_linear=0
shrinkage=0.05


Tree=57
num_leaves=6
num_cat=0
split_feature=0 3 9 8 3
split_gain=4.81301 1.72559 0.000356828 0.000101637 9.49195e-06
threshold=0.037000000000000012 89967.500000000015 1.5000000000000002 0.87500000000000011 97146.500000000015
decision_type=2 2 2 2 2
left_child=2 -2 -1 -4 -5
right_child=1 -3 3 4 -6
leaf_value=-0.052911630004587443 0.0083476030029922439 0.053580925226946755 -0.052060028587519229 -0.051184567253061912 -0.051483525095068719
leaf_weight=0.80190336704254273 6.3670196346938592 3.1523216366767883 0.86098290979862202 0.54883253481239058 0.51431527454406023
leaf_count=18 37 31 33 32 23
internal_value=0.00655189 0.0233266 -0.0520255 -0.0516562 -0.0513292
internal_weight=12.2454 9.51934 2.72603 1.92413 1.06315
internal_count=174 68 106 88 55
is_linear=0
shrinkage=0.05


Tree=58
num_leaves=8
num_cat=0
split_feature=0 3 12 9 3 9 3
split_gain=4.49179 1.61611 0.00117796 0.000132916 3.70142e-05 4.47194e-06 2.25104e-08
threshold=0.037000000000000012 89967.500000000015 0.66500000000000015 1.5000000000000002 179962.50000000003 2.5000000000000004 91761.000000000015
decision_type=2 2 2 2 2 2 2
left_child=2 -2 3 -1 5 -5 -7
right_child=1 -3 -4 4 -6 6 -8
leaf_value=-0.051968657022459321 0.0079179738101654851 0.051984252408411862 -0.053620623620680707 -0.050962890744249069 -0.051349355933746579 -0.050716656890970074 -0.050736591409987021
leaf_weight=0.48470146581530693 6.3766161389648897 3.0883438587188721 0.73459213227033604 0.31111410632729508 0.50028480961918831 0.27283187583088875 0.29445504955947399
leaf_count=14 37 31 12 19 20 20 21
internal_value=0.0063115 0.0222965 -0.0519249 -0.0512565 -0.0510061 -0.0508106 -0.050727
internal_weight=12.0629 9.46496 2.59798 1.86339 1.37869 0.878401 0.567287
internal_count=174 68 106 94 80 60 41
is_linear=0
shrinkage=0.05


Tree=59
num_leaves=8
num_cat=0
split_feature=0 3 12 9 3 9 3
split_gain=4.19367 1.51078 0.00100732 0.000113972 3.17523e-05 3.84855e-06 1.93326e-08
threshold=0.037000000000000012 89967.500000000015 0.66500000000000015 1.5000000000000002 179962.50000000003 2.5000000000000004 91761.000000000015
decision_type=2 2 2 2 2 2 2
left_child=2 -2 3 -1 5 -5 -7
right_child=1 -3 -4 4 -6 6 -8
leaf_value=-0.05186931641043846 0.0075111848414367967 0.050391660062342407 -0.053432280794241366 -0.050915340340089689 -0.051281904081313237 -0.050681237053817677 -0.050700172145055372
leaf_weight=0.46192302368581417 6.3856236152350885 3.02821034938097 0.70116644352674473 0.29621030390262582 0.47649577632546425 0.25970250926911831 0.28029043134301901
leaf_count=14 37 31 12 19 20 20 21
internal_value=0.00607635 0.0213048 -0.0518278 -0.0511938 -0.0509561 -0.0507705 -0.0506911
internal_weight=11.8896 9.41383 2.47579 1.77462 1.3127 0.836203 0.539993
internal_count=174 68 106 94 80 60 41
is_linear=0
shrinkage=0.05


Tree=60
num_leaves=8
num_cat=0
split_feature=0 5 0 0 8 5 7
split_gain=4.5804 1.02886 0.945472 0.00192058 6.26564e-05 8.92373e-05 2.55025e-05
threshold=0.28750000000000003 1.0000000180025095e-35 0.48000000000000004 0.025000000000000005 0.82500000000000007 0.25000000000000006 1.0000000180025095e-35
decision_type=2 2 2 2 2 2 2
left_child=1 -1 -2 4 -3 -6 -7
right_child=2 3 -4 -5 5 6 -8
leaf_value=0.01679998888340219 0.051653699056781938 -0.051247515897867517 0.016042686749420609 -0.054639602776219355 -0.052377358408609624 -0.051835160645357786 -0.051308042725332882
leaf_weight=0.66278184205293689 3.0613875091075897 0.55135057028383094 4.7650000415742397 0.76818915084004391 0.5484565235674379 0.45829122606664896 0.45955241471529007
leaf_count=11 14 28 37 11 22 20 26
internal_value=0.00881775 -0.0391911 0.0299724 -0.052512 -0.0517019 -0.0518728 -0.0515712
internal_weight=11.275 3.44862 7.82639 2.78584 2.01765 1.4663 0.917844
internal_count=169 118 51 107 96 68 46
is_linear=0
shrinkage=0.05


Tree=61
num_leaves=8
num_cat=0
split_feature=0 7 12 5 3 5 7
split_gain=4.22229 0.875277 0.00094867 6.70621e-05 2.32459e-05 3.04151e-06 6.79648e-07
threshold=0.037000000000000012 1.0000000180025095e-35 0.66500000000000015 0.15000000000000005 179962.50000000003 0.25000000000000006 1.0000000180025095e-35
decision_type=2 2 2 2 2 2 2
left_child=2 -2 3 -1 5 -5 -7
right_child=1 -3 -4 4 -6 6 -8
leaf_value=-0.051622309068418394 0.039556708376271836 0.0080961604875818619 -0.053189948227973766 -0.050819519268258284 -0.051167983302186998 -0.050675426361429923 -0.050555223886009228
leaf_weight=0.37648884952068451 4.518251568078993 4.3290608115494251 0.7732391171157359 0.29776518046855904 0.39118619076907635 0.23513943050056696 0.23524972796440125
leaf_count=13 24 39 14 21 18 18 22
internal_value=0.00844851 0.0241628 -0.0517616 -0.0510425 -0.0508542 -0.0506945 -0.0506153
internal_weight=11.1564 8.84731 2.30907 1.53583 1.15934 0.768154 0.470389
internal_count=169 63 106 92 79 61 40
is_linear=0
shrinkage=0.05


Tree=62
num_leaves=8
num_cat=0
split_feature=0 3 12 9 3 9 7
split_gain=3.92544 0.871292 0.000811776 5.75453e-05 1.99524e-05 2.61706e-06 5.83835e-07
threshold=0.037000000000000012 89967.500000000015 0.66500000000000015 1.5000000000000002 179962.50000000003 2.5000000000000004 1.0000000180025095e-35
decision_type=2 2 2 2 2 2 2
left_child=2 -2 3 -1 5 -5 -7
right_child=1 -3 -4 4 -6 6 -8
leaf_value=-0.051540960796502791 0.011972892743081944 0.045373432838806314 -0.053025119771650892 -0.050779101267364561 -0.051109798181911428 -0.050642057511469635 -0.050527862615755863
leaf_weight=0.35867824964225414 5.9363878071308118 2.9094766415655613 0.73775640502572049 0.28346276376396395 0.37252074480056763 0.22381520736962557 0.2238945821300149
leaf_count=13 33 30 14 21 18 18 22
internal_value=0.00809358 0.0229586 -0.0516729 -0.0509908 -0.050812 -0.0506602 -0.0505849
internal_weight=11.046 8.84586 2.20013 1.46237 1.10369 0.731173 0.44771
internal_count=169 63 106 92 79 61 40
is_linear=0
shrinkage=0.05


Tree=63
num_leaves=7
num_cat=0
split_feature=0 5 0 0 5 3
split_gain=3.69 1.00276 0.825946 0.0019925 5.56391e-05 1.18714e-05
threshold=0.28750000000000003 1.0000000180025095e-35 0.48000000000000004 0.037000000000000012 0.25000000000000006 97149.500000000015
decision_type=2 2 2 2 2 2
left_child=1 -1 -2 4 -3 -6
right_child=2 3 -4 -5 5 -7
leaf_value=0.017301978437213969 0.04632066487887717 -0.051846469228677299 0.013015540625787853 -0.054661547762816134 -0.051437031285887926 -0.051104757682966309
leaf_weight=0.65114567428827319 3.0906935930252075 0.72049500327557359 4.6807502396404743 0.69324013218283642 0.56488827895373084 0.51287305634468794
leaf_count=11 14 33 37 10 34 30
internal_value=0.00777312 -0.0379455 0.0262609 -0.0523842 -0.0515063 -0.0512789
internal_weight=10.9141 3.14264 7.77144 2.4915 1.79826 1.07776
internal_count=169 118 51 107 97 64
is_linear=0
shrinkage=0.05


Tree=64
num_leaves=10
num_cat=0
split_feature=3 3 12 5 3 5 12 5 12
split_gain=1.94895 2.09725 1.04141 1.13116 1.12422 0.620025 0.0257768 0.000646219 2.51276e-06
threshold=44965.500000000007 86791.000000000015 0.37500000000000006 1.0000000180025095e-35 1564161.0000000002 0.15000000000000005 0.27500000000000008 0.25000000000000006 0.065000000000000016
decision_type=2 2 2 2 2 2 2 2 2
left_child=-1 -2 3 -3 6 -4 7 -5 -9
right_child=1 2 5 4 -6 -7 -8 8 -10
leaf_value=0.046258114089449569 -0.070543946590005041 0.035222682882945916 0.042090099765478638 -0.053124762447189368 0.019742798414993268 0.0033931929986324252 -0.065416338597381399 -0.050583819648887945 -0.050812243188988554
leaf_weight=2.4890555292367944 1.0412467047572116 0.79006465524435077 1.9676637649536131 0.62700829841196559 0.68672580458223809 2.1841663233935833 0.5361792379990219 0.25526209268718958 0.22787163499742746
leaf_count=13 6 11 19 26 16 25 10 23 20
internal_value=0.00744329 -0.00417408 0.00532529 -0.0164865 -0.0339974 0.0217327 -0.0564139 -0.0520658 -0.0506916
internal_weight=10.8052 8.31619 7.27494 3.12311 2.33305 4.15183 1.64632 1.11014 0.483134
internal_count=169 156 150 106 95 44 79 69 43
is_linear=0
shrinkage=0.05


Tree=65
num_leaves=8
num_cat=0
split_feature=3 0 0 12 5 3 5
split_gain=4.70091 4.63142 0.710361 0.000468062 0.000112103 2.31771e-05 3.21885e-06
threshold=16617.500000000004 0.7350000000000001 0.037000000000000012 0.72500000000000009 1.0000000180025095e-35 383365.50000000006 0.35000000000000003
decision_type=2 2 2 2 2 2 2
left_child=-1 2 3 4 -2 6 -6
right_child=1 -3 -4 -5 5 -7 -8
leaf_value=0.093859756963480492 -0.051764291016353298 0.055842116754743022 -0.017952920624645773 -0.052698943321802742 -0.050707841666451571 -0.051083283947517592 -0.05050380699801741
leaf_weight=1.2266288697719581 0.37839359603822087 2.1476797163486472 6.1790227871388197 0.56011619791388501 0.43547740578651406 0.4047120800241828 0.34758807672187686
leaf_count=5 12 28 38 12 35 20 36
internal_value=0.00125989 -0.00960644 -0.0265309 -0.0514585 -0.0510148 -0.0507761 -0.0506173
internal_weight=11.6796 10.453 8.30531 2.12629 1.56617 1.18778 0.783065
internal_count=186 181 153 115 103 91 71
is_linear=0
shrinkage=0.05


Tree=66
num_leaves=7
num_cat=0
split_feature=0 0 12 5 12 5
split_gain=3.29153 1.23467 0.000401007 9.61767e-05 4.16018e-06 9.01376e-07
threshold=0.50250000000000006 0.037000000000000012 0.72500000000000009 1.0000000180025095e-35 0.065000000000000016 0.45000000000000007
decision_type=2 2 2 2 2 2
left_child=1 2 3 -1 5 -5
right_child=-2 -3 -4 4 -6 -7
leaf_value=-0.05167553297603359 0.03866380685304352 -0.0057667451750678137 -0.052561024828097394 -0.05075964302889812 -0.050615983161433259 -0.050873510938400104
leaf_weight=0.36054175160825286 3.8801383599638939 5.5408704504370689 0.5341617390513419 0.36903255479410269 0.43313814420253038 0.32851099502295256
leaf_count=12 36 35 12 29 40 22
internal_value=0.00122245 -0.0179783 -0.0513855 -0.0509644 -0.0507377 -0.0508133
internal_weight=11.4464 7.56626 2.02539 1.49122 1.13068 0.697544
internal_count=186 150 115 103 91 51
is_linear=0
shrinkage=0.05


Tree=67
num_leaves=8
num_cat=0
split_feature=3 3 12 3 3 3 12
split_gain=4.25232 1.66083 1.25136 0.355992 1.54562 1.03446 0.0169276
threshold=16617.500000000004 89182.000000000015 0.52500000000000013 89969.500000000015 89972.500000000015 179962.50000000003 0.17500000000000002
decision_type=2 2 2 2 2 2 2
left_child=-1 -2 3 -3 -5 6 -6
right_child=1 2 -4 4 5 -7 -8
leaf_value=0.089629165663666036 -0.034376793581901106 -0.032261908653148888 0.038329704655597485 0.065894789578916188 -0.051588451440741236 0.012804355610632177 -0.064667960883821887
leaf_weight=1.2125448584556586 4.0225320141762477 1.1960488907061519 2.0943041816353798 0.67869103699922595 0.50734751624986563 1.0791707560420034 0.48275432176887989
leaf_count=5 24 38 34 11 39 30 5
internal_value=0.00117384 -0.0094869 0.00709395 -0.0094925 0.000417865 -0.0210576 -0.0579658
internal_weight=11.2734 10.0608 6.03832 3.94401 2.74796 2.06927 0.990102
internal_count=186 181 157 123 85 74 44
is_linear=0
shrinkage=0.05


Tree=68
num_leaves=10
num_cat=0
split_feature=3 0 8 3 0 0 3 0 9
split_gain=3.89111 4.01116 0.795187 2.57994 1.26322 1.6469 0.970152 2.7257 5.09053e-05
threshold=16617.500000000004 0.7350000000000001 0.82500000000000007 88166.000000000015 0.48000000000000004 0.28750000000000003 89970.500000000015 0.037000000000000012 3.5000000000000004
decision_type=2 2 2 2 2 2 2 2 2
left_child=-1 2 4 -4 5 -2 -5 8 -8
right_child=1 -3 3 6 -6 -7 7 -9 -10
leaf_value=0.086312645309097338 -0.053967704401642093 0.055261862726733661 0.079556965549517175 -0.066775021391454012 -0.061513643170278166 0.032485120689912848 -0.05171460830695164 0.090589658956721456 -0.051003529096538672
leaf_weight=1.1965752393007285 1.0816777204163339 1.9464898630976684 0.69739171490073237 1.0187041428871455 2.5734250694513321 1.1225611269474027 0.50702804001048185 0.5092087760567664 0.49978696089237928
leaf_count=5 34 28 4 36 12 6 23 3 35
internal_value=0.00112188 -0.00911661 -0.0247615 -0.00560754 -0.0377192 -0.00993954 -0.0290392 -0.0036824 -0.0513616
internal_weight=11.1528 9.95627 8.00978 3.23212 4.77766 2.20424 2.53473 1.51602 1.00682
internal_count=186 181 153 101 52 40 97 61 58
is_linear=0
shrinkage=0.05


Tree=69
num_leaves=9
num_cat=0
split_feature=0 3 8 0 12 0 3 5
split_gain=2.81521 1.68954 1.61101 0.013373 0.000493784 3.78236e-05 1.55744e-05 8.27324e-07
threshold=0.38700000000000007 89182.000000000015 0.92500000000000016 0.11375 0.12500000000000003 0.0032500000000000007 107943.50000000001 0.35000000000000003
decision_type=2 2 2 2 2 2 2 2
left_child=2 -2 3 4 5 6 7 -1
right_child=1 -3 -4 -5 -6 -7 -8 -9
leaf_value=-0.050538881380414881 -0.0014989476810399653 0.046337587341661275 0.04722610821706328 -0.059124861748922036 -0.052584949677537351 -0.05134390191398791 -0.050910003199851485 -0.050387014007178293
leaf_weight=0.16558110108599133 4.7161828130483627 3.0328021682798862 0.46099483454599965 0.86816607229411591 0.70924183353781689 0.31798409624025226 0.39830584498122334 0.1956313643604517
leaf_count=18 22 33 13 11 22 17 24 26
internal_value=0.00108413 0.0172233 -0.0390527 -0.054034 -0.0515604 -0.0508861 -0.0506944 -0.0504566
internal_weight=10.8649 7.74898 3.11591 2.65491 1.78674 1.0775 0.759518 0.361212
internal_count=186 55 131 118 107 85 68 44
is_linear=0
shrinkage=0.05


Tree=70
num_leaves=10
num_cat=0
split_feature=0 5 0 0 0 8 8 3 3
split_gain=3.47471 1.54373 0.206858 0.0353819 0.000588195 2.66338e-05 4.67275e-05 2.50933e-05 8.94622e-06
threshold=0.44750000000000006 1.0000000180025095e-35 0.51750000000000018 0.28750000000000003 0.025000000000000005 0.82500000000000007 0.87500000000000011 424774.50000000006 91761.000000000015
decision_type=2 2 2 2 2 2 2 2 2
left_child=1 -1 -2 4 5 -3 -7 8 -8
right_child=2 3 -4 -5 -6 6 7 -9 -10
leaf_value=0.018953624206453242 0.03462497732175155 -0.050817940415840847 0.016457663548634979 -0.065456714179432107 -0.053166876595068836 -0.051867804842123236 -0.050739711299113636 -0.051530750348504843 -0.051155810240909219
leaf_weight=0.9713718015700582 3.7424975335597992 0.32537332922220263 2.6952842622995377 0.62218475341796864 0.53185417130589474 0.29711183626204707 0.28190150996670127 0.261519487015903 0.23843830311670899
leaf_count=17 17 26 29 4 11 13 28 12 19
internal_value=0.00515945 -0.0347092 0.0270189 -0.055084 -0.0517508 -0.0512145 -0.051334 -0.0511312 -0.0509304
internal_weight=9.96754 3.52976 6.43778 2.55838 1.9362 1.40434 1.07897 0.781859 0.52034
internal_count=176 130 46 113 109 98 72 59 47
is_linear=0
shrinkage=0.05


Tree=71
num_leaves=10
num_cat=0
split_feature=0 9 0 0 0 12 3 9 3
split_gain=3.18886 1.47751 0.180492 0.0298992 0.000503973 0.000278735 7.55956e-06 1.80506e-06 1.07023e-07
threshold=0.44750000000000006 1.0000000180025095e-35 0.51750000000000018 0.28750000000000003 0.025000000000000005 0.66500000000000015 383365.50000000006 2.5000000000000004 97144.500000000015
decision_type=2 2 2 2 2 2 2 2 2
left_child=1 -1 -2 4 5 6 7 -3 -9
right_child=2 3 -4 -5 -6 -7 -8 8 -10
leaf_value=0.017839285868748635 0.032769241648393739 -0.050582462237408844 0.015770533411444909 -0.064510341336387805 -0.053005370887731711 -0.052060399688101777 -0.050820335193079769 -0.050378979528820617 -0.050436313854588133
leaf_weight=0.98021207749843631 3.756342425942421 0.2577264551073315 2.672673549503088 0.60030140355229367 0.50741789489984501 0.51948226429522038 0.2328503429889679 0.17560083419084549 0.15171591192483902
leaf_count=17 17 26 29 4 11 14 15 24 19
internal_value=0.00494136 -0.0340256 0.0257025 -0.0548177 -0.0516637 -0.0511547 -0.0505794 -0.0504835 -0.0504056
internal_weight=9.85432 3.42531 6.42902 2.4451 1.84479 1.33738 0.817894 0.585043 0.327317
internal_count=176 130 46 113 109 98 84 69 43
is_linear=0
shrinkage=0.05


Tree=72
num_leaves=9
num_cat=0
split_feature=7 12 12 12 12 5 8 12
split_gain=1.31394 0.817467 0.45526 2.12302 0.656456 0.964937 0.0663323 0.0754941
threshold=1.0000000180025095e-35 0.53500000000000014 0.72500000000000009 0.4250000000000001 0.32500000000000001 1.0000000180025095e-35 0.82500000000000007 0.065000000000000016
decision_type=2 2 2 2 2 2 2 2
left_child=1 -1 3 4 5 -2 -7 -8
right_child=2 -3 -4 -5 -6 6 7 -9
leaf_value=-0.0016851408421851609 0.023062147360279464 0.039071769943882645 0.013501680518565035 -0.09624376173218091 0.037953324653439993 -0.056353083316558333 -0.05071623126846421 -0.011095727976485973
leaf_weight=2.0890406044200063 0.85960819572210434 2.9928664118051529 1.1106667947024105 0.77670207247138012 0.73070521838963021 0.70117787923663832 0.25833506137132645 0.22489880817010999
leaf_count=37 14 20 26 5 5 26 24 19
internal_value=0.00473171 0.0223177 -0.0144378 -0.0231756 -0.0027223 -0.0172632 -0.04653 -0.0322767
internal_weight=9.744 5.08191 4.66209 3.55143 2.77473 2.04402 1.18441 0.483234
internal_count=176 57 119 93 88 83 69 43
is_linear=0
shrinkage=0.05


Tree=73
num_leaves=9
num_cat=0
split_feature=3 0 0 12 9 3 9 3
split_gain=3.06029 2.06713 1.02618 0.000248572 0.000118521 5.93484e-06 1.37114e-06 7.84341e-08
threshold=44958.000000000007 0.8187500000000002 0.037000000000000012 0.66500000000000015 1.0000000180025095e-35 383365.50000000006 2.5000000000000004 97144.500000000015
decision_type=2 2 2 2 2 2 2 2
left_child=-1 2 3 4 -2 6 -6 -8
right_child=1 -3 -4 -5 5 -7 7 -9
leaf_value=0.069633095494307545 -0.051628372341113241 0.053794872534463724 -0.0069418996108381037 -0.052151904128202559 -0.050537772892259518 -0.050758528677610583 -0.050354007823718266 -0.050404849903597004
leaf_weight=1.5208824127912528 0.36923729628324309 1.1737392991781233 5.2704349458217621 0.60312341153621662 0.2373939766548574 0.21412310097366571 0.16388593381270766 0.14122675731778145
leaf_count=8 13 22 33 16 26 15 24 19
internal_value=0.00450835 -0.00761022 -0.0179073 -0.0513328 -0.050894 -0.0505356 -0.0504477 -0.0503775
internal_weight=9.69405 8.17316 6.99943 1.72899 1.12587 0.75663 0.542507 0.305113
internal_count=176 168 146 113 97 84 69 43
is_linear=0
shrinkage=0.05


Tree=74
num_leaves=7
num_cat=0
split_feature=3 0 0 5 8 7
split_gain=2.82347 1.93588 1.00067 7.13404e-05 1.90534e-05 1.17235e-05
threshold=44958.000000000007 0.8187500000000002 0.037000000000000012 0.15000000000000005 0.87500000000000011 1.0000000180025095e-35
decision_type=2 2 2 2 2 2
left_child=-1 2 3 -2 -5 -6
right_child=1 -3 -4 4 5 -7
leaf_value=0.067597255989600022 -0.051689576425457254 0.053601594630573547 -0.0066056458617899791 -0.051241791876874866 -0.051074538488102589 -0.050608358161100209
leaf_weight=1.4891623184084899 0.62053051777183821 1.1204194985330103 5.2620062120258808 0.47664140071719863 0.23748650727793574 0.31208536075428128
leaf_count=8 25 22 33 34 18 36
internal_value=0.00436401 -0.0073638 -0.0172508 -0.0512664 -0.0510105 -0.0508098
internal_weight=9.51833 8.02917 6.90875 1.64674 1.02621 0.549572
internal_count=176 168 146 113 88 54
is_linear=0
shrinkage=0.05


Tree=75
num_leaves=9
num_cat=0
split_feature=0 0 0 12 9 0 3 9
split_gain=2.36339 1.42525 0.00262406 0.000188632 6.68845e-05 7.02932e-06 6.28161e-06 3.71851e-07
threshold=0.7350000000000001 0.28750000000000003 0.11375 0.66500000000000015 1.0000000180025095e-35 0.0017500000000000003 179962.50000000003 3.5000000000000004
decision_type=2 2 2 2 2 2 2 2
left_child=1 2 3 4 -1 6 7 -6
right_child=-2 -3 -4 -5 5 -7 -8 -9
leaf_value=-0.051459181887682975 0.053967041849900144 -0.0050719070216403463 -0.055228819107030529 -0.051972880514996427 -0.050412629339559326 -0.05085954625162125 -0.05066495225655613 -0.050311723874912763
leaf_weight=0.2807690948247894 1.3770156726241118 6.6170765683054924 0.52328969724476326 0.48514544405043114 0.1652341284789145 0.16470339009538293 0.29976524133235216 0.20405396819114685
leaf_count=11 26 31 9 14 22 15 24 34
internal_value=-0.00691619 -0.0165085 -0.0521553 -0.0511499 -0.0507917 -0.0505669 -0.0504949 -0.0503569
internal_weight=10.1171 8.74004 2.12296 1.59967 1.11453 0.833757 0.669053 0.369288
internal_count=186 160 129 120 106 95 80 56
is_linear=0
shrinkage=0.05


Tree=76
num_leaves=7
num_cat=0
split_feature=0 0 0 5 5 0
split_gain=2.21402 1.38247 0.0022611 6.38373e-05 7.21438e-06 2.20783e-06
threshold=0.7350000000000001 0.28750000000000003 0.11375 0.25000000000000006 0.45000000000000007 0.0010000000000000002
decision_type=2 2 2 2 2 2
left_child=1 2 3 5 -5 -1
right_child=-2 -3 -4 4 -6 -7
leaf_value=-0.051490574821357687 0.053765639776436225 -0.0048205512317263067 -0.054967710861984556 -0.050901969490307813 -0.050590817098696034 -0.051318797971831601
leaf_weight=0.43259014841168963 1.3146404512226588 6.6140806600451469 0.50007329136133183 0.43573170760646462 0.32542102271690965 0.32956891087815166
leaf_count=26 26 31 9 39 38 17
internal_value=-0.00668393 -0.0158845 -0.0520505 -0.0510928 -0.0507689 -0.0514163
internal_weight=9.95211 8.63747 2.02339 1.52331 0.761153 0.762159
internal_count=186 160 129 120 77 43
is_linear=0
shrinkage=0.05


Tree=77
num_leaves=7
num_cat=0
split_feature=0 0 0 5 3 5
split_gain=2.07471 1.33992 0.00194781 5.48634e-05 1.33583e-05 6.2048e-06
threshold=0.7350000000000001 0.28750000000000003 0.11375 0.25000000000000006 89975.500000000015 0.45000000000000007
decision_type=2 2 2 2 2 2
left_child=1 2 3 4 -1 -5
right_child=-2 -3 -4 5 -6 -7
leaf_value=-0.051137209096858219 0.053574853385794298 -0.0045815841179388927 -0.054719990971978542 -0.050857723755612809 -0.051566312730914193 -0.05056195854662926
leaf_weight=0.37220845930278101 1.254865430295468 6.611182939261198 0.47778344340622414 0.41483231773599982 0.35374298132956028 0.30972227733582258
leaf_count=26 26 31 9 39 17 38
internal_value=-0.00645651 -0.0152781 -0.0519511 -0.0510391 -0.0513463 -0.0507313
internal_weight=9.79434 8.53947 1.92829 1.45051 0.725951 0.724555
internal_count=186 160 129 120 43 77
is_linear=0
shrinkage=0.05


Tree=78
num_leaves=7
num_cat=0
split_feature=0 0 0 5 3 5
split_gain=1.94475 1.29767 0.00167794 4.71428e-05 1.14705e-05 5.33672e-06
threshold=0.7350000000000001 0.28750000000000003 0.11375 0.25000000000000006 89975.500000000015 0.45000000000000007
decision_type=2 2 2 2 2 2
left_child=1 2 3 4 -1 -5
right_child=-2 -3 -4 5 -6 -7
leaf_value=-0.05108116475160112 0.053394082717137074 -0.004354397748071873 -0.054484930801567591 -0.050815661097273583 -0.051488599938801366 -0.050534511922485238
leaf_weight=0.35443429835140505 1.1976040620356805 6.6083836033940315 0.45639285445213307 0.39491910161450505 0.33698578644543886 0.294772919267416
leaf_count=26 26 31 9 39 17 38
internal_value=-0.00623397 -0.0146891 -0.0518565 -0.050988 -0.0512797 -0.0506955
internal_weight=9.64349 8.44589 1.8375 1.38111 0.69142 0.689692
internal_count=186 160 129 120 43 77
is_linear=0
shrinkage=0.05


Tree=79
num_leaves=9
num_cat=0
split_feature=3 12 3 12 12 5 3 5
split_gain=0.777251 1.48283 0.268913 0.218053 0.00171297 2.97725e-05 2.58004e-06 3.29399e-07
threshold=89182.000000000015 0.37500000000000006 179962.50000000003 0.27500000000000008 0.12500000000000003 1.0000000180025095e-35 89963.500000000015 0.35000000000000003
decision_type=2 2 2 2 2 2 2 2
left_child=-1 2 3 4 5 -2 -7 -8
right_child=1 -3 -4 -5 -6 6 7 -9
leaf_value=-0.018560087402720325 -0.051169094705511176 0.036524915850283488 0.0044369613889919286 -0.0073783067554069482 -0.055775875606711871 -0.050586200593716601 -0.050376640438774357 -0.050257452140999831
leaf_weight=5.3692327421158552 0.20541778206825234 2.3376640602946281 0.57002577511593688 0.40918625798076391 0.23063061246648431 0.14525817288085818 0.11675295839086175 0.11513386364094913
leaf_count=31 10 40 29 8 5 22 18 23
internal_value=-0.00601634 0.010291 -0.0239235 -0.0371487 -0.0521287 -0.0506848 -0.050421 -0.0503175
internal_weight=9.4993 4.13007 1.79241 1.22238 0.813193 0.582563 0.377145 0.231887
internal_count=186 155 115 86 78 73 63 41
is_linear=0
shrinkage=0.05


Tree=80
num_leaves=9
num_cat=0
split_feature=0 9 9 0 0 0 12 7
split_gain=3.46157 1.05235 1.05307 2.02899 0.892871 0.0334079 0.000136061 1.64942e-07
threshold=0.59525000000000017 3.5000000000000004 1.5000000000000002 0.48000000000000004 0.45800000000000007 0.38700000000000007 0.27500000000000008 1.0000000180025095e-35
decision_type=2 2 2 2 2 2 2 2
left_child=1 2 -1 4 -4 6 7 -3
right_child=-2 5 3 -5 -6 -7 -8 -9
leaf_value=-0.036529885671327054 0.056988281900135621 -0.050410361723556965 0.010594090222756753 -0.031761000653150899 0.093062450720843001 -0.066117145306018088 -0.05195397451556976 -0.050477369058627181
leaf_weight=2.4926351956091821 1.6654213741421697 0.17215851927176096 0.63209081953391455 1.4931939542293546 0.6827043890953064 0.90564173460006714 0.25161847285926342 0.19684946211054921
leaf_count=30 29 26 40 7 3 5 8 28
internal_value=-0.00764303 -0.0234098 -0.0128759 0.00812155 0.0534156 -0.0599934 -0.0510574 -0.0504461
internal_weight=8.49231 6.82689 5.30062 2.80799 1.3148 1.52627 0.620626 0.369008
internal_count=176 147 80 50 43 67 62 54
is_linear=0
shrinkage=0.05


Tree=81
num_leaves=8
num_cat=0
split_feature=3 12 3 3 3 3 12
split_gain=1.99537 2.55693 2.06453 0.825581 0.610635 0.360541 0.00609483
threshold=44958.000000000007 0.62500000000000011 89967.500000000015 89972.500000000015 179962.50000000003 86908.500000000015 0.17500000000000002
decision_type=2 2 2 2 2 2 2
left_child=-1 2 5 -4 6 -2 -5
right_child=1 -3 3 4 -6 -7 -8
leaf_value=0.042728852524496923 -0.043194890399920263 0.040365927464889595 0.053454654654023194 -0.051230982729465385 0.015422028193532564 -0.075573000174165988 -0.061850244905294463
leaf_weight=1.6027750000357626 1.8758678007870915 1.4151326827704904 0.63786054728552688 0.30006101354956605 0.6619207626208663 1.5873231112491337 0.24580347491428256
leaf_count=8 12 32 15 39 29 37 4
internal_value=-0.00740379 -0.0193538 -0.0352728 0.00743878 -0.0168633 -0.0580351 -0.0560129
internal_weight=8.32674 6.72397 5.30884 1.84565 1.20779 3.46319 0.545864
internal_count=176 168 136 87 72 49 43
is_linear=0
shrinkage=0.05


Tree=82
num_leaves=8
num_cat=0
split_feature=3 12 3 3 3 3 12
split_gain=1.83426 2.35168 1.91863 0.747848 0.577892 0.345729 0.00519591
threshold=44958.000000000007 0.62500000000000011 89967.500000000015 89972.500000000015 179962.50000000003 86908.500000000015 0.17500000000000002
decision_type=2 2 2 2 2 2 2
left_child=-1 2 5 -4 6 -2 -5
right_child=1 -3 3 4 -6 -7 -8
leaf_value=0.041266702448180842 -0.041885443300921192 0.038751083399896462 0.050780528358419397 -0.051172789075623275 0.014690010805775387 -0.073991810579356943 -0.061194835235998481
leaf_weight=1.5772435143589971 1.8387419059872629 1.4007771108299492 0.63787798769772042 0.28574327495880403 0.66020516259595752 1.5413498734124003 0.2362561197951436
leaf_count=8 12 32 15 39 29 37 4
internal_value=-0.0071757 -0.0187506 -0.0342399 0.00714817 -0.0163944 -0.0565262 -0.0557088
internal_weight=8.17819 6.60095 5.20017 1.82008 1.1822 3.38009 0.521999
internal_count=176 168 136 87 72 49 43
is_linear=0
shrinkage=0.05


Tree=83
num_leaves=11
num_cat=0
split_feature=0 3 0 12 3 3 12 3 5 3
split_gain=2.97436 2.14701 0.893675 1.96397 0.994795 1.34985 0.00558446 0.00145485 6.59388e-05 3.24016e-06
threshold=0.59525000000000017 44958.000000000007 0.49750000000000005 0.59000000000000008 89967.500000000015 89972.500000000015 0.17500000000000002 65823.000000000015 0.25000000000000006 383365.50000000006
decision_type=2 2 2 2 2 2 2 2 2 2
left_child=1 -1 3 4 7 -6 8 -3 -7 -10
right_child=-2 2 -4 -5 5 6 -8 -9 9 -11
leaf_value=0.035895183975128642 0.056258216209535562 -0.064803447569733427 -0.073395004988220117 0.043740020897889684 0.047728341029244004 -0.051588667867335958 -0.060171264797436591 -0.06762547323298651 -0.050239227266382837 -0.050566788676696041
leaf_weight=1.3001214563846586 1.5108951851725576 0.84946225024759792 1.2190153300762174 0.83459563925862301 0.58014177205041029 0.20343674230389297 0.23651583725586534 0.98777394648641348 0.12898281821981072 0.18205452524125576
leaf_count=6 29 7 6 13 14 15 5 35 29 17
internal_value=-0.00695457 -0.0215983 -0.0359125 -0.024498 -0.042473 -0.00955818 -0.0538122 -0.0663207 -0.0508887 -0.050431
internal_weight=8.033 6.5221 5.22198 4.00296 3.16837 1.33113 0.75099 1.83724 0.514474 0.311037
internal_count=176 147 141 135 122 80 66 42 61 46
is_linear=0
shrinkage=0.05


Tree=84
num_leaves=10
num_cat=0
split_feature=0 5 5 0 0 0 0 0 7
split_gain=2.79034 0.950356 0.96702 1.58684 0.832149 0.826067 0.0190214 3.21008e-05 1.02635e-06
threshold=0.59525000000000017 0.35000000000000003 0.15000000000000005 0.48000000000000004 0.45800000000000007 0.037000000000000012 0.38700000000000007 0.0010000000000000002 1.0000000180025095e-35
decision_type=2 2 2 2 2 2 2 2 2
left_child=1 2 -1 4 5 -4 7 8 -3
right_child=-2 6 3 -5 -6 -7 -8 -9 -10
leaf_value=-0.034215834997997623 0.055969201354156728 -0.050776904050137267 -0.05090510130562359 -0.027175285992451621 0.08950960539832703 0.064638944010802085 -0.06299700439041446 -0.05149549986632769 -0.050609241817653042
leaf_weight=2.3660657582804561 1.4444420114159582 0.18952974909916498 0.30045804567635082 1.3919836431741712 0.6521465927362442 0.31884507276117802 0.80263856053352356 0.19132944312877953 0.17607550881803036
leaf_count=30 29 24 36 7 3 4 5 15 23
internal_value=-0.00679172 -0.0209807 -0.0109546 0.00970957 0.0500911 0.00858217 -0.0580706 -0.0509708 -0.0506962
internal_weight=7.83351 6.38907 5.0295 2.66343 1.27145 0.619303 1.35957 0.556935 0.365605
internal_count=176 147 80 50 43 40 67 62 47
is_linear=0
shrinkage=0.05


Tree=85
num_leaves=7
num_cat=0
split_feature=3 0 3 5 3 8
split_gain=1.61898 2.95805 1.81354 3.01531e-05 1.20709e-05 9.18613e-06
threshold=89957.500000000015 0.037000000000000012 44965.500000000007 0.15000000000000005 97149.500000000015 0.87500000000000011
decision_type=2 2 2 2 2 2
left_child=2 3 -1 -2 5 -5
right_child=1 -3 -4 4 -6 -7
leaf_value=0.010081802383210509 -0.051400025215839668 0.0504545445226669 -0.048211680893876223 -0.051248876759249801 -0.050567976524878017 -0.050772805509448904
leaf_weight=2.3323615789413452 0.31438984628766797 2.433093000203371 3.1176902092993259 0.18429295741952956 0.29594520572572947 0.22508270503021777
leaf_count=15 17 35 38 14 39 33
internal_value=-0.00629371 0.0204943 -0.0232649 -0.0509928 -0.0508113 -0.0509871
internal_weight=8.90286 3.4528 5.45005 1.01971 0.705321 0.409376
internal_count=191 138 53 103 86 47
is_linear=0
shrinkage=0.05


Tree=86
num_leaves=8
num_cat=0
split_feature=3 0 3 12 5 3 3
split_gain=1.4808 2.73241 1.67112 0.000118753 1.91761e-05 1.81051e-06 5.66572e-07
threshold=89957.500000000015 0.037000000000000012 44965.500000000007 0.66500000000000015 1.0000000180025095e-35 383365.50000000006 89972.500000000015
decision_type=2 2 2 2 2 2 2
left_child=2 3 -1 4 -2 6 -6
right_child=1 -3 -4 -5 5 -7 -8
leaf_value=0.0095814802579989485 -0.051017555197285513 0.048406402032633827 -0.046580600384002101 -0.051670667418455787 -0.050364182595082886 -0.050491349949667454 -0.050223692133216313
leaf_weight=2.3314676769077778 0.14873311668634448 2.4098484497517347 3.0668302008416504 0.35612592287361622 0.1328956235665828 0.17712142271921039 0.15600566030479968
leaf_count=15 9 35 38 12 24 19 39
internal_value=-0.00607408 0.0198748 -0.0223248 -0.0509441 -0.0505232 -0.0503655 -0.0502883
internal_weight=8.77903 3.38073 5.3983 0.970882 0.614756 0.466023 0.288901
internal_count=191 138 53 103 91 82 63
is_linear=0
shrinkage=0.05


Tree=87
num_leaves=7
num_cat=0
split_feature=3 3 3 3 7 3
split_gain=1.36109 1.2774 0.898918 0.620818 0.551969 0.196347
threshold=89948.500000000015 44969.000000000007 89975.500000000015 89967.500000000015 1.0000000180025095e-35 383365.50000000006
decision_type=2 2 2 2 2 2
left_child=1 -1 3 -2 -4 -6
right_child=2 -3 4 -5 5 -7
leaf_value=0.0036637389341755422 0.012050845211393267 -0.045788613613774523 0.024585755732121066 0.072111602962122906 -0.052401727502925759 -0.0063113286319117935
leaf_weight=2.5246582133695483 0.80841169692575954 2.7049495049286634 0.75861331447958924 0.91977164288982749 0.54033923428505659 0.40371330128982663
leaf_count=18 36 25 35 22 31 24
internal_value=-0.00585992 -0.0219149 0.0186125 0.0440163 -0.00717204 -0.0326917
internal_weight=8.66046 5.22961 3.43085 1.72818 1.70267 0.944053
internal_count=191 43 148 58 90 55
is_linear=0
shrinkage=0.05


Tree=88
num_leaves=7
num_cat=0
split_feature=3 0 3 5 3 8
split_gain=1.23829 2.58027 1.17971 2.46859e-05 8.27238e-06 7.18269e-06
threshold=89948.500000000015 0.037000000000000012 44969.000000000007 0.15000000000000005 97149.500000000015 0.87500000000000011
decision_type=2 2 2 2 2 2
left_child=2 3 -1 -2 5 -5
right_child=1 -3 -4 4 -6 -7
leaf_value=0.0034804100224259632 -0.051284440874658055 0.04535335029605389 -0.044230459060404091 -0.051092606084657224 -0.0505156050079568 -0.050678297733789152
leaf_weight=2.5247586313635111 0.28896383335813913 2.4320216309279203 2.6613530225586146 0.19624147028662264 0.2664003970567137 0.22404430946335196
leaf_count=18 17 37 25 17 39 38
internal_value=-0.00561833 0.017796 -0.0210033 -0.0508967 -0.0507336 -0.0508717
internal_weight=8.59378 3.40767 5.18611 0.97565 0.686686 0.420286
internal_count=191 148 43 111 94 55
is_linear=0
shrinkage=0.05


Tree=89
num_leaves=8
num_cat=0
split_feature=3 3 3 3 4 5 8
split_gain=1.13095 1.42091 0.794369 0.5719 0.481026 0.235652 0.203577
threshold=89948.500000000015 44965.500000000007 89975.500000000015 89967.500000000015 1.0000000180025095e-35 0.35000000000000003 0.82500000000000007
decision_type=2 2 2 2 2 2 2
left_child=1 -1 3 -2 5 -4 -6
right_child=2 -3 4 -5 6 -7 -8
leaf_value=0.0087513722823469153 0.010413785268874882 -0.044042566226013775 0.050311689799430973 0.068484844163895081 -0.057595396043727431 -0.0059602383798545364 -0.009793796117760491
leaf_weight=2.3298973217606544 0.80071704718284331 2.8135589123703539 0.37080569122917928 0.90110529121011496 0.42158424039371312 0.37339955475181341 0.47221348970197141
leaf_count=15 36 28 11 22 16 30 33
internal_value=-0.00541674 -0.0201278 0.0172389 0.0411621 -0.00761645 0.0220777 -0.0323407
internal_weight=8.48328 5.14346 3.33983 1.70182 1.638 0.744205 0.893798
internal_count=191 43 148 58 90 41 49
is_linear=0
shrinkage=0.05


Tree=90
num_leaves=9
num_cat=0
split_feature=3 3 3 8 3 4 3 9
split_gain=0.759525 1.66171 0.54992 1.07764 1.68708 0.586562 0.172719 0.157338
threshold=44965.500000000007 89182.000000000015 89975.500000000015 0.82500000000000007 89948.500000000015 1.0000000180025095e-35 273579.00000000006 3.5000000000000004
decision_type=2 2 2 2 2 2 2 2
left_child=-1 -2 3 -3 -5 7 -7 -4
right_child=1 2 5 4 -6 6 -8 -9
leaf_value=0.030348239058891516 -0.038419599549452461 0.06336035203553346 0.048911008828050162 -0.074290403088445714 0.050896097437899461 -0.051922671287966765 -0.0073488840415941161 0.0024695593942412383
leaf_weight=1.8469329755753277 2.4434921508654952 1.174282030202449 0.36299166735261656 0.49144485103897728 0.59492872469127178 0.5575245653744787 0.35617255792021751 0.36652049561962485
leaf_count=13 17 17 12 10 31 26 26 30
internal_value=0.00212829 -0.00608306 0.0141569 0.0301562 -0.00573475 -0.00785427 -0.0345472 0.025578
internal_weight=8.19429 6.34736 3.90386 2.26066 1.08637 1.64321 0.913697 0.729512
internal_count=182 169 152 58 41 94 52 42
is_linear=0
shrinkage=0.05


Tree=91
num_leaves=6
num_cat=0
split_feature=0 3 5 3 3
split_gain=1.10754 1.18417 1.00159e-05 2.07711e-06 6.40053e-07
threshold=0.037000000000000012 89182.000000000015 0.25000000000000006 23698747.500000004 91761.000000000015
decision_type=2 2 2 2 2
left_child=2 -2 -1 4 -4
right_child=1 -3 3 -5 -6
leaf_value=-0.050959177531932943 -0.0084704939875507399 0.032629786617776428 -0.050589417265808324 -0.050454881014513599 -0.050732575822226435
leaf_weight=0.3969122995622455 4.2462443970143795 2.9841799726709723 0.11690141842700541 0.13587865326553583 0.23508919379673898
leaf_count=37 30 39 23 16 37
internal_value=0.00203108 0.00849264 -0.0507727 -0.0506209 -0.050685
internal_weight=8.11521 7.23042 0.884782 0.487869 0.351991
internal_count=182 69 113 76 60
is_linear=0
shrinkage=0.05


Tree=92
num_leaves=8
num_cat=0
split_feature=3 3 3 3 4 3 5
split_gain=0.716679 1.46294 0.47616 0.846623 0.546399 0.170608 0.139596
threshold=44965.500000000007 89182.000000000015 89975.500000000015 89967.500000000015 1.0000000180025095e-35 273579.00000000006 0.35000000000000003
decision_type=2 2 2 2 2 2 2
left_child=-1 -2 3 -3 6 -6 -4
right_child=1 2 4 -5 5 -7 -8
leaf_value=0.02932279160501582 -0.03680164502956805 0.0034264448739818273 0.04749279817626708 0.066550739572457759 -0.051693963527279618 -0.0065247133458766361 0.0028315835782277165
leaf_weight=1.84270085953176 2.3967398535460234 1.3718023423571146 0.34740745392627992 0.8668108689598738 0.53928706888109446 0.34139032056555152 0.35249210218898952
leaf_count=13 17 37 12 21 26 26 30
internal_value=0.00193688 -0.00618163 0.013034 0.0278687 -0.00797677 -0.0341843 0.025
internal_weight=8.05863 6.21593 3.81919 2.23861 1.58058 0.880677 0.6999
internal_count=182 169 152 58 94 52 42
is_linear=0
shrinkage=0.05


Tree=93
num_leaves=6
num_cat=0
split_feature=0 3 5 3 8
split_gain=1.04862 1.02184 9.34425e-06 1.75412e-06 6.30676e-07
threshold=0.037000000000000012 89182.000000000015 0.25000000000000006 23698747.500000004 0.87500000000000011
decision_type=2 2 2 2 2
left_child=2 -2 -1 4 -4
right_child=1 -3 3 -5 -6
leaf_value=-0.050925802728668514 -0.0077420557056716152 0.030694341928387887 -0.050725840433581609 -0.0504359319731175 -0.050588240349173544
leaf_weight=0.38317396724596609 4.196811294183135 2.9408667525276542 0.15658156969584525 0.12951414985582232 0.17786887648981065
leaf_count=37 30 39 24 16 36
internal_value=0.00185222 0.00809451 -0.0507431 -0.0505922 -0.0506527
internal_weight=7.98482 7.13768 0.847139 0.463965 0.33445
internal_count=182 69 113 76 60
is_linear=0
shrinkage=0.05


Tree=94
num_leaves=9
num_cat=0
split_feature=3 3 0 12 5 3 5 3
split_gain=0.674529 1.28944 1.61676 3.30377e-05 2.28311e-05 7.73215e-07 1.2838e-06 3.98848e-08
threshold=44965.500000000007 89182.000000000015 0.037000000000000012 0.66500000000000015 1.0000000180025095e-35 23698747.500000004 0.25000000000000006 97144.500000000015
decision_type=2 2 2 2 2 2 2 2
left_child=-1 -2 3 4 -3 6 -6 -8
right_child=1 2 -4 -5 5 -7 7 -9
leaf_value=0.028310267754528801 -0.035251188909555309 -0.051078842681400928 0.029230832405506266 -0.051169722776669771 -0.050376094101638194 -0.050414513220103298 -0.050143002585573151 -0.050193260366391601
leaf_weight=1.8384523279964922 2.3521371530368924 0.12499170098453793 2.933886693790555 0.26072304509580135 0.13950646598823369 0.1232486916705966 0.079574254457838833 0.078341983840800822
leaf_count=13 17 8 39 12 25 16 29 23
internal_value=0.00176553 -0.00624464 0.0119967 -0.0507067 -0.0504855 -0.0503092 -0.0502656 -0.0501679
internal_weight=7.93086 6.09241 3.74027 0.806386 0.545663 0.420671 0.297423 0.157916
internal_count=182 169 152 113 101 93 77 52
is_linear=0
shrinkage=0.05


Tree=95
num_leaves=10
num_cat=0
split_feature=0 3 0 0 12 5 3 5 3
split_gain=1.90021 0.531612 0.00455682 0.000149131 4.28913e-05 2.53466e-05 9.54886e-07 4.94859e-07 2.35372e-08
threshold=0.38700000000000007 86791.000000000015 0.23250000000000001 0.037000000000000012 0.66500000000000015 1.0000000180025095e-35 23698747.500000004 0.25000000000000006 97146.500000000015
decision_type=2 2 2 2 2 2 2 2 2
left_child=2 -2 3 4 5 -1 7 -7 -9
right_child=1 -3 -4 -5 -6 6 -8 8 -10
leaf_value=-0.051040739367277113 -0.0042896040293942256 0.027332043355457476 -0.057709167120825237 -0.052322463855631732 -0.051245833740959028 -0.050305826164158789 -0.050398160157534844 -0.050142075938864564 -0.050184089785770096
leaf_weight=0.15862377453595378 2.4384213164448738 2.921643678098917 0.34378708619624365 0.1939417514950037 0.31729445792734623 0.11353230429813266 0.12615409074351192 0.064383577322587371 0.069128104369156063
leaf_count=10 13 35 6 5 14 24 17 24 21
internal_value=-0.000550707 0.0129466 -0.0527169 -0.0510715 -0.0507858 -0.0505113 -0.0502862 -0.0502291 -0.0501638
internal_weight=6.74691 5.36006 1.38685 1.04306 0.849116 0.531822 0.373198 0.247044 0.133512
internal_count=169 48 121 115 110 96 86 69 45
is_linear=0
shrinkage=0.05


Tree=96
num_leaves=9
num_cat=0
split_feature=0 0 0 0 12 9 8 12
split_gain=1.7861 0.212556 0.00391941 0.000127933 3.68257e-05 2.17952e-05 1.79973e-07 8.49825e-08
threshold=0.38700000000000007 0.48000000000000004 0.23250000000000001 0.037000000000000012 0.66500000000000015 1.0000000180025095e-35 0.82500000000000007 0.065000000000000016
decision_type=2 2 2 2 2 2 2 2
left_child=2 -2 3 4 5 -1 -7 -8
right_child=1 -3 -4 -5 -6 6 7 -9
leaf_value=-0.050989302268851816 0.024260340380601347 0.0040130507249642412 -0.057313492161413397 -0.052204906605470697 -0.051183751986725583 -0.050317461000819866 -0.050269499914117277 -0.050205905013133836
leaf_weight=0.15103597193956353 2.1930304616689682 3.1697476468980312 0.32922089006751776 0.18488803319633007 0.30217667110264301 0.13577203056775033 0.13211179943755269 0.087209660210646689
leaf_count=10 12 36 6 5 14 28 32 26
internal_value=-0.000540886 0.0122929 -0.0525856 -0.0510184 -0.050747 -0.0504862 -0.0502722 -0.0502442
internal_weight=6.68519 5.36278 1.32242 0.993194 0.808306 0.506129 0.355093 0.219321
internal_count=169 48 121 115 110 96 86 58
is_linear=0
shrinkage=0.05


Tree=97
num_leaves=10
num_cat=0
split_feature=0 3 0 0 12 5 3 5 3
split_gain=1.67986 0.480782 0.00337118 0.000109767 3.16208e-05 1.87416e-05 7.06458e-07 3.66545e-07 1.74252e-08
threshold=0.38700000000000007 86791.000000000015 0.23250000000000001 0.037000000000000012 0.66500000000000015 1.0000000180025095e-35 23698747.500000004 0.25000000000000006 97146.500000000015
decision_type=2 2 2 2 2 2 2 2 2
left_child=2 -2 3 4 5 -1 7 -7 -9
right_child=1 -3 -4 -5 -6 6 -8 8 -10
leaf_value=-0.050940441464540555 -0.004730860853264139 0.025340842905724865 -0.056938954407837618 -0.052093508697392488 -0.051124826060073569 -0.050276630307693831 -0.050360055824130924 -0.050128506156702606 -0.050166505558454394
leaf_weight=0.14380419021472313 2.435393899679184 2.9260926125571132 0.31517241429537535 0.17623752914369106 0.28776227962225676 0.10278830653987825 0.11424456955865026 0.058264571824111044 0.062565168715082109
leaf_count=10 13 35 6 5 14 24 17 24 21
internal_value=-0.00053095 0.0116811 -0.0524605 -0.0509679 -0.0507101 -0.0504624 -0.0502589 -0.0502072 -0.0501482
internal_weight=6.62233 5.36149 1.26084 0.945667 0.769429 0.481667 0.337863 0.223618 0.12083
internal_count=169 48 121 115 110 96 86 69 45
is_linear=0
shrinkage=0.05


Tree=98
num_leaves=9
num_cat=0
split_feature=0 3 0 0 9 3 3 8
split_gain=1.58046 0.433717 0.00289968 9.41952e-05 1.6324e-05 2.56696e-06 1.76031e-06 1.05544e-06
threshold=0.38700000000000007 86791.000000000015 0.23250000000000001 0.037000000000000012 1.5000000000000002 97149.500000000015 89975.500000000015 0.87500000000000011
decision_type=2 2 2 2 2 2 2 2
left_child=2 -2 3 4 -1 6 -6 -7
right_child=1 -3 -4 -5 5 7 -8 -9
leaf_value=-0.050999982165503902 -0.0044917098729743169 0.024062929680243761 -0.056584357347138542 -0.051987924523916242 -0.05048573601091251 -0.050485141921698722 -0.05074171101505548 -0.050260728289347703
leaf_weight=0.2530725870747117 2.4367716610431671 2.9273805199190974 0.30163250397890806 0.1679741982370615 0.14344487141352147 0.10422160744201392 0.126299221185036 0.10535818722564727
leaf_count=18 13 35 6 5 31 18 18 25
internal_value=-0.000520626 0.0110914 -0.0523414 -0.05092 -0.0506751 -0.0505036 -0.0506056 -0.0503723
internal_weight=6.56616 5.36415 1.202 0.900371 0.732396 0.479324 0.269744 0.20958
internal_count=169 48 121 115 110 92 49 43
is_linear=0
shrinkage=0.05


Tree=99
num_leaves=12
num_cat=0
split_feature=12 8 3 12 12 5 3 12 12 5 3
split_gain=1.56018 2.38529 1.71796 1.40279 0.993853 0.304463 0.257891 0.00296442 9.50348e-05 1.16206e-06 8.87946e-09
threshold=0.56000000000000016 0.77500000000000013 16617.500000000004 0.53500000000000014 0.52500000000000013 1.0000000180025095e-35 2361558.5000000005 0.27500000000000008 0.12500000000000003 0.25000000000000006 97146.500000000015
decision_type=2 2 2 2 2 2 2 2 2 2 2
left_child=1 -1 -3 4 5 -4 7 8 9 -7 -11
right_child=-2 2 3 -5 -6 6 -8 -9 -10 10 -12
leaf_value=-0.080398848829681402 0.034565439128170915 0.075791552199687806 0.0086629349808530123 -0.085196042190092164 0.062352154439522314 -0.050379815195885552 0.0074079163618854266 -0.058073845230193266 -0.052073571280301337 -0.05010982570477196 -0.05014039513694727
leaf_weight=1.123661729507148 2.1323076309636235 0.66482798755168948 0.67033651098609037 0.54979266226291645 0.54835979640483845 0.084991661948151886 0.23607577430084348 0.28957401029765606 0.11748677305877209 0.046747355023398995 0.04829719930421561
leaf_count=13 40 3 14 3 3 21 20 7 4 22 19
